tree
version=v4
num_class=1
num_tree_per_iteration=1
label_index=0
max_feature_idx=85
objective=lambdarank
feature_names=site_id visitor_location_country_id visitor_hist_starrating visitor_hist_adr_usd prop_country_id prop_id prop_starrating prop_review_score prop_brand_bool prop_location_score1 prop_location_score2 prop_log_historical_price position price_usd promotion_flag srch_destination_id srch_length_of_stay srch_booking_window srch_adults_count srch_children_count srch_room_count srch_saturday_night_bool srch_query_affinity_score orig_destination_distance random_bool comp1_available comp2_available comp3_available comp4_available comp5_available comp6_available comp7_available comp8_available comp_rates_available mean_comp_price_diff has_booking_history price_usd_original hour day_of_week month is_weekend dest_avg_price dest_price_std price_per_night total_price price_rank price_percentile price_diff_from_mean price_ratio_to_mean price_per_star comp1_price_diff comp2_price_diff comp3_price_diff comp4_price_diff comp5_price_diff comp6_price_diff comp7_price_diff comp8_price_diff avg_comp_price_diff cheaper_than_comp_count comp_position_score location_score_diff location_score_product prop_historical_ctr prop_click_count prop_historical_br prop_booking_count prop_avg_price prop_price_std review_rank star_rank location_rank total_guests rooms_per_person advance_booking_days destination_search_volume is_domestic log_orig_distance user_has_history star_rating_diff price_diff_from_hist review_score_per_dollar star_x_score location_score_per_dollar star_per_dollar comp_position_x_review
feature_infos=[1:34] [4:224] [0:5] [0:691.75] [4:230] [4:140816] [0:5] [-3.7399178781688183:1.1744811465001559] [0:1] [-1.881691375709039:2.6580364800791569] [-0.57685077581933231:5.7351094597235468] [-2.3725274414561635:1.0186106845592662] [1:39] [-1.8451353591979749:3.160204546135319] [0:1] [44:28369] [1:28] [0:359] [1:8] [0:5] [1:8] [0:1] [-120.2903:-4.1803999999999997] [-0.57244466857260712:5.5913419829892712] [0:1] [0:1] [0:1] [0:1] [0:1] [0:1] [0:1] [0:1] [0:1] [0:6] [0:371] [0:1] [5.8600000000000003:370] [0:23] [0:6] [1:12] [0:1] [-1.5328589306107483:2.5914784007429836] [0.079854992978510606:1.848204347152822] [-1.810358872241054:3.160204546135319] [-48.146004072557034:47.403068192029785] [1:33] [0.0277777777777777:1] [-2.9189654636526954:3.6920206519757151] [-1786.3586324978669:1261.4728678159561] [-1.7195001454484655:0.6320409092270638] [-2.7497405688892669:4.1602045461353185] [-2.7882283805411952:4.1602045461353185] [-2.7195001454484657:4.1602045461353185] [-2.7978503334541767:4.1602045461353185] [-2.810358872241054:4.1602045461353185] [-2.5270610871888235:4.1602045461353185] [-2.5270610871888235:4.1602045461353185] [-2.6507719103557363:4.1602045461353185] [-2.810358872241054:4.1602045461353185] [0:6] [0:1] [-3.0770729796443899:3.0925607935624817] [-1.2854444545734611:15.244130161192253] [0:1] [1:54] [0:1] [1:54] [-1.811275248708957:3.160204546135319] [0:3.0743222011464808] [1:10] [1:6] [1:32] [1:12] [0.1666666666666666:1] [0:359] [5:1542] [0:1] [-0.84967156874117744:1.8857569670830927] none [-4.25:5] [-693.00214814681794:3.160204546135319] [-3.7399178781688183:1.1744811465001559] [-18.699589390844093:5.8724057325007797] [-1.881691375709039:2.6580364800791569] [0:5] [-3.7399178781688183:1.1744811465001559]
tree_sizes=3411 3438 3426 3458 3451 3408 3438 3437 3462 3428 3439 3432 3461 3435 3432 3436 3426 3440 3442 3445 3440 3446 3451 3441 3446 3428 3424 3433 3449 3435 3396 3426 3439 3457 3450 3435

Tree=0
num_leaves=31
num_cat=0
split_feature=63 63 63 12 5 12 61 47 51 75 5 23 63 75 18 5 16 67 47 67 75 47 47 75 44 65 62 33 5 36
split_gain=3319.58 65.1517 36.8767 33.5025 31.3508 17.0552 10.0219 11.9922 8.54997 9.99188 8.34956 8.21275 7.79753 6.63045 6.5058 5.86073 5.77922 5.1044 11.5376 4.51434 4.27649 3.74569 9.03211 3.67775 4.77905 3.50372 3.39221 4.03548 3.35347 3.45022
threshold=0.046536796536796508 0.20714285714285713 1.0000000180025095e-35 13.500000000000002 13500.000000000002 31.500000000000004 1.6550576985364569 0.16617899196351651 -0.56459088295024118 610.50000000000011 4564.5000000000009 -0.28490971737938509 0.4642857142857143 401.00000000000006 1.5000000000000002 6846.5000000000009 5.5000000000000009 1.0866135561819685 -0.11652544982662294 -0.81644550044754804 429.50000000000006 -0.97880513208825037 -0.18871880781981751 34.500000000000007 -2.9315851744835304 0.10263157894736842 -0.15098810770539492 1.5000000000000002 14543.500000000002 119.90500000000002
decision_type=2 2 2 2 2 2 2 2 10 2 2 2 2 2 2 2 2 2 2 2 2 2 2 2 2 2 2 2 2 2
left_child=2 3 -1 10 5 -5 7 16 11 17 -2 23 15 19 -15 -3 21 18 26 -13 -20 -4 -23 24 -6 28 27 -10 29 -12
right_child=1 12 6 4 8 -7 -8 -9 9 -11 25 13 -14 14 -16 -17 -18 -19 20 -21 -22 22 -24 -25 -26 -27 -28 -29 -30 -31
leaf_value=-0.099968257701729346 0.020489119319568379 0.040743993022572554 0.068923821171753746 -0.084801646190926061 0.08244572848978432 0.038028587600201183 -0.095835256135699889 -0.090338686260363357 0.07520507241202036 -0.092358414221360083 0.071856818501556313 -0.077351793251846448 0.094627753971642872 0.041279921842566833 -0.092662382300964352 0.08230430194746112 0.091418048512260222 0.057796325134917705 -0.09497302779518936 0.049439180435957436 0.037259585693213269 -0.093519475132592733 0.032214669079816613 0.077465504716065239 -0.083119878994654159 0.080308782037986429 0.056940653196433814 -0.085603486455794076 0.06726539028506387 0.0051089494575688446
leaf_weight=472.45557464996818 8.9366311561316234 9.7763757742941362 1.5689055967377497 8.468023286201058 0.75449287891387939 4.0807164849247775 3.5016620682436033 2.8084791956935069 0.5049624443054197 1.8629433516180132 3.2013512030243856 0.62487127661006425 230.50138342269929 1.4891316623252344 1.9442602238559628 164.13767514775463 2.3723248206079006 7.3983551471028468 2.8839035086857643 12.979836172249636 0.64965252520050842 2.2146273344988003 3.5723095248104091 23.78788596909726 0.78861922229407599 65.561564916162752 5.830724274506796 0.94191893085371703 64.931578806194011 5.1602988736703992
leaf_count=22335 39 37 25 126 1 26 112 146 1 81 12 47 739 33 102 1198 4 130 220 261 13 114 53 269 58 471 91 78 818 47
internal_value=0.00027717 0.076391 -0.0974339 0.0545747 0.0271921 -0.0444784 -0.0223092 -0.000780763 0.0417237 0.0144072 0.0684071 0.0544828 0.0883802 0.0269434 -0.0336297 0.0800215 0.0252216 0.0260478 0.00353263 0.0427288 -0.0689293 0.00226223 -0.015825 0.0726308 0 0.0714382 0.0398508 -0.0250153 0.0633365 0.0318022
internal_weight=1115.69 627.197 488.494 222.782 74.9903 12.5487 16.0383 12.5366 62.4416 20.0725 147.791 42.3691 404.415 17.0381 3.43339 173.914 9.72817 18.2095 10.8112 13.6047 3.53356 7.35584 5.78694 25.331 1.54311 138.855 7.27761 1.44688 73.2932 8.36165
internal_count=27687 4898 22789 2924 1537 152 454 342 1385 614 1387 771 1974 443 135 1235 196 533 403 308 233 192 167 328 59 1348 170 79 877 59
is_linear=0
shrinkage=0.05


Tree=1
num_leaves=31
num_cat=0
split_feature=63 63 12 12 49 46 75 42 42 75 47 24 63 5 5 61 48 23 10 63 61 45 48 10 48 10 62 67 44 67
split_gain=4927.35 559.035 178.042 98.3899 85.0323 43.3396 43.1362 37.3533 35.6422 34.0539 51.8814 33.7217 42.8891 33.8808 43.7754 30.7928 30.8564 42.2987 37.3583 33.4367 30.0833 30.0782 32.2807 29.2203 35.5233 28.4507 28.1893 30.2148 53.1756 27.8935
threshold=0.025978407557354904 0.53571428571428581 2.5000000000000004 23.500000000000004 0.011627036858212503 0.81339285714285725 214.50000000000003 1.0785117146540453 0.59615302927042924 32.500000000000007 -0.9076827156704681 1.0000000180025095e-35 0.10172413793103446 45491.500000000007 70130.500000000015 -0.25542852440842401 5.1998622979012605 -0.45311189026451099 -0.55094926073078643 0.24404761904761904 0.77629672610597156 2.5000000000000004 1.8071295799236242 1.1141758202358518 0.99079702882168585 -0.43584576973879491 -0.40933702215814033 0.61092310442878317 -0.49862878887397183 -0.11577259838302088
decision_type=2 2 2 2 2 2 2 2 2 2 2 2 2 2 2 2 2 2 2 2 2 2 2 2 2 2 2 2 2 2
left_child=-1 2 6 4 15 9 -2 -8 20 10 -5 12 -11 -13 -15 16 17 18 -4 -19 -6 -14 26 -10 -25 -7 -23 28 -28 -16
right_child=1 -3 3 5 8 25 7 -9 23 11 -12 13 21 14 29 -17 -18 19 -20 -21 -22 22 -24 24 -26 -27 27 -29 -30 -31
leaf_value=-0.090791196108370831 0.059967069341179326 0.086286835732954731 -0.098428631868486216 0.071975163632685107 -0.053725885709546201 -0.01229051533791611 0.033342059392393979 -0.065872056138110119 0.016515372864218919 -0.097390901569152741 -0.096566383571594708 0.062092313057797936 0.043060921916302571 -0.076851247382741406 -0.040501777208939493 0.041590881308460115 0.080941622139168834 -0.018838893557839794 0.00067337060471126203 0.042699900894112817 0.030000672461712348 -0.069207677434100931 -0.098118478332344092 -0.098123553356064985 0.011322009375728137 -0.097052952697675679 0.018881145954982245 0.066145507949646798 -0.083742858787705557 0.050586442835474268
leaf_weight=1056.6192662166432 397.02789814956486 469.11338511109352 10.649397633038459 5.9199436707422164 37.03413424314931 19.724009585333988 78.467860299628228 10.667592041194437 516.59077759785578 12.504073864081873 18.657384602818638 42.647077144589275 30.068135146517307 13.053119969787074 11.176316939294336 546.3134271663148 19.6618672311306 26.542909471318126 81.618753906339407 126.66429068893194 14.928715474903582 14.186049081617965 10.100603229366241 12.511456218548121 17.780460092704743 20.157502100802958 46.636955520138137 16.939585064537823 17.179086999036379 32.537968883523718
leaf_count=22539 422 326 34 8 95 96 154 38 1350 184 95 103 57 58 54 977 20 92 133 141 24 61 69 42 54 150 99 39 86 87
internal_value=0.000630179 0.0367175 0.0261801 0.0186289 0.0242466 -0.00678933 0.0529033 0.0213517 0.00994099 0.000346792 -0.05564 0.0059575 -0.0091764 0.0284658 0.00305085 0.0347954 0.0207642 0.0158928 -0.0108048 0.0320005 -0.0295641 -0.000909435 -0.0135724 0.0137085 -0.0338918 -0.055393 -0.00443137 0.00695733 -0.0087545 0.0271448
internal_weight=3733.68 2677.06 2207.95 1721.78 1410.3 311.488 486.163 89.1355 598.846 271.606 24.5773 247.029 147.614 99.4145 56.7674 811.451 265.137 245.475 92.2682 153.207 51.9628 135.11 105.042 546.883 30.2919 39.8815 94.9417 80.7556 63.816 43.7143
internal_count=27687 5148 4822 4208 2962 1246 614 192 1565 1000 103 897 595 302 199 1397 420 400 167 233 119 411 354 1446 96 246 285 224 185 141
is_linear=0
shrinkage=0.05


Tree=2
num_leaves=31
num_cat=0
split_feature=63 63 65 24 65 65 24 63 63 18 48 47 71 63 48 80 5 63 23 67 45 45 46 47 23 48 1 46 12 11
split_gain=4447.28 439.992 76.0096 144.363 254.025 104.608 89.6867 63.5967 42.4894 37.4966 43.1954 35.5548 32.6562 32.6089 31.8442 29.3779 29.2041 26.6907 25.6498 25.4555 30.2078 25.4465 26.0415 25.3475 21.9641 21.9266 21.4004 20.2752 21.6472 20.2567
threshold=1.0000000180025095e-35 0.38750000000000007 0.13809523809523808 1.0000000180025095e-35 0.019803921568627456 0.054093567251461951 1.0000000180025095e-35 0.12731481481481483 0.70833333333333337 7.5000000000000009 -1.6479552616453363 -0.30078709946465088 22.500000000000004 0.27922077922077926 2.4364255322420361 0.94736156085471224 53910.000000000007 0.060661764705882353 -0.54910565242465892 -0.46966737196788305 9.5000000000000018 8.5000000000000018 0.78679653679653694 0.11600416445247076 -0.56795539945790607 1.1105584895458172 97.500000000000014 0.89433811802232865 8.5000000000000018 0.9612726003029668
decision_type=2 2 2 2 2 2 2 2 2 2 2 2 2 2 2 2 2 2 2 2 2 2 2 2 2 2 2 2 2 2
left_child=-1 2 3 4 12 17 11 9 23 10 -7 -4 24 21 -13 -16 27 -5 -18 20 -20 25 -23 -3 -2 -8 -21 28 -6 -29
right_child=1 8 6 5 16 7 13 -9 -10 -11 -12 14 -14 -15 15 -17 18 -19 19 26 -22 22 -24 -25 -26 -27 -28 29 -30 -31
leaf_value=-0.085920142713449277 0.01853399254639659 0.065339390048667248 0.058082983220792854 -0.0068477510875498068 0.061572129206011905 0.044128901715609334 0.035555836096185671 0.050873523845935936 0.081151983806196273 0.080147003477712128 -0.078250171750916891 0.037785481729396012 0.049309488245631847 0.025761723481233026 0.012332148576324177 -0.09730870743104475 -0.070270984698751413 0.054231299659837064 -0.078441223269267099 -0.059661926081550368 0.024871803312467678 -0.098711069569146423 -0.010637956792402623 0.037381020707316227 -0.068861764109588705 -0.04305153407688337 0.025540055814241416 -0.09472520741413494 0.01836447789739773 0.063571811655635801
leaf_weight=1029.9966130066896 7.4555790340527883 307.44323073886335 233.06564561463892 18.988463847432286 69.850655067712069 8.5789591399952752 21.113164598122239 25.764082971494645 376.30259824544191 5.382763751782476 41.950269887689501 344.53084391308948 6.497561912983655 51.905469066463411 26.868709918111563 7.7840474843978873 10.050962045788763 267.86024999804795 15.425623461138459 7.695298781618475 12.831501842476426 17.945369452238083 16.002503417897969 112.15417709760368 136.2962344517 15.135506541468201 127.76044098101556 5.3410685588605684 50.385295169427991 3.0919897491112351
leaf_count=22335 34 329 351 223 124 21 51 64 290 10 267 606 16 97 61 33 70 504 86 44 32 98 54 167 933 48 423 55 244 17
internal_value=0.00071296 0.0386646 0.0231865 0.0127229 -0.00618294 0.035955 0.0348776 -0.0139066 0.0689029 -0.0438838 -0.0573275 0.0426805 -0.0593094 -0.00421012 0.0331874 -0.0123617 0.0202048 0.0501697 0.00679234 0.0115941 -0.0314284 -0.0264485 -0.0574948 0.057889 -0.0642846 0.0025679 0.0206224 0.0382597 0.0435377 -0.0360347
internal_weight=3381.45 2351.46 1555.56 821.207 452.682 368.525 734.351 81.6761 795.9 55.912 50.5292 612.249 150.249 122.102 379.184 34.6528 302.433 286.849 173.764 163.713 28.2571 70.1965 33.9479 419.597 143.752 36.2487 135.456 128.669 120.236 8.43306
internal_count=27687 5352 4566 3167 2078 1089 1399 362 786 298 288 1051 983 348 700 94 1095 727 655 585 118 251 152 496 967 99 467 440 368 72
is_linear=0
shrinkage=0.05


Tree=3
num_leaves=31
num_cat=0
split_feature=65 24 65 12 12 68 61 46 66 84 75 58 82 68 5 61 51 81 23 85 1 58 19 4 12 47 42 52 75 68
split_gain=2015.24 766.74 178.375 64.7637 59.3883 29.0003 27.6753 36.6893 25.89 26.7399 25.5467 24.8182 30.1463 26.4833 24.1043 30.6667 30.9305 27.9787 28.6432 25.8186 23.8417 23.3056 21.7671 29.1683 21.7136 28.8135 27.3707 26.2238 25.4115 20.6972
threshold=0.039230769230769208 1.0000000180025095e-35 0.41428571428571431 4.5000000000000009 7.5000000000000009 0.73475807485773059 -0.050562166115634195 0.063508064516129017 8.5000000000000018 2.9993157603359415 469.50000000000006 -0.17991895113623488 0.47900335391590282 0.061610430942254456 44486.500000000007 0.22559176035062367 -0.75689248473969795 0.17453092677778612 -0.54362580693057561 0.07025382524099906 209.00000000000003 0.097520274299438672 1.0000000180025095e-35 91.500000000000014 1.5000000000000002 0.24188043237947449 0.89583434488747249 1.4322392594339182 31.500000000000004 0.71526832368754223
decision_type=2 2 2 2 2 8 2 2 2 2 2 10 2 10 2 2 10 2 2 2 2 10 2 2 2 2 2 10 2 10
left_child=1 10 4 22 21 -4 7 -6 9 -5 -1 12 13 -9 -8 -16 17 18 -17 -18 -20 -2 -3 -24 -23 -26 27 28 -27 -11
right_child=2 3 5 8 6 -7 14 11 -10 29 -12 -13 -14 -15 15 16 19 -19 20 -21 -22 24 23 -25 25 26 -28 -29 -30 -31
leaf_value=-0.07406285410699659 0.047293839459118386 0.029825828413709999 0.055362532372893014 -0.034541198060635117 0.055844063502692103 0.080595563261775693 0.041232882635213075 0.054251227123293735 0.010603903775952916 -0.012735009891307943 -0.041548846295077067 -0.076126495842126607 0.013597523160763956 -0.085026730300510001 0.052822064696092678 0.04635169241035314 -0.0015103457858213901 0.035082732036451021 0.0013144332897538189 -0.068783232349324194 -0.096994136187082081 0.052310710966703845 0.044543757630161676 -0.039129688871820084 0.03073671337783836 0.045780006143749857 -0.097975167567744062 0.073370931833886155 -0.074882383822688053 0.028976170367324795
leaf_weight=769.69848742126487 431.15186556614935 163.00498398882337 241.35607697442174 141.5020350003615 20.607590910047293 221.8372742459178 135.54083228297532 4.1608218252658871 109.21988170035183 287.66775950905867 66.825782414060086 15.143866886384783 54.122215870767832 16.739879066124558 44.938972636125982 12.203348025679587 60.967764045111835 102.59521730896086 12.371946675702929 18.584898600354791 11.999760736711323 48.279905810952187 16.042690798640251 29.160425182431936 69.244873305782676 6.6535956412553849 9.2313881944864971 8.5366221033036691 12.110753579065202 33.013218355830759
leaf_count=15391 661 904 267 1925 28 173 436 9 1013 3294 1272 134 203 96 100 28 313 301 58 124 81 65 55 256 136 11 42 16 44 251
internal_value=0.000884288 -0.0382323 0.0414537 -0.00255001 0.0304395 0.067473 0.0179442 -0.00412596 -0.0112547 -0.0164322 -0.0714767 -0.0179342 -0.0060354 -0.0569355 0.0240804 0.0152316 0.00746474 0.0216909 -0.0157309 -0.0173559 -0.0470834 0.041315 0.021309 -0.00929065 0.0245299 0.0117653 -0.0240432 0.00103961 -0.0318161 -0.00841768
internal_weight=3174.51 1616.14 1558.38 779.611 1095.19 463.193 509.977 110.774 571.403 462.183 836.524 90.1668 75.0229 20.9007 399.203 263.662 218.723 139.17 36.5751 79.5527 24.3717 585.209 208.208 45.2031 154.057 105.777 36.5324 27.301 18.7643 320.681
internal_count=27687 24361 3326 7698 2886 440 1911 470 6483 5470 16663 442 308 105 1441 1005 905 468 167 437 139 975 1215 311 314 249 113 71 55 3545
is_linear=0
shrinkage=0.05


Tree=4
num_leaves=31
num_cat=0
split_feature=65 24 65 12 65 24 10 10 45 62 10 47 67 46 12 1 52 79 80 37 17 75 10 61 83 71 45 12 9 84
split_gain=1698 679.945 130.178 64.3165 51.8385 46.7373 34.8006 33.4774 31.8978 29.6498 26.5459 23.3718 26.7241 22.9363 22.4593 27.1006 22.3001 22.0514 20.8783 20.6463 20.4609 19.9099 18.7482 17.6996 17.0759 20.7755 20.446 24.6723 19.4367 18.9861
threshold=0.039230769230769208 1.0000000180025095e-35 0.55000000000000016 4.5000000000000009 0.21111111111111114 1.0000000180025095e-35 -0.56567630671629376 -0.56632222978583358 22.500000000000004 -0.13986773744874928 -0.17269671120828237 0.23465537666535122 -0.28159728397555078 0.78679653679653694 32.500000000000007 45.500000000000007 -0.41290766810058754 1.8950000000000002 -0.1531836676851632 3.5000000000000004 76.500000000000014 469.50000000000006 -0.50483035356564498 -2.2798223102418529 -1.1672972162703446 9.5000000000000018 1.5000000000000002 11.500000000000002 0.4044323224421798 3.6828554843547363
decision_type=2 2 2 2 2 2 2 2 2 2 2 2 2 2 2 2 8 2 2 2 2 2 2 2 2 2 2 2 2 2
left_child=1 21 4 19 7 11 16 13 14 22 24 -6 -13 -2 23 -16 -5 -12 -10 -3 -14 -1 -7 -9 -8 28 -27 29 -26 -28
right_child=2 3 -4 6 5 9 10 8 18 -11 17 12 20 -15 15 -17 -18 -19 -20 -21 -22 -23 -24 -25 25 26 27 -29 -30 -31
leaf_value=-0.070205671181725687 -0.079143208825259714 -0.070348808686873432 0.074370513195461521 0.011288677685687856 0.053288636009802118 0.024284822679904325 0.040340512232825157 -0.050868082864515177 0.056716574358742403 0.021269693710184705 -0.081240844991073688 -0.023896410812185045 0.048387464831883276 0.043143244758243687 0.08744963604555861 -0.071697562314945881 -0.060463055243516389 -0.015667420087973338 -0.076643855748080247 0.025327348019783726 -0.013898796168945418 -0.040943910876584111 -0.09708010447305708 0.029006035139383435 -0.008735471664108976 0.05402117897359611 -0.050196347676939271 -0.056572332359310168 0.022203451467811657 0.043753110623514613
leaf_weight=731.58141097705811 13.05532210506499 5.6862284988164893 221.36916141211987 13.610621540807186 441.87784049287438 4.5759466066956511 28.131377993151546 6.8868171554058781 3.7326467633247384 65.94200480915606 13.774472868070005 20.191772930324078 85.880338121205568 5.2792511917650691 3.382349252700803 11.273885638918728 50.349057917483151 179.21605658903718 12.1785350497812 194.99266783287749 15.38774102181196 64.620082640554756 9.7000263649970275 582.84644375136122 95.732859970536083 7.3968330575153223 8.4908198546618223 40.383657996542752 107.50941243674606 14.214956887066364
leaf_count=15391 93 47 185 137 571 13 150 59 9 146 248 40 149 20 2 131 852 2154 115 1168 43 1272 43 1707 1027 43 133 763 912 64
internal_value=0.00105737 -0.0355608 0.0389483 -0.00170769 0.0328235 0.0428482 -0.0104333 0.0227087 0.0246839 0.0070577 -0.00593138 0.0479336 0.0283828 -0.0436178 0.0265308 -0.0342872 -0.0451224 -0.0204132 -0.0448874 0.0225578 0.0388693 -0.0678425 -0.0579323 0.0280563 0.00331452 -0.000485764 -0.0238739 -0.0331568 0.00760863 0.00833544
internal_weight=3059.25 1555.69 1503.56 759.489 1282.19 643.556 558.81 638.635 620.301 80.218 494.85 563.338 121.46 18.3346 604.389 14.6562 63.9597 192.991 15.9112 200.679 101.268 796.201 14.276 589.733 301.86 273.729 70.4863 63.0894 203.242 22.7058
internal_count=27687 24361 3326 7698 3141 1005 6483 2136 2023 202 5494 803 232 113 1899 133 989 2402 124 1215 192 16663 56 1766 3092 2942 1003 960 1939 197
is_linear=0
shrinkage=0.05


Tree=5
num_leaves=31
num_cat=0
split_feature=63 63 63 12 63 43 67 44 12 23 51 22 67 43 45 47 44 23 69 12 39 45 5 15 42 46 46 83 47 43
split_gain=3465.67 215.502 62.8593 38.9441 38.2593 23.4613 25.6565 27.304 18.835 17.8963 17.8852 16.933 16.6796 25.1044 22.8719 22.7622 22.487 17.0041 16.3111 14.5714 22.1378 21.8604 19.1124 16.784 15.2849 15.2832 20.3196 23.4565 36.8991 17.2438
threshold=0.020620748299319706 0.38750000000000007 0.088932806324110672 1.5000000000000002 0.70833333333333337 0.25182218143584884 1.1972345142401786 5.8850102796819792 18.500000000000004 -0.28490971737938509 -1.9360669936264434 -24.354399999999995 0.37847504958049344 -0.39109892900787979 9.5000000000000018 -0.21190187624182757 -3.9632762797970211 3.33617103327787 1.5000000000000002 23.500000000000004 5.5000000000000009 10.500000000000002 114057.00000000001 10969.000000000002 1.0747791307089407 0.30917366946778718 0.52128623188405809 0.81244754375846107 -0.38924531550079489 -0.29002158375478743
decision_type=2 2 2 2 2 2 2 2 2 2 8 8 2 2 2 2 2 2 2 2 2 2 2 2 2 2 2 2 2 2
left_child=-1 2 5 -4 -3 12 7 -7 9 -8 -5 18 13 -2 16 -16 -15 -17 -12 25 22 23 -21 -22 -24 -13 27 -27 -29 -30
right_child=1 4 3 10 -6 6 8 -9 -10 -11 11 19 -14 14 15 17 -18 -19 -20 20 21 -23 24 -25 -26 26 -28 28 29 -31
leaf_value=-0.076163361761112325 0.034369516504909624 0.050731308669996172 0.052850732690413821 -0.055263816223931117 0.074817723303252051 -0.073887125162984388 0.052822286136830966 0.036832916845281359 -0.088587994174071288 -0.034466015322287435 0.04813554279119666 0.041202071405909479 0.034452139083230603 0.047854501233105508 0.063400960577930932 -0.091548782662673467 -0.096125694444400611 0.030748635988832113 -0.091159073984079908 0.032105680008313091 -0.088226242727864362 -0.071102363405556354 -0.090153196420030446 0.034614557543353984 0.033308602847143015 0.021504187478007808 0.032710139145645932 0.035903284496891813 0.021820257748961819 -0.089095444845812638
leaf_weight=984.59099850663915 25.911964278668165 366.33331385813653 176.27470066025853 6.4012407939881086 305.34656768292189 29.009265063796192 18.211631921119995 6.7541767498478285 4.1285639773122957 8.4908644491806609 3.1775955371558648 251.89007280534133 51.343515819171444 3.199086923152211 9.4984560236334818 6.7141640847548825 14.821566455997525 4.7287480477243662 5.6619708407670259 88.525380325037986 3.2893843483179834 13.567021263763307 6.0362065145745856 15.165832408703862 4.093691099435091 132.20069305039942 374.98624367685989 14.938883154653011 4.2887945063412216 16.847369404509664
leaf_count=22523 140 492 234 25 286 313 71 29 76 63 9 553 261 18 39 83 106 13 45 397 45 165 73 79 15 347 1077 37 11 90
internal_value=0.000440749 0.0386957 0.0268047 0.0312514 0.061698 -0.000348161 -0.0240165 -0.0527931 0.00926478 0.0248548 0.027195 0.027771 0.0131802 -0.0036053 -0.0290121 0.0063304 -0.0701669 -0.040748 -0.0405486 0.028433 0.0128806 -0.0231108 0.0246252 0.012093 -0.0399332 0.0309807 0.0262255 0.0117344 -0.02389 -0.066357
internal_weight=2956.43 1971.84 1300.16 1117.35 671.68 182.812 66.5945 35.7634 30.8311 26.7025 941.07 934.669 116.218 64.874 38.962 20.9414 18.0207 11.4429 8.83957 925.83 130.678 32.0222 98.6553 18.4552 10.1299 795.152 543.262 168.276 36.075 21.1362
internal_count=27715 5192 4414 3202 778 1212 552 342 210 134 2968 2943 660 399 259 135 124 96 54 2889 774 289 485 124 88 2115 1562 485 138 101
is_linear=0
shrinkage=0.05


Tree=6
num_leaves=31
num_cat=0
split_feature=63 63 63 12 63 24 75 43 85 46 10 10 68 54 83 68 16 11 63 12 42 49 5 70 5 57 38 63 67 49
split_gain=3020.42 165.307 40.5349 36.1191 28.1075 23.3863 23.238 22.9739 19.826 17.9378 19.3225 17.3617 17.9339 15.6822 14.7103 17.6655 28.4274 25.3324 16.6396 16.7258 15.7701 20.3549 17.6284 18.727 16.0375 17.6414 14.1141 15.0822 14.0903 14.0183
threshold=0.020620748299319706 0.38750000000000007 0.70833333333333337 4.5000000000000009 0.070197044334975353 1.0000000180025095e-35 335.50000000000006 1.2248174459240608 0.20964087812205698 0.21807065217391303 0.12733455459295248 -0.56503038364675395 0.20654235464547183 -0.39978057519787624 1.9003311860973158 0.19439280437220877 4.5000000000000009 0.18038250043145868 0.27922077922077926 10.500000000000002 0.55679845229430025 -0.14120164857631987 107873.50000000001 2.5000000000000004 36185.000000000007 1.1920361674852227 4.5000000000000009 0.063858695652173905 0.17739914311086499 -0.60497450523548502
decision_type=2 2 2 2 2 2 2 2 2 2 2 2 10 10 2 10 2 2 2 2 2 2 2 2 2 10 2 2 2 2
left_child=-1 3 13 6 26 7 -2 9 -8 29 14 12 -7 -3 15 16 17 -11 19 -17 -21 -22 23 24 25 -23 27 -5 -12 -6
right_child=1 2 -4 4 5 11 8 -9 -10 10 28 -13 -14 -15 -16 18 -18 -19 -20 20 21 22 -24 -25 -26 -27 -28 -29 -30 -31
leaf_value=-0.07311241933785842 0.041352318906514543 0.051000516053312343 0.07134297812339678 0.0033330463470495676 -0.042107453190506003 0.031419728066219087 -0.0019808174352017979 -0.043683167741787612 0.072012382462129002 0.0061961788897157135 -0.0070675915399955325 0.036724367651615665 -0.090795724621621818 0.023782446316206407 -0.060764823012719418 0.030320741788908225 0.05294725449203809 -0.083834851795893589 0.0475610034220324 -0.08830094735771947 0.044892835040262313 -0.088746417648267489 -0.068033455559836573 -0.065835448412399106 0.027132430784348689 0.046345334818709061 -0.084868876470121035 -0.090384205650785504 -0.087476981437602547 0.03854202914449141
leaf_weight=932.40149717964232 414.17715131118894 293.48352215439081 287.14122612029314 44.346669803373516 5.5339319882914415 6.3675386123359186 57.112067404203117 15.855540836229919 10.632257912307976 15.747609620913865 22.073984667658809 252.02545048901811 5.4577899407595396 65.814002983272076 6.1177364662289611 95.399974848609418 11.758508700877426 15.198753535747526 50.597351541742682 4.6005723783746353 24.370370905846357 6.8197752153500897 10.318490983918307 8.5613854499533755 42.515893218107522 3.5822025574743748 6.2781538423150769 4.6446050303056827 7.216894873417913 107.37732467800379
leaf_count=22523 774 381 286 433 32 22 218 144 14 54 136 803 56 111 34 266 19 98 109 53 72 100 113 62 209 12 126 51 91 313
internal_value=0.00059411 0.0367478 0.0572946 0.026154 0.0194366 0.0220861 0.0369088 0.0151763 0.00964751 0.0173289 0.0113331 0.0339371 -0.0248559 0.0460368 0.0151842 0.016827 -0.0127672 -0.0379875 0.0219719 0.0153254 0.00106344 0.00547775 -0.00787524 0.00223442 0.0134449 -0.0417495 -0.0148458 -0.00561596 -0.0272798 0.0345113
internal_weight=2833.53 1901.13 646.439 1254.69 772.767 717.497 481.921 453.646 67.7443 437.791 324.88 263.851 11.8253 359.298 295.589 289.471 42.7049 30.9464 246.766 196.169 100.769 96.1681 71.7977 61.4793 52.9179 10.402 55.2694 48.9913 29.2909 112.911
internal_count=27715 5192 778 4414 3408 2798 1006 1917 232 1773 1428 881 78 492 1201 1167 171 152 996 887 621 568 496 383 321 112 610 484 227 345
is_linear=0
shrinkage=0.05


Tree=7
num_leaves=31
num_cat=0
split_feature=63 63 63 12 68 56 24 63 62 63 5 34 41 55 10 54 83 73 48 10 54 72 54 48 54 43 10 5 1 18
split_gain=2625.74 149.207 57.4604 29.0359 17.8501 31.7211 16.5118 16.1472 16.6212 14.7218 16.1606 14.5851 15.3939 18.9123 17.8456 14.4165 19.7186 17.5962 15.3378 19.6443 14.3735 15.6511 13.9202 31.4411 13.0109 21.8072 12.7554 12.0708 12.1511 12.057
threshold=0.020620748299319706 0.27922077922077926 0.70833333333333337 23.500000000000004 0.55092154748521505 -1.1364097989217494 1.0000000180025095e-35 0.058257918552036152 0.56575332863494743 0.08514492753623186 22874.500000000004 143.01000000000002 0.31024275344794777 1.1756746681323655 -0.48261059997347611 0.18798538101553908 1.3124176651119768 0.38750000000000007 -0.26888043956471136 -0.16404134207644913 1.5108664500803943 2.5000000000000004 2.0804860625289354 0.89019236762116039 0.036714535576441706 -0.41364938871196699 -0.48894064605496607 32758.000000000004 215.50000000000003 3.5000000000000004
decision_type=2 2 2 2 10 10 2 2 2 2 2 2 2 8 2 8 2 2 2 2 8 2 8 2 10 2 2 2 2 2
left_child=-1 3 11 4 7 15 9 8 -2 -5 -11 -3 13 -13 -15 18 27 -18 19 -6 21 -16 23 -8 25 -12 -24 28 -17 -29
right_child=1 2 -4 6 5 -7 22 -9 -10 10 24 12 -14 14 20 16 17 -19 -20 -21 -22 -23 26 -25 -26 -27 -28 29 -30 -31
leaf_value=-0.070444987305839021 -0.077207478663740003 0.044172309746403481 0.068487974017745715 -0.079496978171309338 -0.094984911190625049 -0.07194464732586385 0.024154616182588361 0.030391073841823185 0.055708242941391012 -0.084792377262124241 0.019290748547276002 0.061136079652003766 0.040439888833532035 -0.096159054159795698 -0.094053071114236594 -0.024513860896606475 0.041800721913900114 -0.094949136977130782 0.041707809339826651 0.045902844564786383 0.033005689162167055 0.014286076999841749 -0.035791129190367914 -0.089623098016925334 0.030734680995159976 -0.072350434921401946 0.046897077382635023 0.0083074272013269577 0.047356472164242311 -0.064623901703978109
leaf_weight=879.39960687793791 6.8631952768191677 527.24416809435934 269.97863993048668 8.8900948595255596 4.8658318063244224 10.352928187698124 19.553267237730328 545.77806630218402 3.4235906470566988 6.2392917228862634 13.900444156490265 9.9627922177314741 56.487898737192154 5.7739453501999369 6.3712091520428675 6.8673706352710715 3.1924291886389238 7.9789401572197676 73.567835030145943 4.7936731576919538 14.9839208163321 6.6901551745831966 5.2829527482390395 8.6707898983731848 19.867431568913162 11.931032707914712 33.023724334314466 108.04031273629516 35.864297264255583 5.8714018631726494
leaf_count=22523 129 829 286 229 34 48 99 1624 15 98 78 13 125 22 30 49 12 60 194 12 26 16 58 113 109 177 131 438 103 35
internal_value=0.000631058 0.0345628 0.0491661 0.020682 0.0241417 0.0133226 -0.00148669 0.0292153 -0.0323794 -0.0203335 -0.00997733 0.0408356 0.0232141 0.000833814 -0.0169111 0.0168862 0.00839923 -0.0554025 0.0339082 -0.024801 -0.000134204 -0.0384939 0.0156744 -0.0108158 0.000290864 -0.0229594 0.0352997 0.0130137 0.0356592 0.00445106
internal_weight=2721.71 1842.31 897.493 944.819 817.46 261.395 127.359 556.065 10.2868 60.8283 51.9382 627.514 100.27 43.782 33.8192 251.042 167.815 11.1714 83.2273 9.6595 28.0453 13.0614 66.5307 28.2241 45.6989 25.8315 38.3067 156.643 42.7317 113.912
internal_count=27715 5192 1347 3845 2753 985 1092 1768 144 691 462 1061 232 107 94 937 697 72 240 46 72 46 401 212 364 255 189 625 152 473
is_linear=0
shrinkage=0.05


Tree=8
num_leaves=31
num_cat=0
split_feature=65 24 65 12 24 64 12 65 68 15 22 47 46 54 10 65 43 13 67 41 62 75 62 15 11 12 1 5 43 12
split_gain=899.65 494.123 86.5441 38.5007 36.3747 32.1092 31.7936 27.7624 21.4267 19.4084 18.3039 17.8598 18.4484 23.5539 20.3239 16.723 16.4691 17.9059 19.216 14.6342 14.5805 14.5236 14.0511 20.8324 13.1894 19.7756 18.1861 15.8392 13.7553 12.9974
threshold=0.025353016688061603 1.0000000180025095e-35 0.55000000000000016 4.5000000000000009 1.0000000180025095e-35 8.5000000000000018 3.5000000000000004 0.19090909090909094 0.16523388371637737 23614.500000000004 -11.209349999999999 0.94739529067312922 0.25834260289210237 -2.1830075423146194 -0.52459559949356283 0.019803921568627456 0.21502490292466084 0.54901271025725273 -0.23584311603118888 0.12475571751495611 -0.76182281548706621 20.500000000000004 -0.14436248156936046 6969.5000000000009 0.31144097873157206 15.500000000000002 215.50000000000003 38535.500000000007 -0.26486279680766084 8.5000000000000018
decision_type=2 2 2 2 2 2 2 2 10 2 8 2 2 10 2 2 2 2 2 2 2 2 2 2 2 2 2 2 2 2
left_child=1 15 4 -3 6 10 -2 8 -8 -10 -5 12 13 -6 -14 -1 17 18 -11 -15 -7 -16 23 -23 25 29 -27 28 -28 -12
right_child=2 3 -4 5 11 20 7 -9 9 16 24 -13 14 19 21 -17 -18 -19 -20 -21 -22 22 -24 -25 -26 26 27 -29 -30 -31
leaf_value=-0.059441377511408745 0.041578488509405799 0.021992089395750761 0.064058899190600635 -0.072923394069003028 -0.077334500318601215 0.075694519875462149 -0.059925163130341075 0.031736515180019451 0.018114861573779596 0.022379303475924435 -0.032211285429294377 -0.064827527184549899 -0.033140957035601291 0.039290436044943013 -0.066271423236927071 0.018049681446789586 -0.089627569820470807 0.063676551343849239 -0.092250738949929259 -0.04429242634176786 0.01371416920288498 -0.090709049079838275 0.034259407203718013 0.015078536115673566 -0.00048162940623579513 -0.072972731261927978 0.029882188196332898 -0.041455593553520007 -0.069193140701864983 0.0078070069020426403
leaf_weight=657.45070215826854 349.68777616322041 180.09349072654732 166.71101842820644 11.668179811909793 12.74779227375984 10.629629450850187 10.532221183180807 333.67009856551886 200.79926625592634 7.1968365050852334 28.456161625683308 8.3266068808734399 18.113538624718785 13.779403273016216 4.3106331154704085 6.8955307891592375 7.3848730833269647 6.699665803462266 7.1582272918894905 8.2839611787348968 87.021565452683717 5.5392499826848534 108.13396837282926 26.436327569186687 196.33650199021213 24.628871505148709 18.458714592270557 38.324541857233271 4.2031936403363934 69.722278717905283
leaf_count=16610 517 1240 177 265 86 21 87 691 832 27 381 61 110 40 15 65 89 14 56 45 998 58 302 136 2448 555 171 795 118 705
internal_value=0.000740488 -0.0280795 0.030418 0.00222756 0.0254399 -0.00503761 0.0296777 0.0224058 0.00939244 0.0126237 -0.0114395 0.00638983 0.00945135 -0.0234766 0.0165446 -0.0586269 -0.0258991 -0.00299221 -0.0346784 0.00762438 0.0205826 0.0228295 0.0256518 -0.00331723 -0.00952044 -0.0191434 -0.0366985 -0.0218721 0.0110634 -0.00376204
internal_weight=2629.4 1333.89 1295.51 669.543 1128.8 489.45 923.129 573.441 239.771 229.239 391.798 205.671 197.345 34.8112 162.534 664.346 28.4396 21.0547 14.3551 22.0634 97.6512 144.42 140.11 31.9756 380.13 183.794 85.6153 60.9865 22.6619 98.1784
internal_count=27715 24372 3343 7697 3166 6457 2313 1796 1105 1018 5438 853 792 171 621 16675 186 97 83 85 1019 511 496 194 5173 2725 1639 1084 289 1086
is_linear=0
shrinkage=0.05


Tree=9
num_leaves=31
num_cat=0
split_feature=63 63 63 63 12 43 67 80 68 64 67 54 57 10 67 47 48 43 65 75 12 24 47 44 70 48 45 15 81 15
split_gain=2157.81 131.012 32.9895 26.6463 13.5528 21.5702 13.071 33.385 21.0916 21.2064 20.8391 16.9675 29.3225 16.0828 16.0182 14.9041 15.9105 14.6657 11.8356 16.7366 13.701 13.6547 12.184 12.3024 11.8 16.041 11.7044 16.83 12.6283 11.5577
threshold=0.020620748299319706 0.38750000000000007 0.70833333333333337 0.17156862745098037 23.500000000000004 0.41171558511029188 0.54904707437479916 0.067640151667776108 0.51090177889369037 5.5000000000000009 -0.039266618018964299 -0.56507198059589026 -0.35826872120186765 0.19567321535026277 1.0000000180025095e-35 -0.57567553779097191 0.99079702882168585 0.068120228470040164 0.16228070175438594 23.500000000000004 3.5000000000000004 1.0000000180025095e-35 -0.07816007683928558 -0.49362319604873289 1.5000000000000002 1.0469737378710728 18.500000000000004 22423.000000000004 0.13540842731189914 11821.500000000002
decision_type=2 2 2 2 2 2 2 2 10 2 2 10 8 2 2 2 2 2 2 2 2 2 2 2 2 2 2 2 2 2
left_child=-1 3 18 4 -2 -6 7 10 17 14 11 13 -13 -5 -10 -14 -17 -9 21 -20 -21 -3 -22 -24 -15 -26 28 -28 -8 -25
right_child=1 2 -4 6 5 -7 26 8 9 -11 -12 12 15 24 -16 16 -18 -19 19 20 22 -23 23 29 25 -27 27 -29 -30 -31
leaf_value=-0.067171498350423103 0.017377943629289513 0.016692278025752797 0.065375097316650865 0.035317834003757959 0.0069085485274587438 -0.063207858622419219 0.0069758373176900803 -0.044899419368314909 -0.091851234413010754 -0.089621146712407021 0.051933046189459445 -0.09572166603874939 0.056831155735694562 0.050865264150320555 0.014496966282848378 -0.070316792074689563 0.021206750711298947 0.027193171364913973 -0.0055847328711043573 0.055308058607417193 0.040588417599176606 0.065183848432934968 -0.034528994065093473 0.051038596398175845 -0.073575579694863974 0.0080996981006253473 0.033959717612423793 -0.054452581210829631 0.055730622358185711 -0.0061305014206624094
leaf_weight=803.90640146541409 489.04246715363115 18.344933528453112 242.86695716157556 205.76372239785269 62.534678781405091 13.182294567581264 15.541260665282605 8.1227160021662694 4.2569282166659859 11.079469859600065 95.795153068378568 7.2191704139113426 12.828796034678815 8.5327727831900102 18.672010541893542 7.3123695291578796 13.01772893918678 48.255332696251571 22.839909479022026 82.131663724780083 82.710908882319927 77.101950861513615 12.106593541800974 18.300035838037729 8.3849163521081227 20.289832681417465 25.007404440082613 6.7251711869612327 103.6422586357221 16.713010624051094
leaf_count=22523 1992 80 286 461 577 232 56 40 21 38 193 25 24 20 80 43 30 147 35 89 104 93 31 26 46 66 82 38 203 34
internal_value=0.000681571 0.0317089 0.0513417 0.0222076 0.0143283 -0.00530001 0.0293683 0.025217 -0.00203599 -0.0331287 0.031726 0.0248608 -0.00503666 0.0298498 -0.00534337 0.0147849 -0.0116509 0.0166567 0.0409897 0.0348685 0.0392517 0.0559433 0.0290211 0.00856759 -0.000268656 -0.0157823 0.0422255 0.014953 0.0494262 0.0236676
internal_weight=2562.23 1758.32 573.116 1185.21 564.759 75.717 620.447 469.531 90.3865 34.0084 379.144 283.349 40.3781 242.971 22.9289 33.1589 20.3301 56.378 330.249 234.802 211.962 95.4469 129.831 47.1196 37.2075 28.6747 150.916 31.7326 119.184 35.013
internal_count=27715 5192 778 4414 2801 809 1613 1234 326 139 908 715 122 593 101 97 73 187 492 319 284 173 195 91 132 112 379 120 259 60
is_linear=0
shrinkage=0.05


Tree=10
num_leaves=31
num_cat=0
split_feature=63 63 63 63 85 44 10 49 44 46 71 47 71 58 67 37 62 42 41 80 83 47 77 42 48 55 41 44 80 67
split_gain=1912.22 118.655 40.7796 29.805 22.0074 16.5492 16.5032 14.8754 14.3221 12.1226 19.0032 17.42 16.908 20.742 18.6091 17.4286 19.7464 16.9045 15.5303 18.0273 15.8956 19.7994 13.9873 13.2018 11.4223 11.7652 30.2326 11.0315 19.9247 15.8631
threshold=0.020620748299319706 0.4642857142857143 0.17156862745098037 0.70833333333333337 0.16202069213070178 -3.6868513182540634 -0.55521235298974914 -0.55758638713904796 1.7595748315678377 0.6066017316017317 14.500000000000002 -0.71824239941788881 8.5000000000000018 1.1365724817653902 0.65722149817547215 17.500000000000004 -0.20617100880858288 0.75094135658814543 1.2801126152982332 2.1830952278219864 -0.83234709654221806 0.87247483498968259 -0.66020645273092604 0.54807469703804446 0.10283505205913403 -1.6623911614871951 0.15240249397565284 6.323610739370717 0.78825569661504369 0.71638314476682197
decision_type=2 2 2 2 2 2 2 2 2 2 2 2 2 10 2 2 2 2 2 2 2 2 2 2 2 10 2 2 2 2
left_child=-1 2 4 -3 6 -4 8 -8 -2 10 12 -12 13 14 15 17 -17 -9 19 20 -11 23 -19 -22 -7 27 -27 28 -26 -30
right_child=1 3 5 -5 -6 24 7 9 -10 18 11 -13 -14 -15 -16 16 -18 22 -20 -21 21 -23 -24 -25 25 26 -28 -29 29 -31
leaf_value=-0.065458674464857064 -0.080422468791686963 0.038756521855837028 -0.022950723416490425 0.063070384070811322 0.026528849270705025 0.041264922552196298 -0.087533122708842948 0.041185850031241686 0.0084858112605695705 0.053252811044246173 0.020388909030863104 -0.067290717810162104 0.037808200759552442 -0.04364534996560418 0.045191154175333204 0.020919689871877131 -0.076269666923383633 0.030441263190936225 -0.089011728912085489 0.041847434167327904 -0.087312918727360814 -0.071801015259314621 -0.044000475002270445 -0.0013773621883520874 0.030135790207854198 -0.095192507305383367 0.023881400993632965 0.053756577473205093 -0.050507537140616732 0.012815684248273918
leaf_weight=767.73195592872798 10.307144320569934 292.03719138354063 14.711285945028065 225.48163290694356 158.68530151806772 176.71180904982612 4.03188598062843 31.427559933625162 7.8244061041623345 9.5068426774814707 9.9854778861627 12.686826067976652 78.820961113087833 16.538907813839614 37.026929308660328 8.7272950019687432 12.565127418376504 10.580054046586156 5.0429701730608931 21.138056680560112 4.6142126359045497 12.856598272919653 15.198106766678393 89.020999128930271 348.43856222182512 6.8956844173371818 22.244785528630018 39.095652132295072 12.996382343582807 40.190061836037785
leaf_count=22688 112 445 40 289 604 424 40 89 48 25 62 131 296 131 107 48 81 42 46 90 43 145 125 539 860 24 67 72 85 138
internal_value=0.000238285 0.0293074 0.0207747 0.0493698 0.0107848 0.0291726 0.00448828 0.0067288 -0.041945 0.00777661 0.0147859 -0.0285348 0.0194783 0.0084802 0.0160172 0.00215245 -0.0362886 0.0165861 -0.00370464 -0.000468613 -0.0082522 -0.0138347 -0.0132548 -0.00575412 0.0303696 0.0262534 -0.00435396 0.028289 0.0257847 -0.00262959
internal_weight=2503.12 1735.39 1217.87 517.519 556.586 661.284 397.9 379.769 18.1316 375.737 233.557 22.6723 210.885 132.064 115.525 78.4981 21.2924 57.2057 142.18 137.137 115.999 106.492 25.7782 93.6352 646.573 469.861 29.1405 440.721 401.625 53.1864
internal_count=27936 5248 4514 734 2804 1710 2200 2040 160 2000 1112 193 919 623 492 385 129 256 888 842 752 727 167 582 1670 1246 91 1155 1083 223
is_linear=0
shrinkage=0.05


Tree=11
num_leaves=31
num_cat=0
split_feature=63 63 63 12 54 48 1 41 5 65 47 12 12 62 5 53 53 15 51 63 62 61 71 19 51 41 46 52 18 70
split_gain=1710.58 109.813 45.0681 18.9942 15.2205 14.9761 12.7701 15.8359 10.9938 17.7572 16.7501 15.1217 10.9803 16.4644 13.5618 10.2682 14.8217 12.5762 10.2127 20.507 10.1351 14.1935 9.96163 9.93434 9.70093 9.42043 10.2096 16.1064 17.3151 11.729
threshold=0.020620748299319706 0.70833333333333337 0.17156862745098037 4.5000000000000009 -0.37228928116078447 2.2974796273082703 156.00000000000003 0.95356351368534498 42177.000000000007 0.19090909090909094 -0.38269571792510998 9.5000000000000018 22.500000000000004 -0.57983372505960729 120852.00000000001 1.0044747242167704 0.53148701030860679 27357.500000000004 -1.7446588588931917 0.11437908496732026 -0.052675512925259439 0.037905580834830303 9.5000000000000018 1.5000000000000002 1.4973957160022191 -0.66316699752564567 0.067424242424242359 -0.34411070477276534 2.5000000000000004 2.5000000000000004
decision_type=2 2 2 2 8 2 2 2 2 2 2 2 2 2 2 10 10 2 10 2 2 2 2 2 10 2 2 8 2 2
left_child=-1 2 4 5 18 23 7 8 10 -10 -5 -12 -8 -14 -15 16 17 25 19 -2 -11 -22 -20 -4 -17 -6 -27 28 -28 -29
right_child=1 -3 3 6 15 -7 12 -9 9 20 11 -13 13 14 -16 24 -18 -19 22 -21 21 -23 -24 -25 -26 26 27 29 -30 -31
leaf_value=-0.063946596899032745 -0.088100364644376594 0.061618733967543693 0.044612231108806556 0.037666082124770309 -0.057366627577269791 0.015053244758241924 0.032171767084901513 -0.063349080052019294 0.04526525333411862 0.01966076125609514 0.002845182658124099 -0.090742246411566196 -0.079664384841324043 0.023753891604330092 -0.049799195401951928 -0.087965359027458265 0.058696043159042366 -0.057341311145440645 0.043709571806639487 0.025532884001686903 0.0093644165118442566 -0.072382795484771181 0.0093446253041218307 0.012090814162544195 -0.0022382075367787112 0.045917268836535227 -0.07824132560731259 0.012447654543742066 0.056693343908928419 -0.016272853448765737
leaf_weight=723.89162802277133 5.3767375466413823 211.36872263997793 312.24738123081625 9.6912471987307089 5.3167646285146466 61.012119891121984 321.27801077626646 6.8225199878215781 44.703977253288031 35.42895277030766 8.4125361181795615 8.5406849440187198 4.5657901447266331 68.405460237525403 6.7663423735648385 5.2237320267595342 14.159817949868737 7.3929896000772706 71.773443322628736 14.280453478917478 12.951849527657034 8.7750591039657575 30.508671539835632 25.954261070117354 9.0257986504584533 17.741087960079312 10.132174631580709 310.29796048486605 2.9739274159073821 39.91714734537527
leaf_count=22688 64 289 501 19 49 108 727 26 118 86 23 60 56 259 39 55 41 61 240 47 42 37 135 54 72 64 95 1600 8 273
internal_value=0.000363727 0.0278984 0.0230743 0.0297323 0.011614 0.0380139 0.0235529 0.0102034 0.0141936 0.021689 -0.0142481 -0.0442647 0.0280416 0.0113184 0.0170095 0.00710026 0.0085705 0.00674087 0.0271819 -0.0055842 0.00311492 -0.0236029 0.0335272 0.0421356 -0.0344074 0.00799448 0.00893436 0.00710257 -0.047047 0.00915614
internal_weight=2414.94 1691.05 1479.68 935.556 544.121 399.214 536.342 135.327 128.504 101.86 26.6445 16.9532 401.016 79.7376 75.1718 422.181 407.932 393.772 121.939 19.6572 57.1559 21.7269 102.282 338.202 14.2495 386.379 381.062 363.321 13.1061 350.215
internal_count=27936 5248 4959 2155 2804 663 1492 411 385 283 102 83 1081 354 298 2318 2191 2150 486 111 165 79 375 555 127 2089 2040 1976 103 1873
is_linear=0
shrinkage=0.05


Tree=12
num_leaves=31
num_cat=0
split_feature=65 24 65 24 81 64 47 52 10 54 11 83 68 15 75 53 10 41 65 48 44 58 65 68 62 43 43 48 10 51
split_gain=598.44 331.268 67.0347 42.95 18.7988 18.2877 20.6522 19.3412 15.9428 15.6668 14.5287 29.4571 20.0144 15.4272 13.8549 13.6216 12.9019 12.0447 21.0391 12.5897 17.7822 12.5659 11.9406 11.9134 17.0366 11.7855 27.2762 11.0429 14.8749 15.4179
threshold=0.025353016688061603 1.0000000180025095e-35 0.70833333333333337 1.0000000180025095e-35 0.68355370636848367 7.5000000000000009 -0.33676405643968049 -0.96335210295825713 -0.57601107582893052 1.772512751378021 0.68823410384439765 0.95419565710833465 0.67334356308826526 8223.0000000000018 20.500000000000004 0.902690297744832 0.41832289742063028 0.54155268235341569 0.054093567251461951 2.7533532173774677 -3.4043782720229459 1.2213143956347254 0.019803921568627456 0.34990704786997578 -0.067467933755531576 0.79162763303777506 2.1579406937780479 -1.1233443169299522 -0.55185355302814221 -0.52040071748601002
decision_type=2 2 2 2 2 2 2 8 2 10 2 2 10 2 2 10 2 2 2 2 2 10 2 10 2 2 2 2 2 8
left_child=1 22 3 5 8 -2 23 -8 -3 14 11 12 -9 -14 -5 16 27 19 -19 -16 -21 -20 -1 24 -7 -12 -27 -10 29 -29
right_child=2 4 -4 9 -6 6 7 10 15 -11 25 -13 13 -15 17 -17 -18 18 21 20 -22 -23 -24 -25 -26 26 -28 28 -30 -31
leaf_value=-0.054632885523927838 0.030519837595782497 -0.051210654886972844 0.060747632573604451 -0.083325937405624481 -0.056683249007481298 -0.088460576737446187 -0.091882565031853158 0.014235155468342637 0.026275451055692473 -0.089632407778057754 0.035882368645280098 -0.091011827394931299 0.0030373386621096944 -0.091748487939174839 0.015886951813931707 -0.068816839989515141 -0.0124012179784617 0.049781054452510472 -0.053163699694021738 0.046563654892036614 -0.08877039992205564 0.0069643419620955306 0.017253174868117827 0.039906406398190701 0.020859034288266735 -0.08661740844538561 0.061348015806410472 0.02458353023182458 0.0088300920086947076 -0.031899267083895372
leaf_weight=540.0543644472491 603.03305575996637 13.674917976371942 116.91137947142124 4.5409918017685404 13.935257375007494 4.3575609102845219 4.943824905436486 81.276321234181523 67.875042297877371 4.6839098464697591 53.941372351720929 8.8136663697659952 8.2356673553586024 8.6344976145774108 128.89334073290229 6.3742970074526957 96.907766036689281 9.2737268526107055 26.338929227553308 3.6270811278373003 6.7521333899348956 12.706605063751338 5.6899664844386271 90.985544307157397 17.657154644839466 6.6253395657986385 5.6778183821588755 15.98428917583078 314.26575611578301 47.724040649831295
leaf_count=16707 1219 320 166 17 328 41 26 334 643 34 197 80 37 66 454 155 1502 34 187 13 61 46 60 242 72 65 12 199 3657 962
internal_value=0.000328971 -0.0259517 0.0247553 0.0208886 0.000463331 0.0255425 0.0152093 0.00456506 0.001897 -0.000232003 0.00739827 -0.00395949 0.0038917 -0.0454361 0.00196693 0.00323772 0.00410568 0.00410153 -0.0173437 0.0115847 -0.0410069 -0.0335007 -0.0538712 0.0319272 -0.000855598 0.0257905 -0.0179852 0.00770673 0.00435294 -0.0176332
internal_weight=2330.4 1122.49 1207.91 1091 576.741 894.182 291.149 178.149 562.806 196.817 173.205 106.96 98.1465 16.8702 192.133 549.131 542.757 187.592 48.3193 139.273 10.3792 39.0455 545.744 113 22.0147 66.2445 12.3032 445.849 377.974 63.7083
internal_count=27936 24533 3403 3237 7766 2391 1172 817 7438 846 791 517 437 103 812 7118 6963 795 267 528 74 233 16767 355 113 274 77 5461 4818 1161
is_linear=0
shrinkage=0.05


Tree=13
num_leaves=31
num_cat=0
split_feature=63 63 63 12 24 65 65 51 80 75 43 5 48 75 42 10 47 58 70 58 17 73 49 12 5 12 43 5 37 62
split_gain=1446.28 96.6281 35.3152 17.9864 25.2893 45.0386 35.1258 19.0208 13.6376 17.0052 16.5611 15.6949 15.0176 14.6658 13.7046 13.607 15.5035 13.2415 13.3008 13.7975 13.3949 11.2589 14.245 13.8678 12.2554 11.0994 12.5407 27.3216 9.98172 9.46088
threshold=0.020620748299319706 0.70833333333333337 0.2264957264957265 8.5000000000000018 1.0000000180025095e-35 0.034647550776583005 0.042109929078014162 -0.49593137609260457 -1.4855492331928148 66.500000000000014 1.0397465987939813 30016.500000000004 -0.39582527474514245 263.00000000000006 0.63490544818225858 -0.31893369415209205 -0.2545861856117434 -0.83950591302155264 2.5000000000000004 -0.56507198059589026 2.5000000000000004 0.63333333333333341 -0.17212935436804808 29.500000000000004 23941.500000000004 1.5000000000000002 0.82371946592289202 64826.500000000007 4.5000000000000009 0.077774652972488714
decision_type=2 2 2 2 2 2 2 10 2 2 2 2 2 2 2 2 2 8 2 8 2 2 2 2 2 2 2 2 2 2
left_child=-1 2 3 8 5 -5 -6 15 9 -2 12 -12 13 14 -10 16 -8 -7 19 -19 -20 24 -23 -24 -21 -4 -27 -28 -9 -17
right_child=1 -3 25 4 6 17 7 28 10 -11 11 -13 -14 -15 -16 29 -18 18 20 21 -22 22 23 -25 -26 26 27 -29 -30 -31
leaf_value=-0.062054733983178123 0.04133611538878576 0.059606761426068799 0.043310064354093902 -0.072165125943306943 0.039205442530913709 0.030058768263946652 0.014015333978308613 0.047069780248656025 -0.044763545775527609 -0.072520905167052382 0.036425031375537528 -0.057187988260508804 0.029690566647861624 -0.06873596858468399 0.029203562231978338 0.04392877672191739 -0.086210147418156191 -0.088727609492123535 0.0079404252605519577 -0.054879311026550283 -0.073256354335371088 0.079672096797225367 -0.087449825221592448 0.040268367167088003 0.016892810588173889 0.027711629025774648 -0.091814816284918707 0.028945819286136567 -0.073681374242023742 -0.033564493090783562
leaf_weight=658.93287290656008 5.2571024149656287 187.54635196551681 116.58116501197219 23.306582495570183 92.739516426809132 33.338776688091457 8.6039486825466103 1.8394891964271654 8.1900026649236661 8.2534266700968129 6.9932268839329508 11.896710157394407 286.36161562055349 6.8945021620020261 25.207152398303151 20.731127353385094 6.763655602931979 3.9462158419191837 8.1650947555899638 6.2749990094453088 12.832224573008714 2.1089940890669814 9.0919371908530575 2.6394682861864558 84.351160945370793 593.31480720639229 6.9616525024175671 13.746903384104369 13.332951146177946 4.7045172788202754
leaf_count=22688 10 289 176 552 349 113 44 8 27 46 28 81 820 46 64 76 82 35 33 76 129 3 101 17 412 1358 37 49 154 33
internal_value=0.000347669 0.0258615 0.0214111 0.013316 0.0049569 -0.00730853 0.0203302 -0.0108669 0.0210922 -0.0278723 0.0230287 -0.022259 0.0256689 -0.00279277 0.0108358 0.00682334 -0.0300452 0.00198722 -0.00522363 0.00179911 -0.0415569 0.00534815 -0.0364067 -0.0581942 0.0118132 0.0290889 0.0263741 -0.0116565 -0.0585019 0.0293247
internal_weight=2270.91 1611.98 1424.43 693.824 334.771 186.055 148.715 55.9757 359.054 13.5105 345.543 18.8899 326.653 40.2917 33.3972 40.8032 15.3676 162.749 129.41 108.413 20.9973 104.467 13.8404 11.7314 90.6262 730.605 614.023 20.7086 15.1724 25.4356
internal_count=27936 5248 4959 3339 2217 1471 746 397 1122 56 1066 109 957 137 91 235 126 919 806 644 162 609 121 118 488 1620 1444 86 162 109
is_linear=0
shrinkage=0.05


Tree=14
num_leaves=31
num_cat=0
split_feature=63 63 63 12 46 57 54 10 65 11 44 63 65 51 47 48 46 22 11 47 50 24 15 67 54 48 52 12 69 68
split_gain=1312.99 87.9321 29.061 19.0359 18.8278 14.7507 17.1326 13.8654 15.8012 13.4309 12.684 12.1395 15.958 16.3444 15.8086 12.4512 15.8298 10.752 10.5488 15.4213 10.383 10.2633 14.9862 10.1795 20.0188 11.7346 11.1445 10.1543 11.6327 9.94754
threshold=0.020620748299319706 0.70833333333333337 0.29705882352941176 23.500000000000004 0.81339285714285725 0.50853177978763531 -0.867132573828436 0.21304854592088326 0.054093567251461951 0.69915564370274041 9.0637313010065252 0.075498575498575457 0.070197044334975353 -0.45386969621585416 0.06708188146118986 1.1487760467891828 0.031754032258064509 -24.107099999999996 0.65546948426936924 0.19556600820304129 2.8096905471624001 1.0000000180025095e-35 23680.500000000004 -0.64998571505295744 -0.031880422446889843 -3.5998082797762549 -0.53696213244296398 15.500000000000002 1.5000000000000002 0.29158920655831311
decision_type=2 2 2 2 2 8 8 2 2 2 2 2 2 10 2 2 2 10 2 2 10 2 2 2 8 2 8 2 2 10
left_child=-1 2 3 5 11 23 -7 29 9 -9 -11 -5 21 14 15 -14 -17 -10 19 -4 -6 22 -13 24 26 -25 -2 -21 -29 -8
right_child=1 -3 18 4 20 6 7 8 17 10 -12 12 13 -15 -16 16 -18 -19 -20 27 -22 -23 -24 25 -26 -27 -28 28 -30 -31
leaf_value=-0.060955978696290929 -0.0065191927215506101 0.058458908618706944 0.031690035623628224 -0.041544473364362115 -0.076440039243167501 0.050719268535001777 0.025770527716410075 0.033725397405281729 -0.067727226757858264 -0.085725979388387386 0.037663988708571391 -0.070141070389449778 0.035949562142463302 -0.06577519599123488 -0.080767116917415172 0.074860009628412813 -0.060704797542857583 0.029981181492287869 0.04813852337815977 0.014037167338833954 0.078339465583603662 0.043665756475938629 0.053854545607915583 -0.019290871462443834 0.037331203242435523 0.035644006328779801 -0.088200525470248203 0.02495590858468413 -0.084536484260257436 0.0088407148110964881
leaf_weight=621.44420875608921 17.327179936692119 174.10145828127861 361.12912304326892 13.058738381136207 11.135937159880994 28.62657761014998 122.09656275436282 18.236713778227571 15.51664060354233 5.6326041426509601 3.1321710497140884 5.3055919450707716 24.727108640596271 10.201963747851549 4.6696442896500221 2.7459270246326914 8.5703667700290662 3.295946203172206 71.479781178757548 70.016625894233584 1.0870864037424315 35.548436754383147 4.3106717625632882 10.05105312168598 26.024825900793076 194.51810295041651 5.4791495576500919 3.946838026866315 5.8324605077505112 305.70753581356257
leaf_count=22688 89 289 681 223 222 58 388 68 119 52 8 136 104 142 64 3 93 8 129 162 2 103 19 51 65 593 40 14 47 1276
internal_value=0.000515162 0.0249534 0.0207475 0.0152057 -0.00313814 0.0181585 0.0131732 0.010883 -0.0151836 0.00917722 -0.04114 0.00343026 0.00963186 -0.0094797 0.00463103 0.0160261 -0.0270041 -0.0502764 0.0302179 0.0272912 -0.0617446 0.0312605 -0.0140609 0.0280107 0.00734861 0.0329124 -0.0266605 0.00730603 -0.0400349 0.0136891
internal_weight=2184.96 1563.51 1389.41 877.007 121.361 755.645 502.245 473.618 45.8141 27.0015 8.76478 109.138 96.0797 50.915 40.713 36.0434 11.3163 18.8126 512.405 440.925 12.223 45.1647 9.61626 253.4 48.8312 204.569 22.8063 79.7959 9.7793 427.804
internal_count=27936 5248 4959 3926 1111 2815 1977 1919 255 128 60 887 664 406 264 200 96 127 1033 904 224 258 155 838 194 644 129 223 61 1664
is_linear=0
shrinkage=0.05


Tree=15
num_leaves=31
num_cat=0
split_feature=63 63 12 63 58 10 63 51 1 12 45 75 75 58 46 23 63 22 83 54 75 83 56 12 10 44 14 10 52 65
split_gain=1176.16 86.3264 30.8088 22.3207 19.6396 16.1525 16.4972 20.5679 15.4101 14.0453 12.8783 12.3812 11.3567 10.7656 10.1778 13.3199 12.189 15.7435 11.0341 18.2085 17.3743 11.7691 10.6865 12.3966 10.5759 16.4383 14.2874 12.2176 16.1595 16.2869
threshold=0.020620748299319706 0.4642857142857143 1.5000000000000002 0.70833333333333337 0.11679958909314621 -0.5668389682414654 0.070197044334975353 0.94798011497054691 156.00000000000003 4.5000000000000009 8.5000000000000018 179.50000000000003 401.00000000000006 -1.8808094926118888 0.12678571428571428 -0.56795539945790607 0.19090909090909094 -13.399199999999999 0.55056647347802368 -1.204040471953389 122.50000000000001 0.93531987223145074 -0.83909145391060236 18.500000000000004 0.17325968483723189 1.3602522173425491 1.0000000180025095e-35 -0.40820026236249174 -0.89448641139534213 0.072299651567944212
decision_type=2 2 2 2 10 2 2 10 2 2 2 2 2 8 2 2 2 10 2 10 2 2 8 2 2 2 2 2 8 2
left_child=-1 2 -2 4 -3 10 7 9 -6 -7 -4 -12 -11 -8 15 -15 17 24 -18 20 21 -20 -21 -24 27 26 -26 28 -16 -30
right_child=1 3 5 -5 8 6 13 -9 -10 12 11 -13 -14 14 16 -17 18 -19 19 22 -22 -23 23 -25 25 -27 -28 -29 29 -31
leaf_value=-0.059997069389860803 0.03782332830689733 0.038432864862908124 -0.058793476309644155 0.057743236972810009 0.040698070436689965 0.041088546321098735 -0.052229767106623873 -0.076315217833478666 -0.039242426038375938 -0.044906755657828534 -0.075623346261376886 0.018357619746649397 0.0063216164747815556 -0.091368303277449367 -0.087371034206119053 0.034457760739086928 0.02532899544607661 -0.082306963575492498 -0.06438432224223066 0.070759275295597765 -0.078539356736745197 0.028995448036483625 0.021179256243701039 -0.03955523484029564 0.028901212303782717 -0.063902139906679103 -0.083164151646140105 0.020910886409170534 0.025824721665223999 -0.010511030190186284
leaf_weight=582.15681177284569 144.88923807442188 224.83105573803186 13.088499050587414 160.98934289440513 9.7450454607605952 16.742958175949752 5.5570308119058609 9.5760528566315752 15.374092215672134 16.815047538373619 4.1171464677900103 20.54794244049117 29.604620304424316 2.0348363798111668 4.9215158903971314 98.51142741786316 306.25695021357387 4.6788465715944758 4.555954445153481 8.7590935155749303 10.545191537588833 12.112523150630294 55.658003270626068 9.7527005355805141 16.540337040089078 12.122288160957394 3.3203221047297111 167.53247376717627 51.418397735804319 76.550031054764986
leaf_count=22654 279 372 111 289 17 69 23 153 49 208 50 92 277 8 40 263 860 51 33 11 65 39 158 77 93 122 33 715 281 426
internal_value=0.000411427 0.023597 0.0163177 0.043171 0.0337459 0.0130676 0.0143815 -0.00841855 -0.0079926 0.00190055 -0.0188956 0.00222621 -0.0121845 0.0163374 0.0168002 0.0317734 0.014768 0.00770647 0.0205916 0.00622092 -0.0286204 0.00294225 0.0190932 0.0120009 0.00901289 -0.01822 0.00959276 0.0119338 0.000571791 0.00405859
internal_weight=2099.31 1517.15 1106.21 410.94 249.95 961.32 923.567 72.7387 25.1191 63.1626 37.7536 24.6651 46.4197 850.828 845.271 100.546 744.725 337.084 407.64 101.383 27.2137 16.6685 74.1698 65.4107 332.405 31.9829 19.8607 300.422 132.89 127.968
internal_count=27918 5264 4537 727 438 4258 4005 707 66 554 253 142 485 3298 3275 271 3004 1761 1243 383 137 72 246 235 1710 248 126 1462 747 707
is_linear=0
shrinkage=0.05


Tree=16
num_leaves=31
num_cat=0
split_feature=63 64 12 63 63 51 10 37 58 22 51 74 54 45 61 68 72 46 23 75 52 51 44 58 69 82 46 4 43 12
split_gain=1066.9 78.9844 22.5083 19.9081 17.5984 13.3562 13.2336 12.7486 11.288 11.4005 11.3293 13.9735 10.4241 9.88064 9.45425 11.9055 9.81931 9.29044 12.3632 9.19713 9.1335 13.3638 14.9234 9.13374 8.51773 8.26095 12.3159 10.5825 9.1197 14.2183
threshold=0.019803921568627456 2.5000000000000004 4.5000000000000009 0.070197044334975353 0.87500000000000011 0.13629965852541284 -0.5668389682414654 10.500000000000002 -0.17991895113623488 -17.870399999999997 0.6598026252267325 49.500000000000007 0.12227909856649592 17.500000000000004 1.0648489027717123 0.18373543337167483 3.5000000000000004 0.79843750000000013 -0.54362580693057561 179.50000000000003 -0.13991911831226636 -0.0057595137108649485 -0.138573133559693 0.51155582213171535 1.5000000000000002 -0.69547779258425291 0.40682870370370378 91.500000000000014 -0.90843824311916632 8.5000000000000018
decision_type=2 2 2 2 2 10 2 2 8 8 8 2 10 2 2 10 2 2 2 2 10 10 2 8 2 2 2 2 2 2
left_child=-1 4 -3 5 12 14 7 -5 17 24 11 13 -2 20 15 -4 -16 25 -19 -9 21 22 -11 -22 -10 26 28 -27 29 -8
right_child=1 2 3 6 -6 -7 8 19 9 10 -12 -13 -14 -15 16 -17 -18 18 -20 -21 23 -23 -24 -25 -26 27 -28 -29 -30 -31
leaf_value=-0.059258882385105988 0.037259738625582808 0.025287458186621203 0.030706384195153997 -0.08309202695020218 0.056887147812134366 -0.065417641671935325 0.045236610979113662 -0.075872922467870571 0.024987344056020089 -0.047216057085875222 0.014476528835088218 -0.08524747413752759 -0.0042362786696480241 -0.061789942893065025 0.019449311683228939 -0.078158574271869979 -0.0757092045553594 0.034394229603854083 -0.08552947303234508 0.01288881264293508 0.035161433439100082 -0.071594531915115805 0.057555098406542417 -0.038346699929991589 -0.082811972571605802 -0.026991662728848616 -0.052358171935188075 0.033409129977208539 0.029256928775872555 -0.084417591500513395
leaf_weight=545.73658745153807 177.47901911847293 427.60997136915103 3.5386966504156572 6.2459037927910712 146.02900282293558 11.803188886959104 3.5862901434302312 3.4048212813213494 2.554132439196108 6.0440270835533738 328.13556282361969 5.3364212810993186 16.289454691112041 5.9589978894218794 26.660212995484475 7.7935577509924769 2.9045191854238501 4.0039085522294044 4.3507294151931983 17.256705722771585 25.757148768752817 7.6980459950864306 7.4640943482518214 4.9044147673994294 5.6004652110859752 7.4264132343232623 7.2193423192948094 162.46507242880762 34.254524109419435 4.7929916083812714
leaf_count=22602 314 1069 18 70 282 241 8 48 14 37 1501 43 46 74 216 143 48 14 34 91 97 67 20 33 56 30 46 493 117 46
internal_value=0.000458346 0.0225656 0.0162236 0.010733 0.043719 -0.018767 0.0131186 -0.0210871 0.0145964 0.00950403 0.0107387 -0.00859263 0.0337451 -0.00129742 -0.00505452 -0.043755 0.00970843 0.0234842 -0.0277384 -0.00179244 0.00566178 -0.019386 0.0103067 0.0231546 -0.0485483 0.0254661 0.00741858 0.0307251 0.0177566 -0.0284575
internal_weight=2020.3 1474.57 1134.77 707.16 339.797 52.7002 654.46 26.9074 627.553 399.453 391.299 63.1632 193.768 57.8267 40.897 11.3323 29.5647 228.099 8.35464 20.6615 51.8677 21.2062 13.5081 30.6616 8.1546 219.745 49.8531 169.891 42.6338 8.37928
internal_count=27918 5316 4674 3605 642 666 2939 209 2730 1942 1872 371 360 328 425 161 264 788 48 139 254 124 57 130 70 740 217 523 171 54
is_linear=0
shrinkage=0.05


Tree=17
num_leaves=31
num_cat=0
split_feature=63 63 63 63 46 12 22 80 70 67 51 46 11 9 75 58 43 69 73 83 80 45 45 45 68 54 58 12 43 68
split_gain=961.479 72.6093 20.5908 18.5704 34.2289 14.4738 13.4334 13.5757 21.3781 17.5172 11.4323 11.3766 13.2411 12.7906 11.224 11.0173 10.5879 10.2464 10.4755 9.87061 10.8972 12.0076 11.4149 14.6738 10.538 10.7445 10.1346 9.80474 9.46966 12.0033
threshold=1.0000000180025095e-35 0.4642857142857143 0.70833333333333337 0.097619047619047619 0.4552139037433155 16.500000000000004 -22.533849999999997 -0.57854271467406526 1.5000000000000002 0.76377803155307866 -0.867132573828436 0.64400921658986188 0.26229404936902972 0.55727416285911768 79.500000000000014 -0.056106080466879843 0.67232545398824983 2.5000000000000004 0.83333333333333337 1.6726944024976211 0.067640151667776108 16.500000000000004 6.5000000000000009 4.5000000000000009 0.87953130415771053 1.3143036977151881 -0.68857703699760375 1.5000000000000002 0.49240729643403652 0.06422402488382857
decision_type=2 2 2 2 2 2 10 2 2 2 8 2 2 2 2 10 2 2 2 2 2 2 2 2 10 10 8 2 2 10
left_child=-1 3 15 4 -2 -5 7 -7 14 11 -6 12 -10 -14 -9 -3 -15 19 -19 20 21 27 23 -22 26 -26 -24 -12 -11 -30
right_child=1 2 -4 5 10 6 -8 8 9 28 17 -13 13 16 -16 -17 -18 18 -20 -21 22 -23 24 -25 25 -27 -28 -29 29 -31
leaf_value=-0.058618066581735198 0.022973860455230481 0.035240701705857878 0.055699352493765189 0.021129958444249888 0.050715831762802047 0.024565366108319713 -0.076479029959783312 -0.030846269262894965 -0.072863633566148875 0.036698114700035589 0.057607788018374323 -0.07757315468968852 0.013528296929084572 -0.082036320790066203 0.040805075861066221 0.0018109919149059484 0.031681595183124321 -0.083122170949882446 0.0011709815207794183 0.059282722226618324 -0.055230741657181309 0.039837608924539469 0.061851218894867922 0.031633202010100163 -0.079037013456524738 0.048163041450672246 -0.073084668178428805 -0.077909200174350518 0.053889289166429613 -0.079420241796002877
leaf_weight=509.03493517567404 88.246291609480977 206.97884991392493 137.81848157197237 685.87499027885497 5.2925643809139729 74.022306820843369 4.7402003835886708 6.4671079488471142 9.6010243045166117 17.882950801402334 1.6898761913180376 11.377790426835416 23.881974422372878 7.7372356429696065 31.129305925220251 28.349166255444288 2.6352483090013266 12.383128725457938 5.0614475626498452 4.0050231441855422 7.8992675389163205 12.840847051236777 1.3628980442881582 12.276335347443819 2.4554593348875633 4.6231532879173756 23.973360281437639 4.9488395433872938 2.5229357965290538 4.5461801066994667
leaf_count=22532 532 359 289 1933 17 326 62 65 77 76 3 168 120 92 131 79 11 171 42 12 99 56 2 62 52 31 373 80 5 61
internal_value=0.000452591 0.021302 0.040298 0.0146663 0.000328618 0.0176996 0.00569878 0.00779456 -0.00271488 -0.0173354 -0.0198474 -0.0330554 -0.0212419 -0.00645755 0.0282983 0.0312373 -0.0526409 -0.0239441 -0.0585127 -0.0158852 -0.0202081 0.0115065 -0.0320496 -0.00223433 -0.0503894 0.00285648 -0.0654149 -0.0423286 0.0172556 -0.0310572
internal_weight=1951.66 1442.62 373.146 1069.48 187.058 882.419 196.544 191.804 117.782 80.1853 98.8122 55.2333 43.8555 34.2545 37.5964 235.328 10.3725 93.5196 17.4446 76.0751 72.07 19.4796 52.5905 20.1756 32.4149 7.07861 25.3363 6.63872 24.9521 7.06912
internal_count=27918 5386 727 4659 1532 3127 1194 1132 806 610 1000 468 300 223 196 438 103 983 213 770 758 139 619 161 458 83 375 83 142 66
is_linear=0
shrinkage=0.05


Tree=18
num_leaves=31
num_cat=0
split_feature=63 63 44 63 67 54 63 44 65 69 64 63 9 57 51 51 33 37 67 64 45 62 45 52 61 65 70 5 10 10
split_gain=870.806 68.894 23.5731 19.1609 19.9404 15.0552 11.8226 11.4388 20.2757 10.8561 20.6183 15.4934 16.0993 10.9519 10.8642 17.1863 15.5984 14.9274 13.7596 11.7641 10.4079 10.1431 9.49694 9.3832 9.07273 12.3585 9.00971 10.1394 8.9515 11.7915
threshold=1.0000000180025095e-35 0.70833333333333337 0.10774886101264891 0.088932806324110672 -0.020636357149185148 0.21485812093679618 0.4642857142857143 4.0355164617238826 0.031754032258064509 3.5000000000000004 6.5000000000000009 0.10990338164251207 0.68084841681323771 -1.0305016783442473 -0.37228928116078447 -0.30232393783638595 2.5000000000000004 7.5000000000000009 -0.77669652568166792 3.5000000000000004 10.500000000000002 -0.18101970116431793 26.500000000000004 -0.96355828766353524 1.145172972913105 0.075498575498575457 1.5000000000000002 103295.50000000001 -0.56942266051962465 -0.57213553741169176
decision_type=2 2 2 2 2 8 2 2 2 2 2 2 2 8 10 10 2 2 2 2 2 2 2 10 2 2 2 2 2 2
left_child=-1 2 6 5 26 -4 9 20 -9 14 -11 12 -12 -13 18 -16 19 -18 23 -17 21 24 28 -2 -7 -26 -5 -28 29 -6
right_child=1 -3 3 4 22 7 -8 8 -10 10 11 13 -14 -15 15 16 17 -19 -20 -21 -22 -23 -24 -25 25 -27 27 -29 -30 -31
leaf_value=-0.057935717509451992 0.0092966196692069146 0.055472150334488046 0.034114678863493134 0.010688574157348051 0.012413417805416917 0.044260809860463532 0.033563834309426048 0.02333405286260036 -0.065282560239123807 0.019239309631235199 0.026241458924589983 0.016424129815394803 -0.079342008021333524 -0.091169843936443548 -0.086849740536624739 0.010019238826087703 -0.039531055746639399 0.03123769895207841 0.029232358513775855 -0.089237391140053537 -0.072532783662923803 -0.063942493412488019 -0.049556166792268701 -0.058110814808080738 -0.078886341523660655 0.044215261784896986 -0.084018042507389784 -0.0097393027622126368 0.017982314510967573 -0.089398782754289099
leaf_weight=476.02784530096687 49.317795867566019 126.75354742631316 14.040574396960436 9.9246280081570166 7.3713127644732594 7.3893473427742746 181.88685955479741 24.027617685496807 8.7117439769208413 73.56477736402303 14.808629257604482 2.8804584201425314 4.6632619574666014 10.930392568930982 4.6772897019982329 5.5843767579644901 8.5381387723609787 52.420849952846766 341.07510289363563 6.0784614197909832 15.335199260618536 8.2541355444118363 5.3599626533687106 5.6589941754937163 5.1570175038650614 3.1927416250109673 9.4341879952698964 9.2528162207454425 383.97637131204829 4.4434448308311385
leaf_count=22532 178 289 79 34 40 21 316 194 118 240 76 14 75 75 33 16 38 219 1082 47 315 112 39 34 77 9 64 41 1488 23
internal_value=0.000498925 0.0203075 0.0168118 0.00853993 0.012859 -0.0129481 0.0224027 -0.0222209 -0.000221018 0.01889 0.00443086 -0.02811 0.000423945 -0.0684133 0.0221416 0.00490771 0.0109975 0.0211952 0.0254905 -0.0416053 -0.0403611 -0.0193754 0.0157447 0.00217439 0.00393754 -0.0312574 -0.0273403 -0.0477529 0.0166539 -0.0258867
internal_weight=1880.74 1404.71 1277.96 515.871 429.763 86.1084 762.085 72.0678 32.7394 580.199 106.848 33.2827 19.4719 13.8109 473.351 77.2991 72.6218 60.959 396.052 11.6628 39.3284 23.9932 401.151 54.9768 15.7391 8.34976 28.6116 18.687 395.791 11.8148
internal_count=27918 5386 5097 2654 1729 925 2443 846 312 2127 480 240 151 89 1647 353 320 257 1294 63 534 219 1590 212 107 86 139 105 1551 63
is_linear=0
shrinkage=0.05


Tree=19
num_leaves=31
num_cat=0
split_feature=63 63 44 63 43 72 83 39 17 61 80 41 12 67 63 79 52 57 18 12 4 17 77 28 34 1 6 17 58 52
split_gain=790.068 63.7334 22.7421 12.3104 19.2098 13.463 12.4914 12.0272 11.4829 12.1443 11.1038 13.2695 11.0821 10.2506 12.6653 10.3716 11.9929 14.274 10.2185 12.0082 11.4478 12.3689 10.1434 9.64711 9.12639 9.10389 9.01004 11.9413 11.5099 8.83764
threshold=1.0000000180025095e-35 0.70833333333333337 0.10774886101264891 0.097619047619047619 0.074407170454794017 3.5000000000000004 1.5938341096936581 2.5000000000000004 1.0000000180025095e-35 0.3339580624612003 0.21870481240159523 0.93678868359094636 1.5000000000000002 -0.031626329217822595 0.4642857142857143 1.8950000000000002 -0.92218389013771207 -1.1688516155859114 1.5000000000000002 31.500000000000004 98.500000000000014 8.5000000000000018 0.025562731814301003 1.0000000180025095e-35 369.77500000000003 156.00000000000003 3.5000000000000004 1.5000000000000002 -0.42960932579491867 -0.28885320375821105
decision_type=2 2 2 2 2 2 2 2 2 2 2 2 2 2 2 2 8 8 2 2 2 2 2 2 2 2 2 2 10 8
left_child=-1 2 12 5 25 6 7 -4 9 -6 -9 24 -2 14 15 -14 22 -18 -19 20 21 -20 -17 -13 -12 -5 28 29 -15 -28
right_child=1 -3 3 4 8 -7 -8 10 -10 -11 11 23 13 26 -16 16 17 18 19 -21 -22 -23 -24 -25 -26 -27 27 -29 -30 -31
leaf_value=-0.057320188020367785 0.037319188102161768 0.054646164770562236 -0.064302411240095711 -0.069082266867509443 0.017807898015583575 -0.059588648932987813 0.048520679077580703 0.039609509029558378 0.016009231942684256 -0.093465511982603319 -0.051104909853981251 0.019812625484574582 0.036818426684684921 0.057518050366200939 0.028342547302357315 0.035225257039379336 -0.065223686479658413 0.021044493811207217 0.013069922373661969 -0.073485164317523596 0.004380756020968656 -0.090977285839512881 -0.033863637611707104 -0.07098206676783167 0.044279541747363232 -0.0081385856904366786 0.015044054406562094 0.025494649918482146 0.012621948590074098 -0.086475870410499311
leaf_weight=445.01564200909343 98.023426787927747 116.90078364312649 8.4894549013115448 9.0402299622073787 4.6437301998957974 11.120949586853383 10.85930509958416 13.127941466867922 373.8269276721403 4.8938832534477115 20.760383102111522 27.454864964820448 33.598828388378024 47.665677252225578 138.49083316512406 51.818885520100594 7.3541928511112928 70.683750674128532 4.7903814017772657 5.4956715693697324 161.48089686827734 6.6358286393806338 5.765615787357091 3.1592967873439184 2.7164581082761279 19.399911442771554 4.0398797187954187 86.349738040007651 20.903786182403564 4.2499454058706743
leaf_count=22532 185 289 144 60 25 174 55 71 1421 30 329 178 108 104 248 178 47 263 15 98 654 39 51 61 15 91 26 305 96 26
internal_value=0.000569607 0.0193291 0.0160362 0.00787263 0.0116626 -0.0080483 -0.00130835 -0.00857615 0.0146141 -0.0391466 -0.00137883 -0.0114737 0.021593 0.0192059 0.0155387 0.0104167 0.00756514 0.0029086 0.00496562 -0.00138509 0.000918783 -0.0471873 0.0281744 0.0100795 -0.0397151 -0.02786 0.0300817 0.0199507 0.0439423 -0.0368166
internal_weight=1818.76 1373.74 1256.84 509.493 411.805 97.6887 86.5677 75.7084 383.365 9.53761 67.2189 54.091 747.347 649.324 486.115 347.624 314.025 256.441 249.087 178.403 172.907 11.4262 57.5845 30.6142 23.4768 28.4401 163.209 94.6396 68.5695 8.28983
internal_count=27918 5386 5097 2654 1627 1027 853 798 1476 55 654 583 2443 2258 1701 1453 1345 1116 1069 806 708 54 229 239 344 151 557 357 200 52
is_linear=0
shrinkage=0.05


Tree=20
num_leaves=31
num_cat=0
split_feature=63 63 63 12 36 46 12 54 69 18 51 58 11 39 38 57 62 41 11 54 44 1 9 17 62 52 56 84 9 83
split_gain=691.928 69.3154 24.8044 10.6965 12.5198 11.0285 10.4496 12.2535 11.1514 12.5944 14.8869 13.6307 13.069 10.8204 12.2326 11.5085 9.86487 9.55774 11.1047 14.5161 14.0528 17.6466 11.5926 11.502 13.189 10.7542 10.2328 9.48079 9.43429 9.17225
threshold=0.025015634771732301 0.53571428571428581 0.28991596638655465 6.5000000000000009 49.020000000000003 0.090097402597402565 22.500000000000004 -0.77098177293370751 3.5000000000000004 2.5000000000000004 -1.058955167672637 -0.49593346579299841 0.25683327943985818 5.5000000000000009 1.0000000180025095e-35 0.94798011497054691 0.33873723015173735 -0.05754598554561579 0.45888176681919945 0.87506154723755469 -1.074651695522667 131.00000000000003 -0.099620555528572532 26.500000000000004 -0.23589362561900362 0.35780867052888571 0.34110979910174627 2.6444298065793439 0.6158093357847535 -0.015907215583509795
decision_type=2 2 2 2 2 2 2 8 2 2 10 10 2 2 2 10 2 2 2 10 2 2 2 2 2 8 8 2 2 2
left_child=-1 2 6 -4 -5 -6 7 -2 16 10 11 12 -10 15 -15 -8 17 18 20 23 21 -9 -22 24 -20 -23 -19 -18 -26 -24
right_child=1 -3 3 4 5 -7 13 8 9 -11 -12 -13 -14 14 -16 -17 27 26 19 -21 22 25 29 -25 28 -27 -28 -29 -30 -31
leaf_value=-0.056122100429786409 0.028249079107741742 0.051360107907654454 0.03201066350089074 -0.065835900651114762 0.055715083536163772 0.014289054311110952 0.0076948263068830694 0.038076910227262832 -0.0021607191947962444 0.035565815196563461 -0.071658625983203314 0.052933735072583227 -0.087013464977155591 0.018625535734873251 -0.055804208748436258 -0.072916674678987006 -0.064825036659746524 -0.043923329039883934 -0.088405531670817272 0.048011751804824088 0.037801143732578979 -0.011464803812251055 -0.08604591163439633 -0.090149507665537532 -0.032710716109785445 -0.09089444119802044 0.018783831942361655 -0.0011540896199639797 0.047590020976562487 0.0062765417849621379
leaf_weight=422.75583620229736 84.590789747424424 134.65628201887012 191.73044542223215 4.4703978151082984 17.471179031766951 205.29016662202775 73.466932320501655 8.1942475512623805 16.688465751707557 10.155130833387373 12.513104230165483 7.1436378359794608 6.2024989556521168 7.620653627440336 18.779349153861403 4.6063356683589509 6.3048093300312749 6.5049493494443595 4.8408576780930188 5.6686444971710435 42.702381814830005 8.9836532203480584 2.9044877849519279 7.7876364663243285 7.41675638779998 8.3603312913328427 314.45608065742999 69.326341352891177 6.9908999353647232 25.2774543678388
leaf_count=22634 272 328 381 15 29 584 596 22 74 39 89 17 45 66 318 94 34 31 37 20 108 34 19 65 48 46 1305 316 22 108
internal_value=-0.000450949 0.017363 0.0134963 0.0232866 0.0158927 0.0175841 0.00814304 0.0104617 0.00784738 -0.014021 -0.0260291 -0.00667819 -0.0256482 -0.00652013 -0.0341413 0.00278758 0.0100514 0.0128625 0.0013317 -0.0237564 0.00990875 -0.0217379 0.0213954 -0.0391098 -0.0178423 -0.0503405 0.0174841 -0.00660648 0.00596772 -0.00333221
internal_weight=1743.86 1321.1 1186.45 418.962 227.232 222.761 767.486 663.013 578.422 52.7028 42.5477 30.0346 22.891 104.473 26.4 78.0733 525.72 450.088 129.127 32.7048 96.4226 25.5382 70.8843 27.0362 19.2485 17.344 320.961 75.6312 14.4077 28.1819
internal_count=27796 5162 4834 1009 628 613 3825 2751 2479 264 225 136 119 1074 384 690 2215 1865 529 192 337 102 235 172 107 80 1336 350 70 127
is_linear=0
shrinkage=0.05


Tree=21
num_leaves=31
num_cat=0
split_feature=63 63 63 12 1 13 11 65 52 12 82 24 10 51 54 71 54 10 13 79 57 38 68 72 51 82 43 45 22 14
split_gain=634.04 63.5636 21.2889 11.9878 11.2224 14.4056 12.2896 10.3609 12.0115 8.78893 11.4906 8.51479 8.46793 14.4141 8.67541 8.78225 8.3815 8.02143 7.96032 7.89676 12.3483 7.48993 10.843 13.0766 10.1575 11.1385 12.6763 8.84203 7.43204 7.44443
threshold=1.0000000180025095e-35 0.53571428571428581 0.27922077922077926 22.500000000000004 209.00000000000003 0.94736156085471224 0.37150944795245727 0.070197044334975353 -0.97572527497534212 6.5000000000000009 -1.2495962407464363 1.0000000180025095e-35 2.1088973473271366 -0.15675753590998523 -0.68775188023641221 10.500000000000002 0.026059569436674753 -0.53635139935918708 -0.88108440555225997 2.5300000000000007 -0.96335210295825713 3.5000000000000004 0.049479265908326006 3.5000000000000004 -0.0057595137108649485 0.47900335391590282 -0.45485196565005825 7.5000000000000009 -10.554699999999999 1.0000000180025095e-35
decision_type=2 2 2 2 2 2 2 2 10 2 2 2 2 10 8 2 8 2 2 2 8 2 10 2 8 2 2 2 10 2
left_child=-1 2 3 12 6 16 17 -8 -9 21 11 -11 14 -14 15 19 -6 -5 -17 20 -2 22 -4 24 27 26 -26 -24 29 -16
right_child=1 -3 9 4 5 -7 7 8 -10 10 -12 -13 13 -15 28 18 -18 -19 -20 -21 -22 -23 23 -25 25 -27 -28 -29 -30 -31
leaf_value=-0.056291505632908967 -0.057345513814744634 0.050352255695853304 0.059245592960637576 0.019399387285224487 -0.039663095829548689 -0.072846621549372978 0.053448798976470507 -0.072476195822093387 0.051450313511022444 -0.058551248272951988 0.018172243342304186 0.013957985554345296 -0.062423108746110748 0.027292334424412604 0.013557607364732258 0.020001575567712409 0.0025533595694804566 -0.074093466726064483 -0.044921239580482206 0.041699484830138321 0.039583111601891471 0.04277929010357024 0.023309646811402546 -0.024391429345973482 0.040609473021491829 0.045163591316781992 -0.041817550554042252 -0.042473348370704406 -0.0522324204778064 0.0009358561165625439
leaf_weight=389.62504896800965 5.5534874089062214 124.94258867949247 16.905912689864635 3.8153119380585849 16.533570047933608 10.826805208809672 17.855352906975899 4.1628214558586478 3.4828511681407681 8.7432810403406602 220.37299923785031 7.2456797808408728 10.19752326840535 7.7510833488777271 348.16936382232234 12.826634475961329 39.425597178284079 5.2922586775384826 7.3181088692508629 57.79794301558286 7.7406983114778978 70.069281392730772 10.810253590345384 16.65347339399159 9.3002157807350176 49.85356716811657 9.1575077362358552 9.4503123164176923 4.8301597833633414 177.14177188277245
leaf_count=22441 28 328 28 31 230 229 88 69 15 39 602 22 84 45 1541 46 380 93 45 160 22 139 24 40 19 97 28 22 28 833
internal_value=-0.000378111 0.0164537 0.0128233 0.00767935 -0.00825951 -0.0202553 0.014737 0.0326189 -0.0154427 0.0216984 0.0151874 -0.0254991 0.0102159 -0.023466 0.0112005 0.0254639 -0.00987913 -0.0345994 -0.00344176 0.0337182 -0.000660205 0.0296674 0.022075 0.016005 0.0236758 0.0328995 -2.09341e-05 -0.00718642 0.00873198 0.00931189
internal_weight=1683.85 1294.23 1169.28 740.721 101.395 66.786 34.6086 25.501 7.64567 428.562 236.362 15.989 639.327 17.9486 621.378 91.2369 55.9592 9.10757 20.1447 71.0921 13.2942 192.201 122.131 105.225 88.5719 68.3113 18.4577 20.2606 530.141 525.311
internal_count=27796 5355 5027 3967 1135 839 296 172 84 1060 663 61 2832 129 2703 301 610 124 91 210 50 397 258 230 190 144 47 46 2402 2374
is_linear=0
shrinkage=0.05


Tree=22
num_leaves=31
num_cat=0
split_feature=63 63 63 12 24 65 65 85 15 58 54 13 54 58 81 68 75 23 54 51 61 62 15 12 5 62 61 42 13 81
split_gain=581.144 57.5075 21.9141 16.5201 14.4254 25.4885 16.1652 11.3438 13.4279 11.1461 11.0629 16.8591 10.008 15.5382 12.9668 11.713 10.4694 10.3857 12.0044 11.8947 9.88353 11.2407 9.87409 9.70618 9.34606 13.9474 8.904 13.7582 8.73736 11.6508
threshold=1.0000000180025095e-35 0.70833333333333337 0.20714285714285713 13.500000000000002 1.0000000180025095e-35 0.093073593073593072 1.0000000180025095e-35 -0.59242246847965896 15454.500000000002 -1.2896765494457274 0.71396047447980326 -0.90843824311916632 0.30159315362382072 0.80942399302360446 -0.20695093349895496 0.57712578437361417 38.500000000000007 -0.54366324150305223 -0.069885046752775196 0.11905096121753146 0.037905580834830303 -0.2981003291160082 10969.000000000002 2.5000000000000004 31006.000000000004 -0.076444562325333434 1.8089879129547255 0.99830311761398416 -0.7022535378409781 -0.12035114164586244
decision_type=2 2 2 2 2 2 2 2 2 8 8 2 10 10 2 10 2 2 8 8 2 2 2 2 2 2 2 2 2 2
left_child=-1 2 3 10 6 24 -5 8 -4 -8 -2 -12 17 14 -14 -15 -16 18 -9 -20 -11 -22 -17 -19 -6 -26 -25 -28 -13 -30
right_child=1 -3 7 4 5 -7 9 12 -10 20 11 28 13 15 16 22 -18 23 19 -21 21 -23 -24 26 25 -27 27 -29 29 -31
leaf_value=-0.055845838496361572 0.021115137721241212 0.052507538182677553 -0.056404637060801233 -0.065704396584683619 0.044066876504572527 -0.065226001965175251 0.043220216804412369 -0.058530335350105114 0.021555618419788595 -0.062413918164469166 -0.084129286084007382 0.045406065694881002 0.019671933668634619 0.034419032678125454 0.00083017703134417365 0.013588345780460243 -0.081027944971791943 0.036965267446439597 0.053076362704244852 -0.024278072544841274 -0.046848181404108576 0.0023366473670961879 -0.072799602577825723 0.02220913102817676 0.02045435722217178 -0.044111788657172968 -0.087168164369484658 0.017355237470408961 -0.035000469551392265 0.0073320633566088412
leaf_weight=365.15095420263242 165.94116531312466 98.263339970260859 10.53930449858308 16.069445111323148 24.383002423681319 10.16796621121466 8.4042713157832605 7.8546315096318722 11.291254132986067 10.291800194419919 5.2033726107329121 13.162813002243636 9.2988854274153727 37.372657394036651 5.7649779152125147 8.4726211428642255 11.267777699045835 124.06470387708396 9.7862330898642522 9.8104645963758284 15.201760575640945 47.519702914170921 5.2304878062568596 340.32165150996298 37.238438217900693 10.656376210972665 4.701441776007413 8.9268426001071912 17.790119076147676 175.4001236166805
leaf_count=22441 613 294 47 421 92 145 32 30 37 169 43 36 24 98 22 27 56 247 20 38 193 366 38 927 238 121 28 37 107 809
internal_value=-0.000308619 0.0157803 0.0126663 0.00550107 -0.00694667 0.00840021 -0.0199722 0.0192611 -0.0159394 -0.0108152 0.0114477 0.00383479 0.0205906 0.00376556 -0.0272909 0.0198962 -0.0531869 0.0231561 -0.00658658 0.0141708 -0.017154 -0.00956025 -0.0193123 0.0248756 0.0189028 0.00592253 0.0206146 -0.018711 0.00611678 0.00339187
internal_weight=1625.55 1260.4 1162.13 557.43 179.933 82.4458 97.487 604.704 21.8306 81.4175 377.498 211.556 582.873 77.4074 26.3316 51.0758 17.0328 505.466 27.4513 19.5967 73.0133 62.7215 13.7031 478.015 72.2778 47.8948 353.95 13.6283 206.353 193.19
internal_count=27796 5355 5061 3385 1777 596 1181 1676 84 760 1608 995 1592 265 102 163 78 1327 88 58 728 559 65 1239 451 359 992 65 952 916
is_linear=0
shrinkage=0.05


Tree=23
num_leaves=31
num_cat=0
split_feature=63 63 63 12 68 24 52 52 51 42 59 48 67 44 38 10 67 5 75 62 4 62 39 43 17 41 41 15 57 85
split_gain=528.917 53.8219 19.5583 14.2223 17.8804 17.6408 9.41955 8.79289 9.60329 14.6482 13.4377 10.1714 10.0038 13.2222 9.37001 15.3948 15.9562 11.82 9.25362 8.6382 11.2095 10.7974 10.3287 8.82646 9.36085 8.19679 12.939 8.06615 7.9007 11.8724
threshold=1.0000000180025095e-35 0.70833333333333337 0.20714285714285713 8.5000000000000018 0.15047239306281443 1.0000000180025095e-35 -1.7695384799967602 -1.2098136437011784 -0.0057595137108649485 1.0415172994403734 3.5000000000000004 -3.2273891554418506 -0.3808115823122829 3.2944253459952004 1.5000000000000002 -0.32681395560047755 0.6009941653990537 103295.50000000001 51.500000000000007 -0.2981003291160082 54.000000000000007 0.56575332863494743 2.5000000000000004 -0.97702902174171002 67.500000000000014 -0.19763743511111598 -0.33291753755120046 13209.000000000002 -1.495037909036399 -0.59242246847965896
decision_type=2 2 2 2 10 2 8 8 8 2 2 2 2 2 2 2 2 2 2 2 2 2 2 2 2 2 2 2 8 2
left_child=-1 2 3 4 -2 6 -5 -6 9 25 -11 -10 -13 14 17 -16 18 27 -17 20 -8 23 -22 -21 -25 26 -9 -14 -4 -30
right_child=1 -3 28 5 7 -7 19 8 11 10 -12 12 13 -15 15 16 -18 -19 -20 21 22 -23 -24 24 -26 -27 -28 -29 29 -31
leaf_value=-0.05543604302059274 -0.039592384269240138 0.052019485912930201 0.053167886087575902 0.050446145125403991 -0.043832511777367716 0.011291134055285625 0.024677071597811497 0.038439843582438578 -0.059420885287359164 -0.092682306453767266 0.031629038531170488 0.042098413164800078 -0.088342059217870542 0.029789045139217235 0.024002325225242257 -0.0027333275613151756 0.0095414020720534301 0.014819566880156829 -0.091766808904529554 -0.078000399054664327 -0.0098804757445043068 -0.070136564870391049 -0.075632640868168011 0.0022475182902134973 -0.047738291134610082 0.049291564081949513 -0.03837986813462442 -0.017897879929232186 -0.022844337130378149 0.018573459219057783
leaf_weight=342.15939431567676 15.332335110753773 90.274444723501801 15.833525985479353 5.1687436299398541 5.938857663422823 113.98319905111566 5.3996495050378135 17.200945220887665 4.9326081098988643 4.2678089533001167 4.1734131425619125 24.630210727453232 8.2338986350223475 47.258170078508556 49.457728617824614 4.5329591855406788 18.253436935134232 10.07670704834163 8.7764011193066818 4.018553650006651 9.3177830008789915 7.0172111187130204 17.712659327313304 85.854402279946953 10.39611596893519 51.468152668327093 7.8795546852052203 8.4764698408544046 17.673409644514322 551.99374177027494
leaf_count=22441 96 294 27 18 37 755 26 48 35 26 18 68 64 163 174 26 94 36 50 53 111 146 301 708 143 113 28 48 80 1569
internal_value=-0.000477869 0.0148652 0.011902 0.00511524 0.0127035 -0.00339403 -0.0149814 0.0156448 0.0169892 0.0309204 -0.0309856 0.0105359 0.012516 0.00776093 -0.00186756 0.00656302 -0.0205953 -0.0274823 -0.0620628 -0.0174719 -0.040103 -0.0105536 -0.0532712 -0.00626818 -0.00314355 0.0378437 0.0140502 -0.0532252 0.018264 0.017276
internal_weight=1567.69 1225.53 1135.26 549.758 290.89 258.868 144.885 275.557 269.618 84.9899 8.44122 184.629 179.696 155.066 107.808 81.0205 31.5628 26.7871 13.3094 139.716 32.4301 107.286 27.0304 100.269 96.2505 76.5487 25.0805 16.7104 585.501 569.667
internal_count=27796 5355 5061 3385 1124 2261 1506 1028 991 233 44 758 723 655 492 344 170 148 76 1488 438 1050 412 904 851 189 76 112 1676 1649
is_linear=0
shrinkage=0.05


Tree=24
num_leaves=31
num_cat=0
split_feature=63 63 63 12 22 24 65 65 47 54 45 58 36 75 46 48 46 44 48 75 79 39 63 72 65 5 83 12 57 55
split_gain=481.625 50.1483 15.2412 14.3494 10.4808 10.4284 22.538 14.568 10.98 9.65057 8.41232 14.062 11.5878 10.0628 8.38889 7.87703 8.25726 13.5441 8.31341 10.5231 11.764 8.84659 8.09212 11.017 9.60794 7.81761 7.52809 7.42656 9.50341 9.47116
threshold=1.0000000180025095e-35 0.70833333333333337 0.20714285714285713 13.500000000000002 -24.354399999999995 1.0000000180025095e-35 0.093073593073593072 1.0000000180025095e-35 -0.052538355987919894 0.71396047447980326 20.500000000000004 2.8278507642937574 74.00500000000001 31.500000000000004 0.084523809523809515 4.4682398773460177 0.11200716845878136 -0.86720130206352863 1.8688119295812866 122.50000000000001 3.5000000000000004 4.5000000000000009 0.075498575498575457 1.5000000000000002 0.021054964539007053 13500.000000000002 0.030338060618071452 2.5000000000000004 0.34042460645121286 0.055956351702012151
decision_type=2 2 2 2 8 2 2 2 2 8 2 10 2 2 2 2 2 2 2 2 2 2 2 2 2 2 2 2 10 10
left_child=-1 2 3 9 -4 7 -7 -5 -9 14 12 13 -11 -12 -2 16 -14 -18 19 -19 25 -20 24 -24 -22 -21 -25 28 -6 -29
right_child=1 -3 4 5 27 6 -8 8 -10 10 11 -13 15 -15 -16 -17 17 18 21 20 22 -23 23 26 -26 -27 -28 29 -30 -31
leaf_value=-0.055059453800401698 -0.043565850961289038 0.051484514307654175 -0.040411405798464632 -0.063488856439386898 0.031105468044358611 0.016158540072796084 -0.064465484071673684 0.0037501713231089719 -0.036034182683473671 -0.077956677598952404 0.028918941343435606 0.053969963804128253 0.044982927203202655 -0.080282437835772491 0.021861471916440348 0.050244142113836758 -0.054613269111662116 0.027595137873747025 0.0059248942249837851 0.027780970030106041 0.0064138445390155667 -0.07912199265940284 -0.046855170666160698 -0.037524730946636026 -0.078945359987643446 -0.0546645392011679 0.030667382659997522 0.01563036222285687 -0.016316452148151334 -0.027420542445947813
leaf_weight=319.46884610620327 4.9156695976853362 83.112178534269333 7.7274814769625664 14.779034167993812 135.26893329340965 71.73256668727845 9.745773639995603 52.215736101381481 25.723056721035391 3.8676948621869078 2.5566789638251057 3.5843908227980128 12.339353029616175 9.6774858590215427 158.64182139188051 10.489377332851289 9.5905188396573049 51.990860177204013 6.4297617059200984 3.4731369055807617 8.5098579451441747 5.5427224356681108 5.9106484316289416 4.2937251031398764 5.1731711318716398 13.758501581847666 45.461579397320747 407.79934081528336 11.25505770742893 13.018190814182161
leaf_count=22441 21 294 33 421 301 451 145 398 362 43 11 14 37 113 592 30 52 172 41 13 68 55 27 24 60 102 133 1254 28 60
internal_value=-0.000515385 0.0140219 0.0112218 0.00517793 0.0168907 -0.00661504 0.00638646 -0.0180889 -0.00934561 0.0108015 0.00347643 -0.031365 0.00646833 -0.0570069 0.0198391 0.00832193 0.00571572 0.00263255 0.00634647 0.00983499 -0.00079167 -0.0333631 0.00834686 0.0168696 -0.025834 -0.0376943 0.0246189 0.017687 0.0274201 0.0142805
internal_weight=1518.05 1198.58 1115.47 540.403 575.069 174.196 81.4783 92.7178 77.9388 366.207 202.649 15.8186 186.831 12.2342 163.557 182.963 172.474 160.134 150.544 138.571 86.5806 11.9725 69.349 55.666 13.683 17.2316 49.7553 567.342 146.524 420.818
internal_count=27796 5355 5061 3385 1676 1777 596 1181 760 1608 995 138 857 124 613 814 784 747 695 599 427 96 312 184 128 115 157 1643 329 1314
is_linear=0
shrinkage=0.05


Tree=25
num_leaves=31
num_cat=0
split_feature=63 63 12 34 62 43 71 46 81 63 23 12 68 62 52 51 70 71 39 11 5 67 47 71 82 63 12 46 62 44
split_gain=453.855 47.5219 12.4974 12.8341 14.1665 11.419 10.6412 9.47521 17.6105 14.0888 13.74 9.0506 11.6298 11.1705 12.5281 11.9271 11.5394 9.52615 9.33506 10.2275 9.0366 8.8023 8.75844 12.6699 21.4284 22.673 8.7214 9.66376 8.59338 8.48455
threshold=0.021054964539007053 0.70833333333333337 1.5000000000000002 94.985000000000014 1.0836319881263194 1.0540239256064512 9.5000000000000018 0.59009740259740273 -0.19894479179001825 0.046536796536796508 -0.55256115142250439 7.5000000000000009 0.088497324190447965 -0.038935775446851346 -0.055520845618394744 -0.53696213244296398 1.5000000000000002 2.5000000000000004 5.5000000000000009 0.67185179405688367 26009.000000000004 -0.42740932570515339 -1.0087155790610562 13.500000000000002 0.47900335391590282 0.16333333333333333 29.500000000000004 0.32834821428571431 0.24582275069007012 -1.8719162342110784
decision_type=2 2 2 2 2 2 2 2 2 2 2 2 10 2 8 8 2 2 2 2 2 2 2 2 2 2 2 2 2 2
left_child=-1 2 -2 4 5 20 -6 9 10 -5 -9 21 -13 14 16 -16 -14 -17 -19 -20 -4 -11 -22 26 -25 -26 -24 -28 29 -10
right_child=1 -3 3 7 6 -7 -8 8 28 11 -12 12 13 -15 15 17 -18 18 19 -21 22 -23 23 24 25 -27 27 -29 -30 -31
leaf_value=-0.054344460555092212 0.025840278953137931 0.052637018867823293 0.030419933020237183 -0.075111405492666219 -0.07241118338531384 -0.052299116829420345 0.020696566890477112 0.042071607754164977 0.07435072791947675 -0.032886702779076869 -0.087264281374677982 -0.079472445100202793 0.036435141288229188 0.022074784895992659 0.044404016104285293 -0.077737465999680053 -0.082864816853154111 0.011335443735917244 -0.066291182555393541 0.02222548803533294 0.039913238166658122 0.026207988260821116 0.016820909250083085 -0.077796504259895538 -0.077184093547006727 0.035307343419665273 -0.078459452947405181 0.0040596177486684369 0.017693618410624008 -0.0074357785040378988
leaf_weight=302.88273497961927 135.48143749590963 75.263122998178005 106.4101969609037 4.6198894158005706 7.8291134024038893 5.7954381434246889 4.8353438805788755 2.4562806710600844 3.1262382240965954 6.547175206243991 9.9827292459085566 3.9813671093434087 2.5145954005420199 61.491448835935444 13.120616011321543 4.4574706191197029 8.5844330126419646 36.057358821388334 9.4738254193216545 4.7832384798675767 29.619274440221488 104.84450957551599 287.72167829750106 10.152666447684167 5.7817474617622819 18.580625696107745 4.895946002565327 11.86444772267714 50.89639788819477 160.94808286707848
leaf_count=22637 339 292 361 90 73 44 24 8 6 26 71 34 15 313 34 53 89 206 108 23 87 309 1015 81 85 62 51 96 271 989
internal_value=0.000296826 0.0141872 0.0115872 0.00961195 0.0153 0.0166844 -0.0365869 0.00384642 -0.00359391 0.0103603 -0.0611942 0.0119519 0.0036481 0.0060942 -0.00629494 0.00171334 -0.0553058 -0.00848439 -0.00210789 -0.0362977 0.0175473 0.0226634 0.0138105 0.011504 -0.0171034 0.00819977 0.0147678 -0.0200712 -0.000210786 -0.00580264
internal_weight=1495 1192.12 1116.85 981.372 493.486 480.822 12.6645 487.886 227.41 260.476 12.439 255.856 144.464 140.483 78.9915 67.8925 11.099 54.7719 50.3144 14.2571 475.027 111.392 368.616 338.997 34.515 24.3624 304.482 16.7604 214.971 164.074
internal_count=27892 5255 4963 4624 1979 1882 97 2645 1345 1300 79 1210 875 841 528 424 104 390 337 131 1838 335 1477 1390 228 147 1162 147 1266 995
is_linear=0
shrinkage=0.05


Tree=26
num_leaves=31
num_cat=0
split_feature=63 63 34 62 12 83 51 45 37 67 45 63 5 67 43 19 82 65 52 10 33 57 51 70 37 42 61 82 85 11
split_gain=417.13 43.7735 10.4142 14.4777 13.2393 12.4144 13.6491 12.1434 12.0873 11.4386 9.31693 9.20796 8.86589 8.65724 9.18105 7.28251 7.28468 9.24354 8.82099 7.51954 7.14166 6.92678 10.2464 9.38528 7.34009 6.85917 18.1898 15.3727 12.6408 8.03854
threshold=0.021054964539007053 0.87500000000000011 112.00500000000001 1.0836319881263194 14.500000000000002 0.7736078387124613 -0.72967610364297719 12.500000000000002 20.500000000000004 -0.60211649931087141 3.5000000000000004 0.4642857142857143 64331.000000000007 0.022760614152223854 -0.11020245863890933 1.0000000180025095e-35 0.47900335391590282 0.088932806324110672 -0.93524225480533063 -0.3706075397152756 1.5000000000000002 -0.0036289384229902994 3.1722340769769413 2.5000000000000004 1.0000000180025095e-35 0.65948942724318316 0.046267598548283904 0.72472330514935157 0.16202069213070178 0.49710715632339914
decision_type=2 2 2 2 2 2 8 2 2 2 2 2 2 2 2 2 2 2 8 2 2 10 8 2 2 2 2 2 2 2
left_child=-1 2 3 11 9 8 -7 -5 13 -4 12 15 -8 14 -6 -2 18 19 -17 -18 -15 -22 23 24 -23 26 27 -11 -28 -27
right_child=1 -3 4 7 5 6 10 -9 -10 25 -12 -13 -14 20 -16 16 17 -19 -20 -21 21 22 -24 -25 -26 29 28 -29 -30 -31
leaf_value=-0.054037292943187126 0.0096620313913632697 0.052413326281760257 -0.059048155498473948 -0.063863384771195214 0.0054052782723595129 0.048500190422702982 0.030791891503750127 0.029257742890267224 -0.074286948067767297 -0.028291916397441726 -0.059153262203562887 0.02816281321164766 -0.054139857544297211 -0.047380878307459573 -0.07736217086151928 0.052161745753082314 0.020455769071339169 0.04141430558851103 -0.0083619713640047423 -0.041823401503315739 0.038192943670215931 0.058401153752287271 0.042936234993456251 0.05184635125727538 -0.071341147944975258 0.026839486401323737 -0.0076099986065473668 0.044771543530272608 -0.078462578442062572 0.0085349491150404858
leaf_weight=284.2031822038698 374.76617510057986 68.088679036125541 5.7343413662165394 10.264860875904558 8.4783504679799062 4.6231283992528915 7.0224218717776221 5.1290392531082025 4.6113924821838728 10.443781927227972 24.66962793841958 130.73770405724645 5.2815746515989304 3.7633380964398375 5.3216326427645972 7.5077443141490221 22.400214797817174 64.291872266680002 28.49238711129874 6.0500528123229733 29.560688015073534 1.1414814386516861 8.0822199247777444 2.5803538812324396 7.9372443780303001 92.5211052428931 17.334766795858744 22.286576282233 9.9742189794778806 174.26794300228357
leaf_count=22637 1634 288 27 79 57 15 42 29 72 37 380 300 50 38 73 20 100 161 157 54 157 3 45 11 147 340 82 58 49 750
internal_value=0.000251956 0.0135223 0.0110955 0.0151373 0.0051901 -0.00956102 -0.0312537 -0.0325254 0.00301946 0.010222 -0.0414648 0.016307 -0.0054051 0.00852856 -0.0264792 0.0132136 0.023498 0.0309104 0.00423113 0.00693664 0.0177593 0.0229187 0 -0.0299271 -0.0540252 0.0114703 -0.00372718 0.0212906 -0.0338622 0.0149093
internal_weight=1447.57 1163.36 1095.28 649.64 445.636 113.073 41.5968 15.3939 71.4767 332.563 36.9736 634.246 12.304 66.8653 13.8 503.508 128.742 92.7421 36.0001 28.4503 53.0653 49.302 19.7413 11.6591 9.07873 326.828 60.0393 32.7304 27.309 266.789
internal_count=27892 5255 4967 2534 2433 1090 487 108 603 1343 472 2426 92 531 130 2126 492 315 177 154 401 363 206 161 150 1316 226 95 131 1090
is_linear=0
shrinkage=0.05


Tree=27
num_leaves=31
num_cat=0
split_feature=63 68 44 63 12 55 85 75 12 12 54 54 64 48 67 6 46 12 11 15 34 14 52 82 1 75 45 63 46 70
split_gain=384.16 40.7065 9.56801 9.51754 8.36407 9.08703 8.29396 9.83868 7.77088 12.9286 7.19576 10.563 8.71111 6.54898 6.44989 7.6406 6.34579 8.32781 17.4515 14.6757 10.3342 13.2095 10.9312 9.4184 8.87507 8.85533 8.70551 8.27872 12.2396 7.35529
threshold=0.021054964539007053 1.4286684484732941 -2.2714048848558326 0.060661764705882353 1.5000000000000002 -0.7247984886517872 0.31757045432083414 122.50000000000001 19.500000000000004 21.500000000000004 -0.71764866250174952 -0.16610248618220247 13.500000000000002 -5.3738637969043213 -0.69312413727949396 3.5000000000000004 0.079062500000000022 23.500000000000004 0.34420559830660041 27658.000000000004 109.70833333333336 1.0000000180025095e-35 0.81141502214089967 0.47900335391590282 209.00000000000003 53.500000000000007 19.500000000000004 0.38750000000000007 0.72653958944281538 1.5000000000000002
decision_type=2 8 2 2 2 8 2 2 2 2 8 8 2 2 2 2 2 2 2 2 2 2 10 2 2 2 2 2 2 2
left_child=-1 2 13 6 10 -6 7 -4 -9 -10 -5 -12 -13 -2 15 -15 -7 27 19 26 25 24 23 -23 -22 -20 -19 29 -29 -18
right_child=1 -3 3 4 5 16 -8 8 9 -11 11 12 -14 14 -16 -17 17 18 20 -21 21 22 -24 -25 -26 -27 -28 28 -30 -31
leaf_value=-0.053697849493955743 -0.029159090175480237 0.05163676242422835 0.021958609421198077 0.057575487360380519 -0.061566406956215784 0.026631361494442091 0.037238793740482667 -0.067727975127099979 0.050876359007387184 -0.066268699250870991 -0.035672546669155043 0.028524203640378411 -0.017705144773721936 0.024889721954275114 0.045849205413453317 -0.031077016669214638 0.015724815431502368 -0.057542050959291227 -0.028614804586060322 0.058542707765544801 0.0034076772944804205 0.067692383690485844 0.067186171387244933 -0.056023711262936773 -0.06194537559112593 0.036907646739201633 0.016649899149190631 0.032156463195616124 -0.0044739870079091989 0.0032194351354187232
leaf_weight=266.49192757543642 5.0155058503150931 64.298835403285921 7.5548055847175446 13.166159976273773 4.5058378335088491 46.865769712254405 5.9369717976078382 13.290598180145027 4.5961784236133081 4.6047041211277246 8.2232429683208448 83.479380954056978 11.397885585203765 51.892027979716659 34.479245237074792 6.7472837660461655 172.52522851154208 25.810071893967692 5.9722053110599509 3.6202198620885602 8.421853824518621 2.0837850961834175 7.5337019693106413 4.9933702694252133 12.85850664274767 32.19712784839794 4.503082461655139 82.327664455398917 31.182390064001083 373.55300305318087
leaf_count=22637 23 290 67 23 22 148 35 215 20 141 28 205 39 193 103 40 715 281 49 15 86 7 25 70 221 164 42 201 103 1684
internal_value=0.000304724 0.0130075 0.0106755 0.00916213 0.0101367 0.00834343 -0.0159872 -0.0267588 -0.0433689 -0.00729502 0.0227072 0.0181545 0.0229051 0.0255771 0.028607 0.0183229 0.00874385 0.00764186 -0.00519506 -0.0348624 0.00835932 -0.0107894 0.0255155 -0.0184647 -0.0359526 0.026477 -0.0463378 0.00975169 0.0220546 0.00718163
internal_weight=1400.13 1133.64 1069.34 971.204 935.22 818.954 35.9833 30.0463 22.4915 9.20088 116.267 103.101 94.8773 98.1341 93.1186 58.6393 814.448 767.582 107.994 33.9334 74.0606 35.8912 14.6109 7.07716 21.2804 38.1693 30.3132 659.588 113.51 546.078
internal_count=27892 5255 4965 4606 4128 3833 478 443 376 161 295 272 244 359 336 233 3811 3663 960 338 622 409 102 77 307 213 323 2703 304 2399
is_linear=0
shrinkage=0.05


Tree=28
num_leaves=31
num_cat=0
split_feature=65 24 24 68 46 58 10 71 34 47 64 45 11 47 67 34 62 11 53 39 54 46 48 80 77 44 44 55 41 12
