tree
version=v4
num_class=1
num_tree_per_iteration=1
label_index=0
max_feature_idx=18
objective=binary sigmoid:1
feature_names=prop_historical_br prop_historical_ctr position price_rank price_percentile price_diff_from_mean price_diff_from_hist price_ratio_to_mean prop_starrating prop_review_score review_score_per_dollar star_per_dollar prop_location_score1 prop_location_score2 location_rank destination_search_volume star_rank is_domestic log_orig_distance
feature_infos=[0:1] [0:1] [1:39] [1:32] [0.028571428571428501:1] [-2.9211057754405414:3.6838334009702938] [-692.31486579589057:3.160204546135319] [-365.75272722513:769.53497868531883] [0:5] [-3.7399178781688183:1.1744811465001559] [-3.7399178781688183:1.1744811465001559] [0:5] [-1.881691375709039:2.6255169395649145] [-0.57685077581933231:5.5723368461995184] [1:28] [5:1542] [1:6] [0:1] [-0.84967156874117744:1.885754345838788]
tree_sizes=2559 2614 2923 2705 2817 3346 2841 2940 3357 3050 3049 3355 3362 3047 3151 3050 3380 3270 3160 3259 3350 3363 3378 3374 3360 3352 3265 3368 3371 3346 3270 3376 3343 3365 3391 3341 3371 3372 3276 3380 3382 3373 3277 3372 3385 3326 3360 3360 3369 3387

Tree=0
num_leaves=25
num_cat=0
split_feature=0 2 0 0 0 2 6 0 13 3 1 12 6 0 6 18 12 4 12 4 7 14 13 1
split_gain=2076.63 95.0564 51.7835 22.0141 21.8587 18.2987 14.7618 9.37653 8.1707 7.95983 7.77066 5.17903 5.16167 5.07713 4.99168 4.8685 4.04853 4.55257 2.50749 2.34894 5.12145 2.86827 2.12015 0.916812
threshold=0.054093567251461951 9.5000000000000018 0.29285714285714287 1.0000000180025095e-35 0.12916666666666668 24.500000000000004 -0.25737567208574103 0.10263157894736842 -0.24478172576892351 17.500000000000004 0.45000000000000007 0.77515508430453972 -0.75757976709062536 0.45000000000000007 0.38598933661729856 -0.65399013737061951 0.86620979774441764 0.41042780748663105 -0.19067526896845027 0.42752100840336132 2.3047761475012734 4.5000000000000009 -0.49242863063048103 0.70833333333333337
decision_type=2 2 2 2 2 2 2 2 2 2 2 2 2 2 2 2 2 2 2 2 2 2 2 2
left_child=3 4 5 -1 9 7 -7 11 -5 16 18 -3 -9 19 15 -14 17 -2 -4 -6 21 -21 -23 -12
right_child=1 2 10 8 13 6 -8 12 -10 -11 23 -13 14 -15 -16 -17 -18 -19 -20 20 -22 22 -24 -25
leaf_value=-1.165248492075643 -0.95730303358910307 -1.1033460164787607 -1.0154347185746517 -1.1339633782564875 -0.91415323307934704 -1.0228726436976956 -1.1416779820987668 -0.94960379008454043 -1.0443409318841901 -1.0479629380187592 -0.94563423224177745 -1.0293628939949864 -1.086923976979798 -0.90271425175044206 -0.97895055505288775 -1.00999243394656 -0.92730081325827374 -1.0349759250317461 -0.95433984284767637 -0.91040474149829853 -1.0038754465628466 -0.98739733539708174 -0.93586157233573153 -0.90216468653667103
leaf_weight=382.875 5.4375000000000018 4.1250000000000018 5.25 5.0625 20.8125 4.125 6.7499999999999982 4.3125000000000027 4.8749999999999982 3.7499999999999991 7.8749999999999982 5.0625 3.75 42.5625 5.8124999999999991 5.0624999999999982 5.9999999999999991 3.75 3.9375000000000018 10.500000000000005 3.9374999999999991 5.2500000000000027 8.6249999999999947 6.9375
leaf_count=2042 29 22 28 27 111 22 36 23 26 20 42 27 20 227 31 27 32 20 21 56 21 28 46 37
internal_value=-1.09968 -0.955743 -1.00519 -1.16334 -0.927739 -1.0412 -1.09679 -1.01996 -1.09039 -0.978717 -0.947367 -1.06281 -0.999729 -0.917406 -1.01576 -1.04167 -0.96239 -0.987441 -0.987441 -0.930608 -0.943487 -0.934363 -0.954068 -0.923759
internal_weight=566.438 173.625 63 392.812 110.625 39 10.875 28.125 9.9375 18.9375 24 9.1875 18.9375 91.6875 14.625 8.8125 15.1875 9.1875 9.1875 49.125 28.3125 24.375 13.875 14.8125
internal_count=3021 926 336 2095 590 208 58 150 53 101 128 49 101 489 78 47 81 49 49 262 151 130 74 79
is_linear=0
shrinkage=1


Tree=1
num_leaves=24
num_cat=0
split_feature=0 2 0 0 2 0 6 5 0 13 0 12 6 6 12 0 5 13 4 14 3 4 0
split_gain=1809.56 70.3323 40.431 21.1774 15.4785 15.472 13.1317 9.42346 7.63656 7.29359 5.1141 4.46641 3.9583 4.44219 3.38393 3.26305 2.85923 1.8531 1.44115 1.33953 6.08838 0.665979 0.219877
threshold=0.054093567251461951 9.5000000000000018 0.29285714285714287 1.0000000180025095e-35 24.500000000000004 0.12916666666666668 -0.25737567208574103 -0.23164534143440133 0.10263157894736842 -0.24478172576892351 0.45000000000000007 0.77515508430453972 -0.70218480960588547 -0.015521012794426298 0.86620979774441764 0.45000000000000007 -0.21597327209442513 -0.42641529292351393 0.42752100840336132 4.5000000000000009 13.500000000000002 0.8442887931034484 0.70833333333333337
decision_type=2 2 2 2 2 2 2 2 2 2 2 2 2 2 2 2 2 2 2 2 2 2 2
left_child=3 5 4 -1 8 7 -6 -2 11 -5 16 -3 -10 -14 -9 18 -4 -15 -7 21 -21 -20 -12
right_child=1 2 10 9 6 15 -8 14 12 -11 22 -13 13 17 -16 -17 -18 -19 19 20 -22 -23 -24
leaf_value=-0.065561025905026771 0.14777296336089382 -0.0045133530538537308 0.13434415778253025 -0.03422890011976383 0.069433003144971028 0.16057326137116346 -0.041859401463604944 0.053055449022767778 0.12906986686013708 0.050250159751502869 0.13681145655354029 0.0636551301759819 0.040844325883930138 0.12401877226063057 0.11380529897190686 0.16962383931747466 0.073563029382682388 0.068191778905141429 0.16710638315852963 0.07872668365709784 0.14646690267041126 0.12620033448809545 0.17009372842263668
leaf_weight=370.02375319600105 8.6578205674886721 4.1152307987213153 4.3441661894321442 4.9726453274488449 4.2795451581478119 22.673801869153976 6.6039263606071454 7.3599203675985319 5.2062948644161251 5.0063070654869062 8.8772719353437406 5.2360931038856506 6.3657699078321466 4.3263378441333771 4.0078174322843552 46.595111131668091 5.5382381975650805 3.9377473592758143 8.3467408418655413 6.0003601014614132 10.807970255613325 5.2694701552391043 6.9806256890296927
leaf_count=2042 43 22 22 27 22 111 36 38 26 26 44 27 33 22 20 227 28 20 41 30 54 26 34
internal_value=-0.00112089 0.126831 0.0849134 -0.0636216 0.0530824 0.149742 0.00168095 0.107696 0.0720072 0.0077351 0.133875 0.0333969 0.0896995 0.0745683 0.0757151 0.158022 0.101861 0.0991489 0.147447 0.137006 0.123189 0.152676 0.15275
internal_weight=565.533 185.53 65.8112 380.003 40.0709 119.719 10.8835 20.0256 29.1875 9.97895 25.7403 9.35132 19.8361 14.6299 11.3677 99.6935 9.8824 8.26409 53.0983 30.4245 16.8083 13.6162 15.8579
internal_count=3021 926 336 2095 208 590 58 101 150 53 128 49 101 75 58 489 50 42 262 151 84 67 78
is_linear=0
shrinkage=0.05


Tree=2
num_leaves=27
num_cat=0
split_feature=0 2 0 0 5 2 0 0 5 13 12 6 2 1 3 14 5 12 0 7 3 14 13 14 1 3
split_gain=1598.16 54.8093 32.625 20.4016 14.1328 16.1258 11.8061 8.50649 7.35172 6.52697 5.21965 4.62109 4.45173 4.31938 3.30182 4.48512 2.82375 2.74134 2.35066 1.29142 3.80112 0.901024 1.75243 1.83777 0.296621 0.0287846
threshold=0.054093567251461951 9.5000000000000018 0.29285714285714287 1.0000000180025095e-35 -0.86632373067717416 25.500000000000004 0.12916666666666668 0.10263157894736842 -0.23164534143440133 -0.24478172576892351 0.77515508430453972 -0.014902458678591699 19.500000000000004 0.45000000000000007 9.5000000000000018 7.5000000000000009 -0.11284382608226179 0.86620979774441764 0.45000000000000007 1.7812142430619615 6.5000000000000009 4.5000000000000009 -0.5212367995319559 5.5000000000000009 0.70833333333333337 4.5000000000000009
decision_type=2 2 2 2 2 2 2 2 2 2 2 2 2 2 2 2 2 2 2 2 2 2 2 2 2 2
left_child=3 6 4 -1 -3 7 8 10 25 -5 -6 -7 14 16 -9 -16 -4 -10 19 21 -21 -8 -23 -24 -15 -2
right_child=1 2 13 9 5 11 18 12 17 -11 -12 -13 -14 24 15 -17 -18 -19 -20 20 -22 22 23 -25 -26 -27
leaf_value=-0.064570732861931907 0.11068439867052332 0.12794057551347746 0.11483011950109819 -0.033138398098521808 -0.02616854562985136 0.018746592490698384 0.15003966874617863 0.026062429967608353 0.049195759611737055 0.046664859262416418 0.049758376200633253 -0.052868051489589923 0.11814032000753877 0.12140621296232768 0.11586160868704323 0.038724357453565054 0.055815761028990288 0.10317166138708399 0.15065742026942808 0.14027960194870628 0.082162968918404911 0.093196060419158816 0.097792856357989996 0.14575800291036528 0.15176217646108328 0.1470995212956972
leaf_weight=357.23929622769356 4.2796460688114184 4.982333928346633 5.8301198482513428 4.8850191682577133 3.9121074825525302 3.9306929707527161 18.700029879808426 5.1112893074750927 7.5433641076087934 5.1258536875247938 4.9724106937646866 4.8455697745084745 4.9453223049640647 8.9487043917179125 4.2267421633005124 4.0615295469760895 4.286376893520357 4.2046695202589035 49.759692177176476 7.1645566523075086 6.7401934564113617 5.0644586384296408 4.3070159107446733 14.339649364352224 8.1057239770889264 4.9198015332221985
leaf_count=2042 20 25 28 27 21 20 86 25 38 26 25 27 24 42 21 20 21 20 227 33 32 24 20 67 37 23
internal_value=-0.00114731 0.114422 0.0778762 -0.0625969 0.0493105 0.0379673 0.133916 0.0569619 0.0977936 0.00728604 0.0158499 -0.0203803 0.0764077 0.120446 0.0598741 0.0795701 0.0911061 0.0696437 0.140904 0.131945 0.113253 0.137675 0.127124 0.135526 0.136926 0.132069
internal_weight=562.432 195.182 68.1589 367.25 40.988 36.0057 127.023 27.2294 20.9475 10.0109 8.88452 8.77626 18.3449 27.1709 13.3996 8.28827 10.1165 11.748 106.076 56.3159 13.9048 42.4112 23.7111 18.6467 17.0544 9.19945
internal_count=3021 926 336 2095 208 183 590 136 101 53 46 47 90 128 66 41 49 58 489 262 65 197 111 87 79 43
is_linear=0
shrinkage=0.05


Tree=3
num_leaves=25
num_cat=0
split_feature=0 0 2 0 2 2 6 13 14 13 13 18 6 0 5 0 7 0 7 3 14 6 18 18
split_gain=1428.44 49.3874 26.7194 17.1736 14.8173 11.5473 6.89468 6.33246 5.58472 3.71933 6.37668 8.60671 3.6471 3.30727 3.2742 3.04982 2.69164 2.18632 3.20032 3.77666 1.91749 0.649027 0.512595 0.704991
threshold=0.031754032258064509 0.10263157894736842 8.5000000000000018 0.45000000000000007 15.500000000000002 24.500000000000004 -0.095451950207270736 -0.40174103166709374 12.500000000000002 0.047433870890879706 -0.43972130815603366 -0.64504763387983044 0.22214122415623166 1.0000000180025095e-35 0.032964056886330355 0.24264705882352941 1.193437262882288 0.45000000000000007 1.7812142430619615 6.5000000000000009 7.5000000000000009 -0.21064047222268503 -0.60025183161271523 -0.70368456703892213
decision_type=2 2 2 2 2 2 2 2 2 2 2 2 2 2 2 2 2 2 2 2 2 2 2 2
left_child=13 4 17 5 6 9 20 -8 -7 10 11 -4 -6 -1 -9 -13 -12 18 22 -20 -2 -5 23 -3
right_child=1 2 3 21 12 8 7 14 -10 -11 16 15 -14 -15 -16 -17 -18 -19 19 -21 -22 -23 -24 -25
leaf_value=-0.063656700559159077 0.12962286947927845 0.12253261719183316 0.0098628192546173638 0.13071246633901165 0.025772690491426078 -0.0096502486615550609 0 0.094998859770326655 0.063176502250498381 0.039040630454213139 0.090909088869977339 0.063653915207752057 -0.036210856839078452 -0.015709890874628121 0.032870348257224812 0.12301165133797878 0.14549379220303699 0.1370957074028418 0.12284388427032791 0.069760453327974314 0.073569315649844536 0.09592344000355818 0.13357588228955705 0.08735987324073069
leaf_weight=344.57283970713615 4.1383921205997467 12.766279354691507 4.8292371481657002 16.309531524777416 4.2013399302959424 6.0229714512824994 5.1082201302051518 5.2811499387025851 4.4218644052743912 4.8706657141447058 6.6894862651824969 5.7801023423671722 5.1005547791719437 3.9923786967992774 4.2809002250432968 4.7523937970399857 5.6232945024967194 48.977600276470184 7.9334945529699308 7.9692403674125671 4.3820409029722214 4.5444481670856467 30.467555910348892 4.5020806491374961
leaf_count=2042 20 57 23 72 22 31 26 25 22 23 32 27 27 21 21 22 26 213 35 37 21 20 136 20
internal_value=-0.00115693 0.102175 0.112628 0.0862603 0.045081 0.067658 0.0664113 0.044524 0.0210138 0.0823643 0.0896411 0.0666037 -0.0077069 -0.0631265 0.0683297 0.0918122 0.117212 0.127442 0.11973 0.0971571 0.102563 0.123864 0.126927 0.114206
internal_weight=557.518 208.953 176.46 63.844 32.4926 42.99 23.1907 14.6703 10.4448 32.5452 27.6745 15.3617 9.30189 348.565 9.56205 10.5325 12.3128 112.616 63.6387 15.9027 8.52043 20.854 47.7359 17.2684
internal_count=3021 958 796 298 162 206 113 72 53 153 130 72 49 2063 46 49 58 498 285 72 41 92 213 77
is_linear=0
shrinkage=0.05


Tree=4
num_leaves=26
num_cat=0
split_feature=0 0 2 0 2 2 12 6 6 6 6 15 14 0 0 7 0 7 0 12 13 18 18 13 3
split_gain=1285.45 41.5907 22.3169 14.6016 12.8871 8.74949 8.07182 8.05529 6.17364 3.4871 3.3317 3.28651 8.78738 3.25628 2.11749 2.23943 1.89727 2.57822 4.80498 1.3769 0.987652 0.971898 0.330578 0.311789 0.050789
threshold=0.031754032258064509 0.10263157894736842 8.5000000000000018 0.29285714285714287 15.500000000000002 25.500000000000004 0.7523914059445701 -0.15284002650969966 1.0647493863930941 0.19403137600330536 0.22214122415623166 32.500000000000007 7.5000000000000009 1.0000000180025095e-35 0.45000000000000007 1.2233779089995769 0.45000000000000007 2.3047761475012734 0.24264705882352941 0.64182496819614732 -0.546169430016192 -0.34482235855358495 -0.63495011937742418 -0.19039500331367279 7.5000000000000009
decision_type=2 2 2 2 2 2 2 2 2 2 2 2 2 2 2 2 2 2 2 2 2 2 2 2 2
left_child=13 4 16 5 6 11 7 -2 23 14 -6 -4 19 -1 15 -5 17 20 -19 -13 -3 -14 -22 -8 -16
right_child=1 2 3 9 10 -7 8 -9 -10 -11 -12 12 21 -15 24 -17 -18 18 -20 -21 22 -23 -24 -25 -26
leaf_value=-0.062811433874212758 0.070153947779069345 0.084659344879828763 0.028823863993701595 0.056894403888138614 0.024214683269434656 0.0042455694934913947 0.12920925069774422 -0.017820899971232141 0.039166879206116438 0.060413140931682645 -0.035060990377047699 0.12524044401127515 0.018686911854565797 -0.0150584853625762 0.10621573349178204 0.11212256151856606 0.12573158427485495 0.05330429476939972 0.11882627417812744 0.08207558596434783 0.10616233001775355 0.054793840755568896 0.12365158687372001 0.091797615666776938 0.13065686250176314
leaf_weight=332.06756120920181 5.1374056041240692 4.8265839964151374 4.787437096238139 4.5313083082437533 4.253130838274954 6.8620236665010443 4.3349835574626896 4.9718804806470889 4.9100207090377799 4.9999704658985129 5.0100542306900024 6.1619191914796847 4.283176451921463 3.9619467705488196 7.967032045125964 4.7019096314907074 50.694674044847488 6.4915898442268354 5.9932501018047333 5.6796308308839798 16.919618085026737 4.5806038677692396 31.660041928291324 4.4098681211471566 11.045660614967344
leaf_count=2042 24 21 22 21 22 36 20 25 24 22 27 28 20 21 34 21 213 29 26 26 73 21 136 20 47
internal_value=-0.00116083 0.0942117 0.103593 0.0797637 0.042157 0.0552282 0.0616113 0.0266463 0.086752 0.103254 -0.007343 0.0686859 0.0774796 -0.0622679 0.110422 0.0864544 0.116878 0.10981 0.0858492 0.105816 0.115147 0.0383071 0.117894 0.11216 0.121286
internal_weight=551.243 215.214 182.186 65.6007 33.0273 32.3548 23.7642 10.1093 13.6549 33.2459 9.26319 25.4928 20.7053 336.03 28.2459 9.23322 116.586 65.8911 12.4848 11.8416 53.4062 8.86378 48.5797 8.74485 19.0127
internal_count=3021 958 796 298 162 153 113 49 64 145 49 117 95 2063 123 42 498 285 55 54 230 41 209 40 81
is_linear=0
shrinkage=0.05


Tree=5
num_leaves=31
num_cat=0
split_feature=1 1 2 1 7 6 7 1 16 3 1 4 15 2 15 5 2 12 2 6 10 5 6 2 11 15 14 6 6 7
split_gain=985.882 57.9645 34.3868 14.526 13.3649 9.01614 8.5669 5.8866 5.04639 5.41574 4.91273 4.69455 5.56925 8.10866 4.90474 4.78923 4.33929 4.10448 3.81731 2.76167 2.22195 6.09542 2.14764 3.04676 1.78 1.47924 1.02818 1.81347 1.72238 0.526928
threshold=0.060661764705882353 0.26136363636363641 13.500000000000002 0.025015634771732301 1.7399572668392906 0.81114219890092265 -0.89499731884431399 0.2264957264957265 2.5000000000000004 16.500000000000004 0.58333333333333337 0.14760348583877994 224.50000000000003 3.5000000000000004 469.50000000000006 -0.14897068099969521 20.500000000000004 0.92149301661862915 8.5000000000000018 -0.56816475117506327 0.43587073232109674 -0.56752860796268945 -0.070572329103702494 8.5000000000000018 3.9656762387654578 43.500000000000007 5.5000000000000009 -0.47215140675052025 -1.0310494145245952 1.0598352224759779
decision_type=2 2 2 2 2 2 2 2 2 2 2 2 2 2 2 2 2 2 2 2 2 2 2 2 2 2 2 2 2 2
left_child=3 2 4 -1 11 20 -4 8 9 17 16 -2 13 29 -14 -15 22 -8 -5 -18 21 -6 26 25 -17 -24 -3 28 -28 -13
right_child=1 10 6 18 5 -7 7 -9 -10 -11 -12 12 14 15 -16 24 19 -19 -20 -21 -22 -23 23 -25 -26 -27 27 -29 -30 -31
leaf_value=-0.061870306370287675 0.12264667473687148 0.11044074214136733 0.059648473963536487 0.032103178137904531 0.086903776228024907 -0.011326509453204597 0.042276954446661748 0.036754434549390688 -0.050865473445315237 -0.050591316786730289 0.11298216151631953 0.097691168228070835 0.020996810852380199 0.095855441560547747 0.083656242560195035 0.055934544182325178 0.080992100880855178 -0.013916977923650785 -0.027290636774449064 0.023619990406038616 0.086280428626633779 0.0096957243541573954 0.07428367177279914 0.049278922203942366 0.010660275183235876 0.11438829858938514 0.068614455265554472 0.057795539712452472 0.11288854554704714 0.12550397047575165
leaf_weight=293.92259967327118 7.0130121856927863 27.028407752513885 7.1802356690168372 4.4313818067312223 4.4497065842151642 6.7873352020978919 7.0467764288187116 7.726157769560813 6.3758724927902213 3.7740056961774817 48.098821431398392 12.514269337058069 7.8769965916872007 5.360015556216239 5.5296921133995056 4.8526835292577726 5.241240382194519 5.7107607424259186 6.561960443854332 4.1409117728471738 4.8236220628023139 6.2876015752553958 7.2839442938566226 6.6943553239107123 4.5454089641571045 6.2784391790628433 4.6278667151927957 4.6166715770959845 9.8371327072381973 7.1851315647363654
leaf_count=1876 30 114 36 24 20 34 36 38 34 21 201 54 39 24 25 23 23 31 36 21 22 29 32 31 21 27 21 20 41 31
internal_value=-0.00016939 0.0758638 0.0501504 -0.0597595 0.0692721 0.0360438 0.0108875 -0.00053582 -0.0134354 0.000919017 0.0996483 0.0826228 0.0764109 0.0872903 0.0476394 0.0578754 0.090978 0.0168209 -0.00282488 0.0567138 0.0569654 0.04266 0.095654 0.0797251 0.0349067 0.0939167 0.102356 0.0901272 0.0996353 0.108671
internal_weight=543.803 238.887 115.039 304.916 77.2255 22.3483 37.8138 30.6336 22.9074 16.5315 123.848 54.8772 47.8642 34.4575 13.4067 14.7581 75.749 12.7575 10.9933 9.38215 15.5609 10.7373 66.3668 20.2567 9.39809 13.5624 46.1101 19.0817 14.465 19.6994
internal_count=3015 1079 548 1936 352 105 196 160 122 88 531 247 217 153 64 68 330 67 60 44 71 49 286 90 44 59 196 82 62 85
is_linear=0
shrinkage=0.05


Tree=6
num_leaves=26
num_cat=0
split_feature=0 0 2 12 7 2 3 12 1 13 2 5 18 12 15 13 0 7 13 15 4 14 0 7 1
split_gain=1081.93 33.9906 27.8956 8.06615 9.58128 7.13197 5.8944 5.79364 4.66499 4.72325 4.30831 4.70362 5.96173 4.13401 4.01107 3.53187 3.4354 2.19676 1.17774 1.53644 1.20055 0.964614 0.916781 0.102751 0.0991276
threshold=0.031754032258064509 0.21111111111111114 13.500000000000002 -0.29473779861402505 0.058108441859114103 24.500000000000004 16.500000000000004 0.64182496819614732 0.45000000000000007 -0.54901149152216699 2.5000000000000004 -0.6052380202853479 -0.4527522974920502 0.22557484961384833 212.50000000000003 0.96044612968538046 1.0000000180025095e-35 1.3910396027163328 -0.39127707794054906 135.50000000000003 0.75357142857142867 8.5000000000000018 0.11834733893557421 1.2081758190007927 0.70833333333333337
decision_type=2 2 2 2 2 2 2 2 2 2 2 2 2 2 2 2 2 2 2 2 2 2 2 2 2
left_child=16 2 6 -4 -5 14 10 -8 9 -3 22 -12 17 -14 -6 18 -1 -13 19 21 -20 23 -2 -11 -10
right_child=1 8 3 4 5 -7 7 -9 24 15 11 12 13 -15 -16 -17 -18 -19 20 -21 -22 -23 -24 -25 -26
leaf_value=-0.061396654474486625 0.086803891046291048 0.042632095525842933 -0.035327718329966756 0.086029390332208758 0.0017997737343008096 -0.031841245716683522 0.075875091312340243 0.0084449827995522683 0.10037472376992695 0.074547349687701048 0.11027191771925644 0.11450944250273042 -0.00054435690709124854 0.058613134485931855 0.067485731042958949 0.048048473653893253 -0.010926051996392886 0.060412016133959745 0.11336888173014839 0.11034495079784679 0.077873361243663328 0.055346933719430939 0.11993611729155047 0.097357395634992572 0.11152161124423897
leaf_weight=306.54881559312344 6.8514169156551388 6.1303702145814887 5.8849347084760693 5.5597243756055859 4.6166012138128263 6.1152489185333243 7.4023693948984128 5.9018391668796539 35.741025611758232 7.8325354307889956 6.8913350552320471 5.0725031495094317 4.5477942824363726 7.5222266763448715 4.9481524527072906 5.0137547552585593 3.7019710838794699 4.5779226571321487 18.041717275977142 6.6415045559406272 5.2088531106710425 5.7075508683919898 9.8959618508815748 6.2411647439002991 43.746555268764496
leaf_count=2025 30 27 29 26 22 34 33 27 146 33 29 22 20 33 24 22 20 20 75 28 22 24 41 26 177
internal_value=-0.0001899 0.0829684 0.057913 0.0156746 0.0301395 0.00958592 0.0772981 0.0466218 0.0982005 0.0868466 0.0860634 0.0731436 0.0606833 0.0360914 0.0366452 0.0916249 -0.0608143 0.0902425 0.0958175 0.0863044 0.105998 0.0774669 0.107274 0.085631 0.106705
internal_weight=536.344 226.093 85.788 27.1247 21.2397 15.68 58.6634 13.3042 140.305 60.8175 45.3592 28.6118 21.7204 12.07 9.56475 54.6871 310.251 9.65043 49.6733 26.4228 23.2506 19.7813 16.7474 14.0737 79.4876
internal_count=3015 970 390 135 106 80 255 60 580 257 195 124 95 53 46 230 2045 42 208 111 97 83 71 59 323
is_linear=0
shrinkage=0.05


Tree=7
num_leaves=27
num_cat=0
split_feature=0 1 2 7 7 6 2 1 3 10 15 18 0 12 15 7 1 2 3 2 6 3 12 7 12 14
split_gain=987.116 31.1152 21.6303 6.43712 6.34838 7.40056 6.97414 6.21768 4.71073 5.45228 3.59256 4.16898 3.38827 2.62193 2.37996 1.74971 1.63494 2.06353 1.41075 1.62947 3.74405 1.51831 0.805448 1.60637 1.50493 0.476566
threshold=0.031754032258064509 0.29705882352941176 13.500000000000002 -0.095114754210770383 1.7812142430619615 0.81114219890092265 4.5000000000000009 0.2264957264957265 16.500000000000004 0.18734665224821492 205.50000000000003 -0.587014505045378 1.0000000180025095e-35 0.45646358726496716 141.00000000000003 1.146354614650362 0.70833333333333337 24.500000000000004 6.5000000000000009 7.5000000000000009 0.049770810543666506 11.500000000000002 0.11175645781400091 0.032455016642298003 0.64182496819614732 5.5000000000000009
decision_type=2 2 2 2 2 2 2 2 2 2 2 2 2 2 2 2 2 2 2 2 2 2 2 2 2 2
left_child=12 2 4 -4 6 13 22 10 9 -8 15 -12 -1 -6 -11 -5 17 18 -3 25 21 -21 -2 -24 -25 -20
right_child=1 16 3 7 5 -7 8 -9 -10 14 11 -13 -14 -15 -16 -17 -18 -19 19 20 -22 -23 23 24 -26 -27
leaf_value=-0.060714797571786584 0.10803666276702645 0.10493787082667434 0.063454358525974239 -0.00092696608480238168 0.047124860173018986 -0.00028955163428425498 0.034687908103678347 0.050533825791783872 0.018581533149979831 0.12101203993079145 0.054767861940798218 -0.01043591125050421 -0.01045161478884581 0.092830428899729672 0.067282333322320753 -0.04587466182657135 0.10500971972911988 0.05499359716015817 0.10517351758769117 0.067370840681677077 0.034584545723201868 0.10780294388774177 0.057986128862072842 0.069274386253581482 0.11271462632842898 0.083888495778793704
leaf_weight=294.79084177315235 16.163155317306519 22.914777219295502 8.5513184219598752 4.4044455289840752 8.7577103227376956 5.4507595449686042 6.4124739915132585 7.7822038978338233 5.6135181337594977 5.266192212700842 4.3194801956415185 5.2260324060916874 3.6815881431102744 6.1577199399471274 5.3312713354825974 4.6656111180782318 44.131210371851921 5.0811444222927085 13.610330030322077 7.0473036020994204 5.3137753307819358 6.0673554688692093 5.0721599906682995 4.778656139969824 7.6879389435052872 13.077925235033034
leaf_count=2025 66 93 39 22 37 25 28 35 25 22 22 27 20 26 23 24 177 22 55 29 22 25 21 20 32 53
internal_value=-0.000209876 0.0778789 0.0587723 0.025848 0.0736579 0.0487007 0.082491 0.0132836 0.0599325 0.0730983 -0.00220847 0.0188133 -0.0601153 0.0668196 0.0953312 -0.0248413 0.0959642 0.0903001 0.0927791 0.0862746 0.0725162 0.0871289 0.0972641 0.0864967 0.0971449 0.0952821
internal_weight=527.357 228.884 111.641 34.9491 76.6916 20.3662 56.3254 26.3978 22.6235 17.0099 18.6156 9.54551 298.472 14.9154 10.5975 9.07006 117.244 73.1126 68.0315 45.1167 18.4284 13.1147 33.7019 17.5388 12.4666 26.6883
internal_count=3015 970 494 169 325 88 237 130 98 73 95 49 2045 63 45 46 476 299 277 184 76 54 139 73 52 108
is_linear=0
shrinkage=0.05


Tree=8
num_leaves=31
num_cat=0
split_feature=1 1 2 1 7 6 7 2 13 1 16 12 1 4 2 15 2 2 6 1 7 3 7 10 5 13 13 18 2 4
split_gain=755.915 40.807 23.9526 13.1625 9.83564 6.64449 6.46403 5.14593 6.59895 5.53212 3.93691 4.73247 3.62916 3.55442 4.06574 4.73718 3.2627 3.23013 4.98888 2.92682 2.4595 3.32826 1.99366 1.73539 4.96438 1.47774 1.14522 1.06927 0.945139 0.826255
threshold=0.060661764705882353 0.26136363636363641 13.500000000000002 0.025015634771732301 1.7399572668392906 0.81114219890092265 -0.89499731884431399 31.500000000000004 -0.54901149152216699 0.2264957264957265 2.5000000000000004 0.92149301661862915 0.58333333333333337 0.14760348583877994 7.5000000000000009 207.50000000000003 8.5000000000000018 8.5000000000000018 0.040629955276333458 0.10840188014101056 1.6159811610729247 11.500000000000002 1.1160963411144118 0.43587073232109674 -0.56752860796268945 -0.41659726226650912 -0.50147155360403806 -0.46078604690410557 3.5000000000000004 0.79843750000000013
decision_type=2 2 2 2 2 2 2 2 2 2 2 2 2 2 2 2 2 2 2 2 2 2 2 2 2 2 2 2 2 2
left_child=3 2 4 -1 13 23 -4 8 -8 10 11 -10 17 -2 15 28 -5 25 20 -17 21 27 -16 24 -6 26 -3 -19 -15 -27
right_child=1 12 6 16 5 -7 7 -9 9 -11 -12 -13 -14 14 22 19 -18 18 -20 -21 -22 -23 -24 -25 -26 29 -28 -29 -30 -31
leaf_value=-0.059822092174227251 0.10285350351377667 0.084779015510822314 0.050412824436799321 0.028458895261133432 0.073126734417007483 -0.011682507521712631 -0.053336703556593618 -0.051293637927376859 0.047208499914230734 0.059358482660673853 -0.040508755001012225 -0.012912127915096418 0.094375427900312892 0.088991223374000991 0.018399017510450196 0.0066091450401144147 -0.026408236028133178 0.062610388216499197 0.025443963795377472 0.063126450654752114 0.1034966789595852 0.09164683126592485 0.063334862123590144 0.071924943264413663 0.0045570180391108859 0.098854637787496424 0.056076963440445118 0.028116532533559703 0.063452156848311903 0.070518776386969392
leaf_weight=261.39641633629799 7.3221218585968009 10.310332521796228 7.4835475981235495 4.5031066536903364 4.6247468292713201 6.7456325143575659 3.7149102836847332 4.2872923910617819 6.245761603116998 5.7804676890373221 3.8857908993959418 6.5003700107336044 49.374274075031281 20.120436206460003 7.1922062635421735 4.1914327591657621 6.4207429438829422 4.931734621524817 7.6209084391593924 5.6819145977497101 5.8823974728584281 6.5962144136428824 4.2028384357690811 5.05147661268711 6.3988151550292987 21.422834962606434 9.3778427839279157 6.106658503413203 8.2335497140884382 6.0789489746093741
leaf_count=1876 30 42 36 24 20 34 20 25 31 27 21 36 201 83 33 21 36 21 36 25 24 28 20 22 29 87 40 26 35 26
internal_value=-0.000223977 0.063404 0.042017 -0.0575745 0.0575636 0.0292603 0.00909882 -0.00103458 0.00718604 0.0176323 0.00256334 0.0162967 0.0830223 0.0687473 0.0634175 0.0714002 -0.00328397 0.0756909 0.062067 0.0399419 0.0735654 0.0627719 0.0358145 0.0467164 0.0341726 0.0844245 0.0717128 0.0444004 0.0819999 0.0930507
internal_weight=517.686 245.365 117.663 272.32 79.7652 22.8207 37.8981 30.4146 26.1273 22.4124 16.6319 12.7461 127.702 56.9445 49.6224 38.2273 10.9238 78.3279 31.1379 9.87335 23.517 17.6346 11.395 16.075 11.0236 47.19 19.6882 11.0384 28.354 27.5018
internal_count=3015 1079 548 1936 352 105 196 160 135 115 88 67 531 247 217 164 60 330 135 46 99 75 53 71 49 195 82 47 118 113
is_linear=0
shrinkage=0.05


Tree=9
num_leaves=28
num_cat=0
split_feature=0 1 2 12 7 2 7 2 4 0 2 0 1 11 6 7 4 1 2 0 7 3 2 6 3 13 3
split_gain=839.422 25.3004 17.0997 6.00934 9.49598 6.83329 5.16641 4.8422 4.68279 3.67921 4.19177 3.34353 3.23903 3.22355 3.10088 2.34894 2.20164 1.55067 1.74423 1.42122 1.32711 1.28239 1.46907 3.09642 1.23117 0.767298 1.29016
threshold=0.031754032258064509 0.29705882352941176 13.500000000000002 -0.29473779861402505 -0.095114754210770383 16.500000000000004 2.8271025391463085 2.5000000000000004 0.20156250000000003 0.08603145235892691 26.500000000000004 1.0000000180025095e-35 0.088932806324110672 2.7150641761633358 -0.35819999296677502 0.058108441859114103 0.62095088819226762 0.70833333333333337 24.500000000000004 0.10263157894736842 1.1367782108957682 6.5000000000000009 7.5000000000000009 0.049770810543666506 11.500000000000002 -0.41659726226650912 13.500000000000002
decision_type=2 2 2 2 2 2 2 2 2 2 2 2 2 2 2 2 2 2 2 2 2 2 2 2 2 2 2
left_child=11 2 6 20 -5 -6 7 19 -9 -7 -11 -1 -10 -14 -8 -15 -17 18 21 -2 -4 -3 25 24 -24 26 -23
right_child=1 17 3 4 5 9 14 8 12 10 -12 -13 13 15 -16 16 -18 -19 -20 -21 -22 22 23 -25 -26 -27 -28
leaf_value=-0.059581421318882971 0.061400708553433263 0.094656763488512319 -0.032934838477847075 0.087756428305852979 0.067509241818278456 -0.034052237078293336 0.055874717203729843 0.094939204438515445 0.0125582051292751 0.041430007829419524 -0.023810401285922156 -0.0093138015318441347 0.023709189310661381 0.039451808477232835 0.002787282324645304 0.096730224642174401 0.053842132460397665 0.095027041007540697 0.048825648847047577 0.096176562139021676 0.0057938365082498139 0.052969206247410465 0.059660875164883331 0.029916332670701824 0.095956195125484783 0.095083974182185491 0.091741360916788403
leaf_weight=273.40073950588703 5.4091661423444775 23.147304028272629 4.0910782963037473 6.476992845535281 5.1103381216526058 4.9101551175117484 6.8157198578119278 8.1346821039915067 5.0285974591970435 6.7439427375793439 3.6610563993453979 3.6287829577922812 6.0366980433464077 6.5333328992128399 4.9287933111190778 8.2799486666917783 6.6769907772541037 44.139825865626335 5.1958205401897422 20.103315517306328 4.2590968310832977 6.2232793420553207 7.160251051187517 5.3732485026121131 6.1916418522596359 15.219238847494125 5.4784310609102249
leaf_count=2025 23 93 20 28 23 27 28 33 23 31 20 20 26 27 22 34 28 177 22 81 20 25 29 22 25 61 22
internal_value=-0.000232269 0.0700526 0.0529584 0.0237472 0.0352673 0.0180328 0.0660582 0.0715691 0.0601584 0.000868324 0.0179907 -0.0589446 0.0510504 0.0578303 0.0342294 0.0670292 0.0784012 0.0863325 0.0809568 0.0892671 -0.0127544 0.0832366 0.0771419 0.0643084 0.0774519 0.0856123 0.0721685
internal_weight=508.358 231.329 113.2 35.2527 26.9025 20.4255 77.9472 66.2027 40.6902 15.3152 10.405 277.03 32.5556 27.527 11.7445 21.4903 14.9569 118.129 73.9892 25.5125 8.35018 68.7934 45.6461 18.7251 13.3519 26.9209 11.7017
internal_count=3015 970 494 169 129 101 325 275 171 78 51 2045 138 115 50 89 62 476 299 104 40 277 184 76 54 108 47
is_linear=0
shrinkage=0.05


Tree=10
num_leaves=28
num_cat=0
split_feature=0 1 13 3 16 10 5 7 0 5 6 5 0 14 7 0 4 5 13 6 0 4 4 7 5 3 1
split_gain=768.7 23.7412 8.80143 6.62566 7.35605 5.2572 9.00319 5.14506 4.5139 4.65105 3.5235 6.9517 2.58015 2.31554 6.33733 2.27149 1.63204 1.53125 1.61122 1.41226 2.72521 0.786706 0.478752 0.728666 1.20667 0.0656389 0.522811
threshold=0.030330882352941155 0.26136363636363641 -0.56658059901364954 15.500000000000002 2.5000000000000004 0.25328330171529362 0.39529268241168852 1.4638844699858193 0.17156862745098037 -0.44381778479577655 1.503854080400542 0.061819152385898211 0.45000000000000007 8.5000000000000018 0.97002641573541382 1.0000000180025095e-35 0.20156250000000003 -0.37990350140781065 -0.50844752275506788 -0.30225520960129332 0.12916666666666668 0.10660173160173156 0.31142241379310348 0.69256738869048406 0.049107235143538507 6.5000000000000009 0.70833333333333337
decision_type=2 2 2 2 2 2 2 2 2 2 2 2 2 2 2 2 2 2 2 2 2 2 2 2 2 2 2
left_child=15 2 -2 4 10 6 -5 -7 9 21 16 -12 13 22 -15 -1 -4 -18 -19 -20 -21 -6 -3 -24 -25 -14 -27
right_child=1 12 3 5 8 7 -8 -9 -10 -11 11 -13 25 14 -16 -17 17 18 19 20 -22 -23 23 24 -26 26 -28
leaf_value=-0.059030013822515673 -0.015657575898242907 0.093144432691790124 0.093150936640508164 -0.045763544332982679 0.017585394695795762 0.077649609153759402 0.043865467891211055 0.015109695709738311 0.062163495492928059 -0.027090239479044022 -0.0065153754848896392 0.076046647145476542 0.092068055298411944 0.082099242204619713 0.010593045025678311 -0.012393988039593393 0.045060476886509132 0.051940412017335492 0.097817518699137462 0.036079886001214145 0.08828359937744952 0.04985246101624613 0.08634139012852815 0.075571425437821665 0.039571741167670101 0.074587460252308099 0.090608264393898949
leaf_weight=266.30022446811199 4.8971684575080863 7.9330352097749737 11.009657919406889 5.0449636429548281 4.4425692558288556 7.3744485974311811 6.0358864963054657 6.3941262364387512 8.4522882401943189 4.2819254547357586 4.3924119770526868 5.6110907942056656 35.45943546295166 7.0541217774152738 5.840059369802475 2.9725468754768363 7.5487195104360536 8.3003889769315666 9.5892301350831968 4.9443989992141848 6.7643243372440338 4.7130142897367477 8.2050111442804354 7.4266485273838025 5.1406397372484207 22.872859999537468 20.805091753602028
leaf_count=2054 23 32 45 23 20 31 28 29 35 21 21 25 143 29 24 17 33 36 40 21 28 21 33 30 21 92 84
internal_value=-0.0011642 0.0658261 0.0488041 0.0518731 0.0589448 0.0287467 0.00256705 0.049285 0.0335499 0.0148562 0.0683429 0.0395941 0.0812111 0.0699469 0.0504281 -0.0585385 0.0741168 0.0681063 0.073644 0.0815865 0.0671545 0.0350949 0.0783355 0.0720211 0.0616691 0.0869735 0.0825224
internal_weight=499.806 230.534 109.797 104.899 80.05 24.8494 11.0809 13.7686 21.8898 13.4375 58.1602 10.0035 120.737 41.5995 12.8942 269.273 48.1567 37.1471 29.5983 21.298 11.7087 9.15558 28.7053 20.7723 12.5673 79.1374 43.678
internal_count=3039 968 480 457 346 111 51 60 97 62 249 46 488 169 53 2071 203 158 125 89 49 41 116 84 51 319 176
is_linear=0
shrinkage=0.05


Tree=11
num_leaves=31
num_cat=0
split_feature=1 1 2 6 14 2 4 13 1 2 3 2 4 2 18 5 2 5 18 6 18 4 6 13 12 12 4 4 13 13
split_gain=586.167 39.3115 27.6326 9.93801 7.57444 6.51021 7.22024 4.24165 3.56459 3.31817 3.86308 3.06104 3.09013 2.85075 3.84411 4.60032 2.66598 2.65614 2.59593 2.43582 2.18569 2.15732 1.93573 1.4882 2.22962 3.95014 2.93048 0.861216 0.833293 1.96985
threshold=0.030330882352941155 0.26136363636363641 13.500000000000002 -0.54967685593511895 15.500000000000002 3.5000000000000004 0.41522988505747133 -0.50470116895173711 0.70833333333333337 22.500000000000004 5.5000000000000009 7.5000000000000009 0.6984848484848486 7.5000000000000009 -0.46078604690410557 -0.26451669969291242 7.5000000000000009 0.39529268241168852 -0.58275586481893893 -0.41290766810058754 -0.52363168053738685 0.66421568627450989 -0.41386986339188575 -0.44966852342694663 1.2044130190925355 0.19955921720245479 0.50714285714285723 0.77459677419354855 -0.41659726226650912 -0.49901704593978696
decision_type=2 2 2 2 2 2 2 2 2 2 2 2 2 2 2 2 2 2 2 2 2 2 2 2 2 2 2 2 2 2
left_child=-1 2 4 7 5 23 16 -4 13 17 -11 18 -13 27 22 -16 -7 20 -8 -18 -5 -17 -15 -2 25 -25 -27 28 29 -3
right_child=1 8 3 9 -6 6 11 -9 -10 10 -12 12 -14 14 15 21 19 -19 -20 -21 -22 -23 -24 24 -26 26 -28 -29 -30 -31
leaf_value=-0.057982089277922623 0.083906814678605168 0.083270293028584574 0.003451858101307867 0.0066468073640382269 -0.0058537090347829009 0.08232814698108068 0.028421676475438491 0.060028560508005979 0.083302333593081784 0.0097186886802631423 -0.052269746546882594 0.011972664008131226 0.063065376337295656 0.087115507828931196 0.073147847967387783 0 0.062477885948904216 0.029350098487463495 -0.021428142395896053 0.011427426642287585 -0.036202113003751625 0.039921066334435179 0.044489935326400235 0.072511374145875912 0.08693104320451156 0.054215468604555429 -0.000208612111423175 0.055027355544221945 0.084798873639829256 0.044703112023081561
leaf_weight=235.2819230556488 11.99879217147827 8.3274562656879407 6.4345729649066925 5.5066644847393045 5.8277430832386008 8.7172209918499011 4.3613646924495697 7.2237988039851171 45.325899168848991 3.1796561926603308 9.6314393505454046 6.843340724706648 5.6431510448455811 9.2915508896112424 6.1814789921045294 6.6718250960111636 6.1472471952438354 4.5737631395459166 6.1869874596595782 4.2520666569471341 5.9291621595621153 6.7606374025344849 5.1063759177923194 9.773502126336103 6.2665152698755255 4.5438288897275907 4.9043658673763275 8.6345638930797559 21.756949439644817 7.6394813209772066
leaf_count=1906 50 34 32 27 28 36 20 35 188 19 60 31 27 38 26 30 26 22 30 20 32 29 22 41 27 20 24 38 89 32
internal_value=-0.00114194 0.0515663 0.0319459 -0.000902297 0.0483128 0.0523417 0.0384214 0.033957 0.0714567 -0.0176556 -0.0365411 0.0191229 0.0357784 0.0646188 0.0527111 0.0374504 0.0611949 -0.00209978 -0.000274127 0.0423883 -0.015257 0.0202341 0.0727539 0.0677171 0.0596021 0.05003 0.0257351 0.0731152 0.0769667 0.0655219
internal_weight=488.923 253.641 127.945 42.4791 85.4661 79.6384 42.1514 13.6584 125.696 28.8207 12.8111 23.0348 12.4865 80.3703 34.0119 19.6139 19.1165 16.0096 10.5484 10.3993 11.4358 13.4325 14.3979 37.487 25.4882 19.2217 9.44819 46.3585 37.7239 15.9669
internal_count=3039 1133 607 227 380 352 190 67 526 160 79 108 58 338 145 85 82 81 50 46 59 59 60 162 112 85 44 193 155 66
is_linear=0
shrinkage=0.05


Tree=12
num_leaves=31
num_cat=0
split_feature=0 1 13 3 16 10 5 7 0 7 0 4 1 7 7 18 0 14 7 15 4 15 18 18 4 18 1 3 14 18
split_gain=662.507 20.5427 7.52857 5.57327 6.48571 4.55769 7.98698 4.42098 3.91002 3.97564 2.65108 2.63983 2.8751 3.1795 4.7696 3.15926 2.35047 2.18145 5.55132 1.95425 1.50185 2.09713 0.484504 0.71306 0.869779 0.193114 0.706118 1.06063 0.5114 0.0536804
threshold=0.030330882352941155 0.26136363636363641 -0.56658059901364954 15.500000000000002 2.5000000000000004 0.25328330171529362 0.39529268241168852 1.4638844699858193 0.17156862745098037 0.69256738869048406 0.45000000000000007 0.20156250000000003 0.095454545454545472 1.9221171112890831 1.2461913215006319 0.19474185904294122 1.0000000180025095e-35 8.5000000000000018 0.97002641573541382 398.50000000000006 0.38799283154121872 112.50000000000001 -0.67903391664867685 -0.010451199211811949 0.52899159663865558 -0.5118835393070057 0.70833333333333337 6.5000000000000009 7.5000000000000009 -0.44431027031929993
decision_type=2 2 2 2 2 2 2 2 2 2 2 2 2 2 2 2 2 2 2 2 2 2 2 2 2 2 2 2 2 2
left_child=16 2 -2 4 11 6 -5 -7 9 -6 17 29 19 14 15 20 -1 22 -19 -13 -14 -22 -3 24 -24 -12 27 -27 -29 -4
right_child=1 10 3 5 8 7 -8 -9 -10 -11 25 12 13 -15 -16 -17 -18 18 -20 -21 21 -23 23 -25 -26 26 -28 28 -30 -31
leaf_value=-0.058108500461670765 -0.015418589365414421 0.086925190635817023 0.072572827391947661 -0.044503275342941288 0.032667285419213481 0.071227490389406234 0.039994447507670602 0.013413542659914644 0.056380710191070264 -0.02335141370042644 0.085842810895717075 0.052486774430905964 0.037768676364342169 0.026209204949826006 0.09814215740127584 0.016453770194072053 -0.010149243786541529 0.074128632464190297 0.0074240993369368282 0.0069847856446076835 0.053772395792334227 0.10007352802796808 0.070230961255663887 0.084935865769526289 0.04245789410894471 0.086312626218657915 0.084070985920077085 0.045693228686436271 0.06967688014559234 0.097312776516876587
leaf_weight=246.24818154424429 4.8558651357889167 7.1587052941322318 5.6347792446613312 4.9718478322029132 8.7095125764608401 7.4345926940441114 6.1215848922729492 6.4370898306369781 8.5188738703727704 4.7600513100624076 34.736455306410789 5.2491357028484327 4.7530904114246466 5.5350776612758628 10.382682099938391 4.6100180298089972 2.8847420811653128 7.1041111350059492 5.8633853495121002 4.7983086258172989 6.8911650627851468 5.3161468803882599 8.8860308527946525 5.3999673724174526 7.1471795290708533 6.606520593166354 21.278133988380432 7.8625657111406309 7.1557618826627731 5.370360001921652
leaf_count=2054 23 29 23 23 39 31 28 29 35 23 143 24 20 23 43 20 17 29 24 23 29 22 36 22 29 27 88 32 29 22
internal_value=-0.00111534 0.0601405 0.0444092 0.0472224 0.0536896 0.026031 0.00161836 0.0450451 0.0298904 0.012476 0.0746127 0.0624773 0.0567893 0.0633237 0.069495 0.055086 -0.0575775 0.0633761 0.0446378 0.0315323 0.0651356 0.0749916 0.0715152 0.0657563 0.0585003 0.0804738 0.0758211 0.0671237 0.0578367 0.0858634
internal_weight=478.682 229.549 110.35 105.494 80.5292 24.9651 11.0934 13.8717 21.9884 13.4696 119.199 58.5408 47.5356 37.4882 31.9531 21.5704 249.133 41.5594 12.9675 10.0474 16.9604 12.2073 28.5919 21.4332 16.0332 77.6394 42.903 21.6248 15.0183 11.0051
internal_count=3039 968 480 457 346 111 51 60 97 62 488 249 204 157 134 91 2071 169 53 47 71 51 116 87 65 319 176 88 61 45
is_linear=0
shrinkage=0.05


Tree=13
num_leaves=28
num_cat=0
split_feature=0 2 0 6 2 15 14 9 13 14 18 4 6 3 3 0 1 15 3 0 7 13 14 14 7 18 7
split_gain=613.293 19.6778 15.8885 8.24261 4.87455 5.24064 4.25187 7.50495 4.11257 3.5618 5.6938 4.48035 3.25125 3.18784 2.66879 2.33568 2.27192 2.9714 1.02048 2.40313 1.85937 0.913993 1.01379 2.16993 0.548774 1.00847 0.153807
threshold=0.030330882352941155 8.5000000000000018 0.29285714285714287 -0.82445233983585087 23.500000000000004 59.500000000000007 14.500000000000002 0.21165946436433089 -0.44966852342694663 6.5000000000000009 -1.0000000180025095e-35 0.62095088819226762 -0.38740949288118492 9.5000000000000018 21.500000000000004 1.0000000180025095e-35 0.45000000000000007 53.500000000000007 4.5000000000000009 0.093073593073593072 2.3047761475012734 -0.45716123103360823 5.5000000000000009 8.5000000000000018 1.1538406245555539 -0.5118835393070057 -0.84560095605202168
decision_type=2 2 2 2 2 2 2 2 2 2 2 2 2 2 2 2 2 2 2 2 2 2 2 2 2 2 2
left_child=15 6 3 8 5 -5 14 -8 -3 11 -11 -7 -6 -14 18 -1 17 -4 26 -20 21 22 -21 -24 25 -18 -2
right_child=1 2 16 4 12 9 7 -9 -10 10 -12 -13 13 -15 -16 -17 24 -19 19 20 -22 -23 23 -25 -26 -27 -28
leaf_value=-0.057647582789771258 0.063193318029851508 0.024403952282198493 0.014177953125010226 -0.017466949344805877 0.018475603297200469 0.027624081259710349 -0.00017237050089790305 0.082741131850959757 0.087976168844114022 -0.0137882857654445 0.055462924946600704 0.089902551616004259 3.4530015557706087e-05 -0.061964912938878271 0.04358983690947834 -0.0097134436985449862 0.08355878119020449 0.065731413416488735 0.039164049148611865 0.079893411994941863 0.049480017698130908 0.081307662660025787 0.026227503025709725 0.073840926735656925 0.086182074144628473 0.050012691341855764 0.083917866834358604
leaf_weight=236.06462526321411 4.8298677802085868 4.9122925698757172 4.9194176495075208 6.2434662878513363 4.6666705459356308 8.3450646847486514 5.8041156232357007 4.85850590467453 6.1550134718418104 7.4749559164047241 4.7171878814697248 4.7609228789806357 3.6270061582326871 4.288677915930748 9.0223135054111463 2.8683731257915488 5.3186023831367475 7.6514450013637543 6.9136487692594519 8.0141161084175057 9.4394073188304883 41.130491867661483 5.1273890584707242 5.6505815088748932 10.439661949872969 7.5937280654907262 36.661997407674789
leaf_count=2054 20 21 20 27 21 36 24 20 26 35 21 20 20 25 38 17 22 31 29 33 39 170 21 23 43 31 152
internal_value=-0.00108649 0.0574422 0.0392226 0.0221751 0.0122892 0.0228252 0.069446 0.037561 0.0606782 0.0329956 0.0128317 0.0511356 -0.0137 -0.0332867 0.0720563 -0.0570974 0.065141 0.0462225 0.0741559 0.0698396 0.0727644 0.0762605 0.064577 0.0520988 0.0748715 0.0647506 0.0817834
internal_weight=467.5 228.567 91.1141 55.1913 44.124 31.5416 137.452 10.6626 11.0673 25.2981 12.1921 13.106 12.5824 7.91568 126.79 238.933 35.9229 12.5709 117.767 76.2756 69.362 59.9226 18.7921 10.778 23.352 12.9123 41.4919
internal_count=3039 968 399 252 205 139 569 44 47 112 56 56 66 45 525 2071 147 51 487 315 286 247 77 44 96 53 172
is_linear=0
shrinkage=0.05


Tree=14
num_leaves=29
num_cat=0
split_feature=0 1 2 5 7 7 7 2 7 0 4 14 10 8 0 2 15 0 0 5 13 7 7 13 18 1 3 14
split_gain=568.631 18.892 16.5827 5.19962 4.77089 6.58395 4.63575 4.86403 4.32874 3.57567 2.9026 2.79948 4.485 5.67913 2.71271 2.54372 3.40934 2.50707 2.32263 1.14721 1.10971 1.54604 0.795809 0.905746 0.204072 0.797563 1.04133 0.511306
threshold=0.030330882352941155 0.26136363636363641 13.500000000000002 -0.77220295820786988 1.0955811545818686 1.8894860977993 2.8271025391463085 3.5000000000000004 5.4880001691016895 0.067816091954022953 0.45383522727272729 9.5000000000000018 0.37355695284747364 3.5000000000000004 0.45000000000000007 8.5000000000000018 36.500000000000007 0.11834733893557421 1.0000000180025095e-35 -0.17935909328956576 -0.48028527692313283 0.058108441859114103 0.69256738869048406 -0.41659726226650912 -0.5118835393070057 0.70833333333333337 6.5000000000000009 7.5000000000000009
decision_type=2 2 2 2 2 2 2 2 2 2 2 2 2 2 2 2 2 2 2 2 2 2 2 2 2 2 2 2
left_child=18 2 6 -4 10 -6 7 20 -8 -9 -5 12 13 -11 15 22 -17 -12 -1 -18 -2 -22 -3 -24 -16 26 -26 -28
right_child=1 14 3 4 5 -7 8 9 -10 11 17 -13 -14 -15 24 16 19 -19 -20 -21 21 -23 23 -25 25 -27 27 -29
leaf_value=-0.057215735637166844 0.053456321942634527 0.080235358533945866 0.05372917245821604 -0.049185160329934918 0.053279831951816306 -0.014977589592498085 -0.009923899275641794 0.0050368774325046037 0.050216199164979561 0.049939924728784418 -0.030795894589111989 0.077157108361851898 0.074287593956290629 -0.013530516359131675 0.080407997821866334 0.005049513336806412 0.073263732489818295 0.020160250717593413 -0.0092944880139834412 0.037248294299300676 0.050309055089548041 0.087301725773262159 0.039628767481068458 0.070010985994764699 0.080700214541423787 0.079096073980689643 0.040640912574485544 0.064192077808425257
leaf_weight=226.20421030372381 7.8112460970878628 11.131369933485987 5.7626750916242591 4.8592810481786755 7.7570191621780378 6.1955170780420303 5.2361302226781827 5.1178254485130301 6.4618268013000488 8.5534093976020866 4.1564938277006132 8.1988236755132657 6.9009135961532584 5.717092514038085 33.615462869405746 4.9044703692197826 5.6630062013864526 5.441241592168808 2.8527012914419165 5.657342612743375 4.8570633828640011 17.469629555940628 5.8966025859117508 7.9237786233425123 6.4232827872037914 20.56959143280983 7.7417854070663434 7.0400139987468719
leaf_count=2054 32 46 25 25 35 31 22 23 27 35 22 34 28 24 143 20 23 25 17 23 20 72 24 33 27 88 32 29
internal_value=-0.00106293 0.0549856 0.0400001 0.0108261 0.00179015 0.0227239 0.0529654 0.0582651 0.0230171 0.0448166 -0.018087 0.051538 0.0410656 0.0242471 0.0691013 0.0578411 0.0411607 -0.00148176 -0.0566451 0.0561866 0.0732904 0.0797373 0.0682804 0.0577851 0.0751004 0.0705282 0.0616501 0.0525494
internal_weight=456.12 227.063 110.496 34.1722 28.4096 13.9525 76.324 64.626 11.698 34.4881 14.457 29.3702 21.1714 14.2705 116.567 41.1766 16.2248 9.59774 229.057 11.3203 30.1379 22.3267 24.9518 13.8204 75.3901 41.7747 21.2051 14.7818
internal_count=3039 968 480 163 138 66 317 268 49 144 72 121 87 59 488 169 66 47 2071 46 124 92 103 57 319 176 88 61
is_linear=0
shrinkage=0.05


Tree=15
num_leaves=28
num_cat=0
split_feature=0 0 2 6 13 7 2 13 2 5 15 7 10 1 3 7 13 3 18 0 15 15 13 0 7 7 14
split_gain=535.417 24.7253 18.3755 6.26119 4.94222 4.00597 3.58567 3.60124 2.74109 5.88516 2.4134 2.50786 2.05359 1.99278 3.13544 1.81608 1.88201 3.28739 1.59848 1.24376 0.979766 0.457339 0.455459 1.22696 1.33819 1.78343 1.71427
threshold=0.030330882352941155 0.24264705882352941 4.5000000000000009 -0.81153143163841779 -0.46420179249159199 1.7812142430619615 28.500000000000004 0.2640764684145272 8.5000000000000018 0.2799530109443843 610.50000000000011 1.4638844699858193 0.55117715504990239 0.19090909090909094 8.5000000000000018 1.1898087647013955 -0.2864437637542403 11.500000000000002 -0.74748371732668273 0.093073593073593072 1448.0000000000002 46.500000000000007 -0.25001370263219586 0.45000000000000007 -0.20301556074058899 1.4533331366230717 4.5000000000000009
decision_type=2 2 2 2 2 2 2 2 2 2 2 2 2 2 2 2 2 2 2 2 2 2 2 2 2 2 2
left_child=20 2 5 4 -4 18 7 10 22 15 11 12 13 14 -5 16 17 -10 -2 -20 -1 -17 23 24 -3 26 -26
right_child=1 8 3 6 -6 -7 -8 -9 9 -11 -12 -13 -14 -15 -16 21 -18 -19 19 -21 -22 -23 -24 -25 25 -27 -28
leaf_value=-0.056854715580533226 0.042094476028541931 0.082403471280736565 0.0018815749277507647 -0.014834475116687321 0.068871075042617927 0.02985756287144057 -0.030662206399625996 -0.030821648342053871 0.019376626937328927 0.018014088235064781 -0.012662098418231644 -0.0054024585860908041 0.059159277013937001 0.046038010788444231 0.033435485429339912 0.064045415766446789 0.072538762269753157 0.070653308154064356 0.053473675799543034 0.085771783592368769 -0.02284274120896343 0.088443981261389817 0.077489247780473391 0.075009429809481942 0.061950106712134335 0.069689333188579825 0.023700236778266687
leaf_weight=215.97969450801611 5.1229814738035193 5.5412334352731731 4.3780999928712836 6.2163621336221784 8.1411502957344037 8.6293170005083066 5.6527653634548178 4.3169061988592139 8.3521300256252271 9.1315054148435575 5.5836522728204718 6.0980940908193579 4.8616164475679389 5.8382422626018515 6.9170921742916107 8.1642044484615344 8.4666255265474337 5.41778440773487 5.8555157929658952 15.213136062026022 2.8192873373627654 8.4525185078382474 33.82518307864666 30.277373507618904 5.239513665437701 9.1759732216596586 8.5098366588354093
leaf_count=2043 21 23 19 28 34 36 32 20 35 38 26 28 20 24 31 34 36 23 24 63 21 35 146 131 22 38 35
internal_value=-0.000260887 0.0523981 0.0322114 0.0148157 0.046041 0.0609203 0.00602943 0.0114255 0.0656619 0.0551534 0.0167732 0.0224547 0.029784 0.0217235 0.0102709 0.063685 0.0530537 0.0402759 0.0708118 0.0773265 -0.0564499 0.0772103 0.0709898 0.067037 0.0581495 0.0517376 0.0389793
internal_weight=452.178 233.379 92.8249 58.004 12.5193 34.821 45.4847 39.832 140.554 47.9848 35.5151 29.9314 23.8333 18.9717 13.1335 38.8533 22.2365 13.7699 26.1916 21.0687 218.799 16.6167 92.5691 58.7439 28.4666 22.9253 13.7494
internal_count=3066 1002 406 262 53 144 209 177 596 201 157 131 103 83 59 163 94 58 108 87 2064 69 395 249 118 95 57
is_linear=0
shrinkage=0.05


Tree=16
num_leaves=31
num_cat=0
split_feature=0 0 15 16 4 16 15 1 18 7 7 7 13 0 13 5 7 10 1 4 12 12 15 12 3 1 14 12 14 7
split_gain=497.648 23.3216 9.19739 7.04841 8.48615 3.69544 3.07421 3.44183 3.05749 3.99355 3.33641 2.80933 2.80353 2.71674 4.25193 5.23012 2.18717 1.7143 1.69353 1.63449 1.4317 4.41942 0.994501 0.892665 1.20177 0.370453 0.785088 0.864625 0.959729 0.239432
threshold=0.030330882352941155 0.24264705882352941 1095.5000000000002 1.5000000000000002 0.37689393939393945 2.5000000000000004 243.00000000000003 0.13961038961038957 -0.010451199211811949 1.7812142430619615 0.90398334025685723 1.0529706272656651 -0.47686188465457197 0.45000000000000007 -0.52388508411706913 -0.058731400897423194 1.0375477968512767 0.55117715504990239 0.15587044534412953 0.31142241379310348 -0.41831205256814502 -0.14189595819708717 1448.0000000000002 0.6028015195790567 11.500000000000002 0.70833333333333337 4.5000000000000009 -1.0719548169044109 7.5000000000000009 0.65013767486332841
decision_type=2 2 2 2 2 2 2 2 2 2 2 2 2 2 2 2 2 2 2 2 2 2 2 2 2 2 2 2 2 2
left_child=22 2 3 6 5 12 7 -2 9 10 17 -9 -5 14 15 -3 -10 -6 -7 -16 -21 -22 -1 -23 -25 26 -15 -28 -29 -14
right_child=1 13 -4 4 8 18 -8 11 16 -11 -12 -13 29 25 19 -17 -18 -19 -20 20 21 23 -24 24 -26 -27 27 28 -30 -31
leaf_value=-0.056472378955995363 0.0081828091279837582 0.058612259321097315 -0.024856619981762442 0.028338376126556819 -0.0074375591631291238 0.009400713560837673 0.083655210854110804 0.083054635162001886 -0.040384631885086592 -0.017193547727783687 0.052710256753348041 0.029239742673091065 0.064233323398446382 0.074551468137496177 0.07635942298323789 -0.0036530839627214352 0.0067298288819454787 0.033094740185432778 0.047983673506945601 0.071713039911303164 0.0065713137741728713 0.044698023018704569 -0.022062862915166803 0.047611363242676882 0.088140578850298176 0.075096864943057423 0.076784969654137503 0.029925685584064939 0.059290684064831345 0.091464737687831671
leaf_weight=206.80257818102837 4.9609750062227276 6.8486907035112381 6.7271384447813025 4.6256771087646493 5.8335049897432381 7.5219036787748337 8.2994128912687284 6.0049146264791471 4.3792514503002149 5.7742289006710044 8.527513921260832 4.9084471613168716 5.6891357451677305 15.405749469995497 15.883308947086332 6.2563946694135648 5.0990058034658432 4.3865607976913452 5.0004526525735855 10.458017632365221 5.5018356889486304 9.1846273839473813 2.7776108011603347 4.7189105302095395 5.3072625249624252 39.301149323582649 4.8693230897188178 5.8760496377944973 8.9898184835910779 4.8083355724811554
leaf_count=2043 21 29 31 20 27 34 34 25 21 28 37 21 24 67 67 26 23 19 21 44 23 38 21 20 22 176 21 25 38 20
internal_value=-0.000255986 0.0503137 0.0307207 0.0351593 0.0259664 0.0465338 0.0581927 0.044127 0.00900895 0.0184028 0.0296648 0.0597898 0.0633715 0.0633287 0.05516 0.0287055 -0.0147109 0.00962695 0.0254619 0.0617836 0.0548614 0.0472683 -0.0560509 0.0585703 0.0702175 0.0702184 0.0644229 0.0559283 0.0482952 0.0779238
internal_weight=440.728 231.148 92.5465 85.8193 61.6456 27.6455 24.1737 15.8743 34.0001 24.5218 18.7476 10.9134 15.1231 138.601 64.159 13.1051 9.47826 10.2201 12.5224 51.054 35.1707 24.7126 209.58 19.2108 10.0262 74.4421 35.1409 19.7352 14.8659 10.4975
internal_count=3066 1002 406 375 274 119 101 67 155 111 83 46 64 596 269 55 44 46 55 214 147 103 2064 80 42 327 151 84 63 44
is_linear=0
shrinkage=0.05


Tree=17
num_leaves=30
num_cat=0
split_feature=0 0 2 15 4 16 2 13 13 7 2 5 4 4 6 7 13 3 18 12 0 15 0 13 7 7 14 15 14
split_gain=462.919 22.1391 16.3458 5.67672 5.31668 4.99474 4.96836 5.04306 5.56231 3.72925 2.97932 5.29938 2.96889 2.95872 2.6634 1.74064 1.71523 3.13384 1.45421 1.33801 1.26091 1.00956 0.498286 1.31035 1.2862 1.62567 1.62144 0.465209 0.0153443
threshold=0.030330882352941155 0.24264705882352941 4.5000000000000009 1095.5000000000002 0.20156250000000003 1.5000000000000002 26.500000000000004 -0.44333847734545656 0.15510924658316363 1.7812142430619615 8.5000000000000018 0.2799530109443843 0.094494047619047616 0.6014705882352942 -0.0034248434181059495 1.1898087647013955 -0.2864437637542403 11.500000000000002 -0.74748371732668273 0.04996933083694096 0.093073593073593072 1448.0000000000002 0.45000000000000007 -0.25001370263219586 -0.20301556074058899 1.4533331366230717 4.5000000000000009 46.500000000000007 9.5000000000000018
decision_type=2 2 2 2 2 2 2 2 2 2 2 2 2 2 2 2 2 2 2 2 2 2 2 2 2 2 2 2 2
left_child=21 2 9 4 12 13 7 19 14 18 22 15 -4 -6 -9 16 17 -12 -2 -7 -20 -1 23 24 -3 26 -26 -17 -24
right_child=1 10 3 -5 5 6 -8 8 -10 -11 11 -13 -14 -15 -16 27 -18 -19 20 -21 -22 -23 28 -25 25 -27 -28 -29 -30
leaf_value=-0.056113193110310135 0.038777396982903244 0.077970867088024698 0.021062927537224337 -0.040028207909836598 0.066213195003045289 -0.0013168087666004646 -0.045091777356665835 0.070778672346985788 -0.021714935233254788 0.026775961378009795 0.015666660618949644 0.015068697742496832 0.074251073092468964 0.010925558658550249 0.021597579339480255 0.058870969189092362 0.066897755474604789 0.065839485865298114 0.049006848594153302 -0.038349472277743553 0.081165912275011659 -0.021302098678243619 0.072842457310043157 0.077128142598078431 0.058051333351437945 0.06503588969240684 0.020599848635697755 0.082991118846864165 0.057812267132144504
leaf_weight=197.94462624192238 5.0741778612136832 5.3796293139457729 5.7585549950599653 4.5104228109121314 5.1104488372802717 5.5473913699388486 5.1375959813594809 5.0265453159809121 4.4194352626800528 8.6548593640327436 8.3240179419517499 9.10128006339073 5.5327305346727371 5.0802675932645798 7.1443554311990818 7.9880116283893612 8.3192212134599703 5.3372999131679526 5.8492172062397065 4.7216223627328873 14.807145789265631 2.7375765219330779 44.098546609282494 10.975496113300322 5.1023819744586971 8.9533588290214521 8.4081715643405897 8.2407970130443555 6.2497451603412619
leaf_count=2043 21 23 25 22 21 25 30 21 20 36 35 38 23 22 32 34 36 23 24 21 63 21 201 48 22 38 35 35 28
internal_value=-0.000246903 0.0483387 0.0292827 0.0129342 0.0175608 0.00920489 -0.000384596 0.00811697 0.0252344 0.0565911 0.0611693 0.0503095 0.0479871 0.0395111 0.042728 0.0585119 0.0481506 0.0359679 0.0662838 -0.019032 0.0725804 -0.0556741 0.0668125 0.0608327 0.0539773 0.0476897 0.0354337 0.0718583 0.0711942
internal_weight=429.535 228.853 92.3748 57.9894 53.4789 42.1877 31.9969 26.8593 16.5903 34.3854 136.478 47.3106 11.2913 10.1907 12.1709 38.2093 21.9805 13.6613 25.7305 10.269 20.6564 200.682 89.1673 38.819 27.8435 22.4639 13.5106 16.2288 50.3483
internal_count=3066 1002 406 262 240 192 149 119 73 144 596 201 48 43 53 163 94 58 108 46 87 2064 395 166 118 95 57 69 229
is_linear=0
shrinkage=0.05


Tree=18
num_leaves=29
num_cat=0
split_feature=0 0 2 6 2 2 6 18 7 4 5 2 5 13 7 13 3 14 18 18 15 0 13 7 7 14 15 14
split_gain=431.215 20.9503 15.0902 5.48754 4.52521 3.91404 4.07982 3.63183 3.52718 3.48042 3.43511 3.01714 4.9136 2.90903 1.66493 1.59001 2.87214 1.49721 1.3687 1.32214 1.02485 0.551446 1.27689 1.22657 1.51239 1.51567 0.441809 0.0233235
threshold=0.030330882352941155 0.24264705882352941 13.500000000000002 -0.51221996780958146 4.5000000000000009 6.5000000000000009 0.91973281034743493 -0.021204826200109796 1.7812142430619615 0.51538825757575768 0.24829460577149542 8.5000000000000018 0.2799530109443843 -0.49714386903812152 1.1898087647013955 -0.2864437637542403 11.500000000000002 7.5000000000000009 -0.74748371732668273 0.26982967162016824 1448.0000000000002 0.45000000000000007 -0.25001370263219586 -0.20301556074058899 1.4533331366230717 4.5000000000000009 46.500000000000007 9.5000000000000018
decision_type=2 2 2 2 2 2 2 2 2 2 2 2 2 2 2 2 2 2 2 2 2 2 2 2 2 2 2 2
left_child=20 2 4 13 8 -6 17 9 18 -5 -11 21 14 -4 15 16 -13 -7 -2 -20 -1 22 23 -3 25 -25 -16 -23
right_child=1 11 3 7 5 6 -8 -9 -10 10 -12 12 -14 -15 26 -17 -18 -19 19 -21 -22 27 -24 24 -26 -27 -28 -29
leaf_value=-0.055775481944201857 0.037076088686671914 0.075700026580115154 -0.00061831638341541101 -0.06131262501878959 -0.012754715809404231 0.030728203295231585 -0.0030744293405652627 0.015071154125359962 0.025391541035245008 0.022870172459508124 -0.04205120166717511 0.014905269895519199 0.014326046341130931 0.052193609852803996 0.056656909553389347 0.064276553922661392 0.063097063243189963 0.061623725112912142 0.078672821549583632 0.045804030996913145 -0.020560260578953046 0.071108975661835272 0.075043901964101628 0.056085983432223221 0.062758176689425835 0.019650379900327707 0.080350441278162571 0.056060818792327619
leaf_weight=189.4025277197361 5.046951323747634 5.2697318196296719 4.5084055364131927 5.6166834533214587 4.965402469038966 9.4285596162080818 5.1739728450775138 5.8341211825609198 8.6753111183643323 3.9452579170465469 3.9252212345600128 8.3170516937971097 9.099651947617529 5.5329333096742648 7.8915275931358329 8.2318450808525103 5.2961935102939597 8.8855636715888959 14.68201488256455 5.6793507784605017 2.6991385072469702 42.946538954973221 10.725412935018538 5.0226583331823376 8.821374759078024 8.3792982250452024 8.0930493324995023 6.1289584189653388
leaf_count=2043 21 23 20 29 21 39 23 28 36 19 22 35 38 24 34 36 23 37 63 24 21 201 48 22 38 35 35 28
internal_value=-0.000237978 0.0465363 0.0279929 -0.00141423 0.0418602 0.0266411 0.0352002 -0.0171369 0.054304 -0.0314455 -0.00900192 0.0591651 0.0482544 0.0282166 0.0562245 0.0460916 0.0343422 0.0462427 0.0638415 0.0700178 -0.0553177 0.0649116 0.0587886 0.052017 0.0458632 0.0339899 0.0693889 0.0694491
internal_weight=418.225 226.123 91.8997 29.3626 62.5371 28.4535 23.4881 19.3213 34.0836 13.4872 7.87048 134.223 46.9293 10.0413 37.8297 21.8451 13.6132 18.3141 25.4083 20.3614 192.102 87.294 38.2185 27.4931 22.2233 13.402 15.9846 49.0755
internal_count=3066 1002 406 142 264 120 99 98 144 70 41 596 201 44 163 94 58 76 108 87 2064 395 166 118 95 57 69 229
is_linear=0
shrinkage=0.05


Tree=19
num_leaves=30
num_cat=0
split_feature=0 0 2 15 4 7 2 7 1 2 4 10 4 4 11 4 14 7 13 7 15 0 13 15 13 2 15 15 3
split_gain=401.943 19.9183 13.8143 5.12814 4.59219 4.61409 6.70362 3.33962 3.12847 3.33646 2.6269 2.47794 2.32619 6.96018 5.92994 2.20062 2.78827 2.67924 2.97193 1.91914 1.71567 1.16549 1.41269 1.04029 0.961329 0.802894 0.579416 0.943529 0.628146
threshold=0.030330882352941155 0.24264705882352941 4.5000000000000009 1095.5000000000002 0.20156250000000003 -1.1770570859576182 26.500000000000004 1.7812142430619615 0.70833333333333337 23.500000000000004 0.094494047619047616 0.1291944888922367 0.58198924731182811 0.75782013685239502 3.9656762387654578 0.4841229838709678 4.5000000000000009 0.021398639091079853 -0.4209895391393797 0.99246318355090157 33.500000000000007 0.12916666666666668 -0.40174103166709374 1448.0000000000002 -0.40994425465024914 4.5000000000000009 33.500000000000007 50.500000000000007 6.5000000000000009
decision_type=2 2 2 2 2 2 2 2 2 2 2 2 2 2 2 2 2 2 2 2 2 2 2 2 2 2 2 2 2
left_child=23 2 7 4 10 -6 11 21 9 15 -4 -7 14 -14 -13 26 24 -18 19 -19 -20 22 -2 -1 -17 -26 -3 -28 -29
right_child=1 8 3 -5 5 6 -8 -9 -10 -11 -12 12 13 -15 -16 16 17 18 20 -21 -22 -23 -24 -25 25 -27 27 28 -30
leaf_value=-0.055457730272483165 0.027897444068417567 0.072346858161732211 0.019103719686012013 -0.038973440340435386 -0.038940942397442925 -0.0027003174884876213 -0.037370532362524023 0.024089017167092559 0.070369749941151832 0.021777840913873886 0.069225068096344294 0.014234364759142951 -0.021166623025881431 0.051388407365471803 0.085349823340757275 0.079485198359915993 0.065244890374079823 0.027680880281779004 0.02163851835727465 -0.015851594833211188 0.064737935578912942 0.074990000562386014 0.063418813575622499 -0.019837179845668296 0.063904496810371927 0.033191649050871908 0.032654659545812474 0.070880287476073153 0.046998696104255805
leaf_weight=181.17196606844664 5.5292809605598441 18.494986489415169 5.7658323347568494 4.4459428340196601 4.456880494952201 7.0677240639924994 5.2568927034735671 8.6921293437480909 36.374582633376122 8.907218784093855 5.5059077143669128 6.9583477824926394 6.5105242133140546 6.4164352267980576 5.3084243535995483 6.674862906336787 6.0701385289430645 4.9900259524583834 5.0295005440711957 4.8195887058973312 5.3994208872318268 11.134281948208807 8.4063734859228152 2.6622498482465735 6.6659968048334104 5.1104214042425156 4.5304865241050747 11.513458952307703 7.274970903992652
leaf_count=2043 23 84 25 22 19 32 31 36 176 38 23 31 29 28 22 29 26 21 22 20 23 50 35 21 31 22 20 52 32
internal_value=-0.000229636 0.0448242 0.0267462 0.0117314 0.0161239 0.00831919 0.0141548 0.0521456 0.0572955 0.0521939 0.0444196 0.0227947 0.0301271 0.0145811 0.0458551 0.0552369 0.0468418 0.035689 0.0263013 0.00584413 0.0448304 0.0615403 0.0499803 -0.0549801 0.0621963 0.0513892 0.063971 0.0568338 0.0621957
internal_weight=407.145 223.311 91.455 57.6929 53.247 41.9752 37.5183 33.7621 131.856 95.4811 11.2717 32.2615 25.1937 12.927 12.2668 86.5739 44.76 26.3087 20.2385 9.80961 10.4289 25.0699 13.9357 183.834 18.4513 11.7764 41.8139 23.3189 18.7884
internal_count=3066 1002 406 262 240 192 173 144 596 420 48 142 110 57 53 382 194 112 86 41 45 108 58 2064 82 53 188 104 84
is_linear=0
shrinkage=0.05


Tree=20
num_leaves=31
num_cat=0
split_feature=0 1 2 14 1 3 6 15 7 2 10 10 15 15 0 1 13 6 0 15 15 13 15 3 12 13 6 7 3 6
split_gain=374.16 17.646 9.67398 6.14464 5.8522 5.40074 4.94708 4.28539 3.99415 4.32725 2.88222 2.63104 4.69551 5.59349 2.41759 2.37682 1.7041 1.59595 1.58995 1.57437 1.29701 1.25397 0.909433 0.896627 1.26578 0.422118 0.365577 0.840485 1.82117 0.0919487
threshold=1.0000000180025095e-35 0.26136363636363641 23.500000000000004 14.500000000000002 0.095454545454545472 9.5000000000000018 -0.6860336743590939 121.50000000000001 2.033159825217759 3.5000000000000004 0.62324310865692312 0.16240183038313241 243.00000000000003 117.50000000000001 0.45000000000000007 0.35416666666666669 0.68101980980246501 0.3328624108906188 0.082207207207207159 227.50000000000003 32.500000000000007 -0.46420179249159199 224.50000000000003 13.500000000000002 -0.14189595819708717 -0.47221123855388542 0.049770810543666506 1.417555275086922 9.5000000000000018 -0.89324930316367313
decision_type=2 2 2 2 2 2 2 2 2 2 2 2 2 2 2 2 2 2 2 2 2 2 2 2 2 2 2 2 2 2
left_child=-1 2 3 6 -4 -6 18 -5 9 22 -10 19 13 17 15 16 20 -13 -2 -11 -3 -20 25 24 -22 -8 29 28 -28 -16
right_child=1 14 4 7 5 -7 8 -9 10 11 -12 12 -14 -15 26 -17 -18 -19 21 -21 23 -23 -24 -25 -26 -27 27 -29 -30 -31
leaf_value=-0.055117037712628963 0.030042228898704022 0.034795239344667259 -0.060385547098234918 0.036758290092326597 0.040182463753686691 -0.033129925232006328 0.045684755186612053 -0.02539855860275176 -0.01188988118576139 0.023857090450635846 0.03492099686259411 0.062069353592222092 0.06609916326987815 -0.011481037935331196 0.060166889162258777 0.014933989716158136 0.02211298803396813 0.019957190738812837 0.04561392294149276 -0.015976579414447269 0.036236511001968445 0.078294445277788685 0.036752249548798459 0.077675348361329111 0.067718861384882395 0.071287726654413727 0.068141775159656109 0.073644082010967643 0.022767842237609946 0.070657855602140468
leaf_weight=172.56021109968424 4.3613779246807125 6.902043059468272 3.9280391633510581 4.5713380724191648 6.1397181004285795 4.0555429458618164 4.5686107724905023 6.7234253138303757 7.8311765938997251 4.9938664585351926 5.4291088432073593 5.755771636962896 8.4955544173717481 7.6611536741256705 20.083923354744908 5.4367758929729453 4.837131828069686 4.591760128736496 6.0824923515319869 4.6345521509647369 7.5126778185367593 11.096069514751431 5.8826586157083502 8.3923453688621503 8.3920813649892807 10.045169770717621 4.3322490304708463 4.5427499264478675 5.6837711930274963 30.561868175864223
leaf_count=2041 20 31 25 20 29 22 20 29 34 21 23 24 39 33 98 23 21 20 26 21 33 48 25 36 37 45 21 21 26 148
internal_value=0.000161874 0.0428648 0.0293128 0.0346537 -0.00915265 0.0104955 0.0389474 0 0.0322506 0.0380479 0.0070194 0.0272416 0.035376 0.0203213 0.0576207 0.0474123 0.0521191 0.0442304 0.0601955 0.00420242 0.056526 0.0673434 0.0566305 0.0623261 0.0534798 0.0639883 0.0639545 0.0535936 0.0433674 0.0667229
internal_weight=396.085 223.525 116.847 102.724 14.1233 10.1953 91.4293 11.2948 69.8894 56.6291 13.2603 36.1327 26.5042 18.0087 106.678 41.4731 36.0363 10.3475 21.5399 9.62842 31.1991 17.1786 20.4964 24.2971 15.9048 14.6138 65.2046 14.5588 10.016 50.6458
internal_count=3060 1019 524 448 76 51 399 49 305 248 57 158 116 77 495 181 158 44 94 42 137 74 90 106 70 65 314 68 47 246
is_linear=0
shrinkage=0.05


Tree=21
num_leaves=31
num_cat=0
split_feature=0 0 2 7 0 14 16 4 5 7 18 2 4 6 7 14 0 15 2 2 0 11 6 13 12 3 0 6 6 4
split_gain=349.224 15.8148 10.8165 5.94108 4.92691 4.76839 9.16417 5.07225 4.6273 4.57167 3.35128 2.71144 2.55321 2.43864 2.49541 3.09633 2.7591 2.42921 1.90432 3.34914 2.08217 1.48682 2.23285 0.963545 0.849142 0.605143 0.378079 0.836057 0.847249 0.265655
threshold=1.0000000180025095e-35 0.45000000000000007 23.500000000000004 1.146354614650362 0.12916666666666668 14.500000000000002 1.5000000000000002 0.45080645161290328 -0.46802573358899263 2.033159825217759 -0.78453685755790381 4.5000000000000009 0.80707196029776684 -0.59166980757677667 0.91215648630197721 4.5000000000000009 0.16025641025641021 32.500000000000007 17.500000000000004 13.500000000000002 0.070197044334975353 3.0730152425176596 -0.50740899135309037 -0.39127707794054906 -0.14189595819708717 14.500000000000002 0.70833333333333337 0.049770810543666506 -0.88122186202244546 0.24642857142857141
decision_type=2 2 2 2 2 2 2 2 2 2 2 2 2 2 2 2 2 2 2 2 2 2 2 2 2 2 2 2 2 2
left_child=-1 2 5 4 -4 7 -7 10 -8 11 -2 17 -11 -13 16 -16 -15 -9 19 20 -12 24 -23 25 29 -19 27 28 -3 -22
right_child=1 26 3 -5 -6 6 8 9 -10 12 18 13 -14 14 15 -17 -18 23 -20 -21 21 22 -24 -25 -26 -27 -28 -29 -30 -31
leaf_value=-0.054837143802407742 0.0094124580890080339 0.046567231708824222 -0.023984133786248394 -0.045830193581306737 0.04037403658900271 0.065774562610655507 0.016565678846717374 0.019282094781880504 -0.050585084635320514 -0.026515608076577837 0.020455644451476088 0.060135884944521559 0.020768918014365218 -0.028974070058798287 0.0631018171495039 0.013502429022213897 0.020884665995119043 0.032238588420316697 0.082821946097413751 0.010156062750114617 0.041364668026133616 0.015011782813283723 0.060043345831574772 0.071338211519549208 0.077645535931485946 0.059979633369092733 0.067758087609073134 0.04028163892438482 0.070595866522903034 0.065659945422190849
leaf_weight=164.96145256608725 4.6119549274444571 8.4737321138381976 4.6468937620520609 5.6429311856627455 7.6355214715003967 4.862484708428382 4.9024450629949561 5.9222464710474041 5.0343071222305289 4.4761065840721113 4.2603059262037268 4.5778552293777457 7.4085657596588135 4.2323753833770805 5.5283940285444251 8.0668879747390729 7.5382588058710098 6.1306516975164449 6.380433738231658 4.7693528085947028 5.2223792672157252 4.680301994085311 8.4622626304626447 8.9101851731538737 13.551589310169224 5.0479509979486465 32.145867988467216 8.3535600751638395 14.536403000354769 4.6531872600317001
leaf_count=2041 20 41 27 31 34 21 21 27 22 20 19 19 32 20 24 36 31 27 27 21 23 21 38 40 61 22 165 38 70 21
internal_value=0.000163295 0.0413085 0.0326953 -0.00359136 0.0156241 0.0374021 0.0100377 0.0406059 -0.0171221 0.0311141 0.051821 0.0370935 0.00247037 0.0263195 0.0198081 0.0343501 0.00244266 0.0491567 0.0554624 0.0513519 0.0560053 0.0599433 0.0446188 0.057577 0.0681016 0.0456297 0.0624586 0.05667 0.0622032 0.0538568
internal_weight=385.627 220.665 157.156 17.9253 12.2824 139.23 14.7992 124.431 9.93675 67.8395 56.5918 55.9548 11.8847 29.9438 25.3659 13.5953 11.7706 26.011 51.9798 45.5994 40.83 36.5697 13.1426 20.0888 23.4272 11.1786 63.5096 31.3637 23.0101 9.87557
internal_count=3060 1019 705 92 61 613 64 549 43 298 251 246 52 130 111 60 51 116 231 204 183 164 59 89 105 49 314 149 111 44
is_linear=0
shrinkage=0.05


Tree=22
num_leaves=31
num_cat=0
split_feature=0 0 2 7 4 14 16 4 5 7 15 18 4 0 13 5 12 17 14 0 2 2 0 11 6 18 12 0 6 6
split_gain=326.198 15.4135 9.90282 5.45087 4.83646 4.37822 8.3412 4.74741 4.2194 4.20141 3.65337 3.11791 2.73817 4.33959 4.4773 4.05135 3.1618 2.50994 2.43662 2.0379 1.65974 3.14212 1.99411 1.41585 2.08808 1.0766 0.82061 0.419101 0.829309 0.828537
threshold=1.0000000180025095e-35 0.45000000000000007 23.500000000000004 1.146354614650362 0.21807065217391303 14.500000000000002 1.5000000000000002 0.45080645161290328 -0.46802573358899263 2.033159825217759 205.50000000000003 -0.78453685755790381 0.75357142857142867 0.093073593073593072 -0.44333847734545656 -0.030518552727149095 0.04996933083694096 1.0000000180025095e-35 6.5000000000000009 0.24264705882352941 17.500000000000004 13.500000000000002 0.070197044334975353 3.0730152425176596 -0.50740899135309037 -0.71699608909496793 -0.14189595819708717 0.70833333333333337 0.049770810543666506 -0.88122186202244546
decision_type=2 2 2 2 2 2 2 2 2 2 2 2 2 2 2 2 2 2 2 2 2 2 2 2 2 2 2 2 2 2
left_child=-1 2 5 4 -4 7 -7 11 -8 12 -6 -2 13 15 16 -9 -15 -14 -11 -19 21 22 -13 26 -25 -16 -24 28 29 -3
right_child=1 27 3 -5 10 6 8 9 -10 18 -12 20 17 14 25 -17 -18 19 -20 -21 -22 -23 23 24 -26 -27 -28 -29 -30 -31
leaf_value=-0.054573231751974649 0.0089603032287795242 0.04514395574792613 0.057708013850784168 -0.04440485658484318 0.024930519877022939 0.062980800557811398 0.015749891496861654 0.035468775642124854 -0.04845993550728224 0.023377133428276436 -0.041315282849867796 0.019412154986779808 0.024086690914497642 0.036793310348978418 0.078739203733369317 -0.028218286253179122 -0.010452104984691292 0.082440528207135128 -0.021576759350912692 0.037151275335500354 0.079239414806560077 0.0096550236197333605 0.052034478689014875 0.014335762631372956 0.058119767393889646 0.044625206539757101 0.075607672430959297 0.066564469950331759 0.038791541150747039 0.069135169851010758
leaf_weight=157.65628926455975 4.6076092422008506 8.3111700564622897 4.2139235734939602 5.5387489274144164 4.0647481530904752 4.8295305371284476 4.9036995321512213 4.2702249735593796 4.9976468682289115 6.4320348203182203 3.9962009489536285 4.2699680030345908 6.3002547621726999 8.625471085309977 5.1389883160591125 5.7173379361629468 5.6762999594211569 7.2961014360189438 5.4556147009134293 4.9513178616762161 6.3409309685230246 4.7711531072854987 9.7277392596006358 4.6611717343330374 8.3123575598001462 7.5918046236038261 13.231797367334369 31.114140599966049 8.2473038434982282 14.114174395799639
leaf_count=2041 20 41 18 31 19 21 21 20 22 28 24 19 28 37 23 26 24 32 24 22 27 21 44 21 38 34 61 165 38 70
internal_value=0.000167071 0.0398376 0.031361 -0.00345247 0.0148318 0.0358868 0.00959093 0.0389756 -0.0163202 0.029778 -0.00740188 0.0499077 0.0355473 0.0272703 0.0376458 -0.000411277 0.0177523 0.0515647 0.0023214 0.0649854 0.0534626 0.0495496 0.0541244 0.0580452 0.0430013 0.0592919 0.0661057 0.0610626 0.055121 0.0607055
internal_weight=375.366 217.709 155.923 17.8136 12.2749 138.109 14.7309 123.378 9.90135 67.4555 8.06095 55.9227 55.5678 37.0201 27.0326 9.98756 14.3018 18.5477 11.8876 12.2474 51.3151 44.9742 40.203 35.9331 12.9735 12.7308 22.9595 61.7868 30.6726 22.4253
internal_count=3060 1019 705 92 61 613 64 549 43 298 43 251 246 164 118 46 61 82 52 54 231 204 183 164 59 57 105 314 149 111
is_linear=0
shrinkage=0.05


Tree=23
num_leaves=31
num_cat=0
split_feature=0 0 2 7 4 0 11 6 13 15 7 6 12 2 11 13 12 6 4 13 14 12 7 7 0 6 6 7 5 6
split_gain=304.892 15.0192 9.05545 5.00842 4.34653 4.10396 3.80409 3.65425 4.48369 3.35426 3.1555 3.68182 3.02149 2.6517 2.73646 4.07557 3.78182 3.13082 2.23285 2.18904 1.82759 1.46364 0.708644 0.930346 0.460011 0.824713 0.815582 0.365892 0.116105 0.0851668
threshold=1.0000000180025095e-35 0.45000000000000007 23.500000000000004 1.146354614650362 0.21807065217391303 0.10263157894736842 3.9656762387654578 -0.095451950207270736 -0.09634860438867858 205.50000000000003 2.8271025391463085 0.16605898432056451 0.83694221128159973 2.5000000000000004 3.9656762387654578 -0.5212367995319559 0.57028197906481448 -0.1811560593679041 0.50714285714285723 0.047433870890879706 7.5000000000000009 -0.41831205256814502 1.3910396027163328 0.69256738869048406 0.70833333333333337 0.049770810543666506 -0.88122186202244546 0.35180172785746017 -0.33856465809884295 -0.04617380564578364
decision_type=2 2 2 2 2 2 2 2 2 2 2 2 2 2 2 2 2 2 2 2 2 2 2 2 2 2 2 2 2 2
left_child=-1 2 5 4 -4 6 7 -2 -9 -6 13 -12 18 22 15 21 17 -16 -8 20 27 -15 23 29 25 26 28 -17 -3 -7
right_child=1 24 3 -5 9 10 12 8 -10 -11 11 -13 -14 14 16 19 -18 -19 -20 -21 -22 -23 -24 -25 -26 -27 -28 -29 -30 -31
leaf_value=-0.05432422805114534 0.030762380109752459 0.053108852167832135 0.054600538857964745 -0.043026995821692282 0.023575661978106163 0.06885009409977709 0.039035473484996419 -0.039715879658752451 0.023501487162800892 -0.040127133724030269 0.035506856992338208 -0.018112673215598962 0.058876693688724439 -0.0017426935624859402 0.0077806652467642436 0.053129236624598043 -0.0055742876676974536 0.058125948421842169 -0.0091980731153867273 0.025074206104947185 0.040491918798884863 0.035088440463797298 0.073731483056312067 0.035193334858092583 0.065466299694893426 0.03736321713282053 0.067796575806788301 0.078352364046843856 0.032239842443714938 0.047447394099027415
leaf_weight=150.63775502890348 7.5157798975706127 4.0659735202789307 4.2361409068107632 5.43615399301052 4.0885402560234052 6.3291948586702382 4.8572760522365588 6.7673599272966394 4.5557183474302265 3.9138792306184769 8.9652040153741819 4.7346283197402945 8.0968376249074918 5.0142892897129059 5.5149852782487878 4.6754658371210196 7.6016934961080542 7.8590188324451455 4.3371407985687256 6.0318745821714392 8.8328997194766981 5.1657243072986549 6.8147424459457389 7.8136454522609702 30.082109525799751 8.1410185992717725 13.686039790511133 11.176512107253073 4.0837969332933444 4.2525591701269168
leaf_count=2041 33 21 18 31 19 31 21 32 20 24 40 20 36 21 25 20 33 34 21 27 39 22 32 37 165 38 70 49 20 20
internal_value=0.0001701 0.0384447 0.0301011 -0.00330617 0.0141376 0.0344496 0.0196315 0.0037464 -0.0138603 -0.00707417 0.0396875 0.0166168 0.0365298 0.0432364 0.0373062 0.0449688 0.0219866 0.0379482 0.0158909 0.0541173 0.0608826 0.01662 0.0573885 0.0506978 0.0597518 0.0536523 0.0592994 0.0716061 0.0437752 0.0612417
internal_weight=365.284 214.646 154.587 17.6747 12.2386 136.913 36.1301 18.8389 11.3231 8.00242 100.782 13.6998 17.2913 87.0826 61.8725 40.8968 20.9757 13.374 9.19442 30.7168 24.6849 10.18 25.2101 18.3954 60.0589 29.9768 21.8358 15.852 8.14977 10.5818
internal_count=3060 1019 705 92 61 613 163 85 52 43 450 60 78 390 270 178 92 59 42 135 108 43 120 88 314 149 111 69 41 51
is_linear=0
shrinkage=0.05


Tree=24
num_leaves=31
num_cat=0
split_feature=0 0 2 7 0 14 16 4 5 7 18 2 4 15 6 7 14 0 4 6 14 18 6 15 5 0 6 6 12 5
split_gain=285.09 14.6636 8.27446 4.60282 3.96565 3.95285 7.51426 4.32129 3.75031 3.60673 2.99591 2.61518 2.36186 2.24336 2.12658 2.2995 2.66086 2.26716 1.50775 2.58556 1.98145 2.73079 0.969669 0.885573 0.760745 0.498966 0.823376 0.802644 0.430063 0.114399
threshold=1.0000000180025095e-35 0.45000000000000007 23.500000000000004 1.146354614650362 0.12916666666666668 14.500000000000002 1.5000000000000002 0.45080645161290328 -0.46802573358899263 2.033159825217759 -0.78453685755790381 4.5000000000000009 0.80707196029776684 32.500000000000007 -0.59166980757677667 0.91215648630197721 4.5000000000000009 0.16025641025641021 0.33578431372549028 -0.87909128673457082 4.5000000000000009 -0.41873028012496777 0.34440875438619739 98.500000000000014 0.10702524407294801 0.70833333333333337 0.049770810543666506 -0.88122186202244546 0.22557484961384833 -0.33856465809884295
decision_type=2 2 2 2 2 2 2 2 2 2 2 2 2 2 2 2 2 2 2 2 2 2 2 2 2 2 2 2 2 2
left_child=-1 2 5 4 -4 7 -7 10 -8 11 -2 13 -11 -9 -13 17 -17 -16 19 -12 23 -22 24 -21 -15 26 27 29 -20 -3
right_child=1 25 3 -5 -6 6 8 9 -10 12 18 14 -14 22 15 16 -18 -19 28 20 21 -23 -24 -25 -26 -27 -28 -29 -30 -31
leaf_value=-0.054089147230177895 0.0064195935227014701 0.051830312457525111 -0.022792900344729548 -0.041693033025943863 0.03538839143657798 0.059183528763001203 0.013587488942942519 0.015709357056495468 -0.047029892482067903 -0.026332309669043454 0.063210267250183638 0.053976180492301809 0.019299129869175695 0.058656047170897452 -0.029115685111255514 0.056678738174249267 0.010696837994652483 0.016316942218421247 0.076688784158020315 0.029752754312947667 0.01824028187029798 0.062972298122406997 0.073167392629037389 -0.00055016458417192146 0.031624937649508002 0.06445347182614361 0.035991798692283361 0.066566163822832938 0.051588835707393935 0.031085776819354122
leaf_weight=143.89850341528654 4.5689161717891684 3.9630545377731323 4.5040894970297831 5.3353730589151374 7.6915645003318787 4.7521047890186301 4.900525137782096 5.7271261215209988 4.9545971453189841 4.4296122193336469 12.467883631587023 4.5030335485935202 7.418016329407692 6.2205225676298159 4.2131056785583549 5.5179957300424567 8.0680528879165632 7.4554574638605118 7.0462895631790143 4.434559524059301 6.2862726151943162 8.8979867994785327 5.3643515706062308 4.4745468646287918 7.6114454120397568 29.054700955748558 8.0352025628089887 13.254847869277002 6.4345685839653015 4.0287733525037792
leaf_count=2041 20 21 27 31 34 21 21 27 22 20 59 19 32 29 20 24 36 31 32 21 29 41 25 20 35 165 38 70 29 20
internal_value=0.000172746 0.0371027 0.0288852 -0.0031664 0.0134837 0.0330605 0.00798193 0.0360342 -0.0165515 0.0272214 0.0466095 0.0326374 0.00174227 0.0447965 0.0221702 0.0161113 0.0300155 0 0.0501591 0.0441864 0.0339147 0.0450209 0.053089 0.0141411 0.044474 0.0585222 0.0522675 0.0579911 0.0655445 0.0425041
internal_weight=355.513 211.615 153.278 17.531 12.1957 135.747 14.6072 121.14 9.85512 66.5287 54.611 54.6811 11.8476 24.9234 29.7576 25.2546 13.586 11.6686 50.0421 36.5612 24.0934 15.1843 19.1963 8.90911 13.832 58.3366 29.2819 21.2467 13.4809 7.99183
internal_count=3060 1019 705 92 61 613 64 549 43 298 251 246 52 116 130 111 60 51 231 170 111 70 89 41 64 314 149 111 61 41
is_linear=0
shrinkage=0.05


Tree=25
num_leaves=31
num_cat=0
split_feature=0 2 1 0 4 7 4 7 4 16 13 2 13 7 13 7 12 4 1 5 13 3 18 18 0 2 14 3 5 0
split_gain=275.969 14.307 6.09957 5.78189 4.1326 5.43482 5.58071 4.18467 3.33249 5.75731 4.39953 3.96674 4.63218 3.14999 3.69085 4.79561 2.5775 2.22597 2.1729 1.81411 1.34162 1.44911 1.28014 3.3848 2.26477 1.18026 0.834809 0.36498 0.362081 0.0491913
threshold=0.021054964539007053 9.5000000000000018 0.20714285714285713 0.26136363636363641 0.42752100840336132 2.033159825217759 0.75357142857142867 1.0598352224759779 0.20638945233265718 2.5000000000000004 -0.48028527692313283 26.500000000000004 -0.038021751209235094 0.42452237106052632 -0.50844752275506788 1.1079142380657812 -0.099620555528572532 0.29099462365591405 0.45000000000000007 -0.59308599062271294 -0.39127707794054906 4.5000000000000009 -0.60245852497062768 -0.17234562590676963 0.36666666666666675 12.500000000000002 6.5000000000000009 20.500000000000004 -0.15994475299153563 1.0000000180025095e-35
decision_type=2 2 2 2 2 2 2 2 2 2 2 2 2 2 2 2 2 2 2 2 2 2 2 2 2 2 2 2 2 2
left_child=29 2 4 8 17 6 7 26 10 11 -3 12 13 -10 -15 -16 18 19 -5 -2 21 -4 -23 24 -24 -20 -6 -22 -18 -1
right_child=1 3 20 16 5 -7 -8 -9 9 -11 -12 -13 -14 14 15 -17 28 -19 25 -21 27 22 23 -25 -26 -27 -28 -29 -30 -31
leaf_value=-0.053869359442710485 0.054050202880162594 0 0.065520615819653003 0.0078778812290877364 -0.020373153881330937 -0.02337003164189129 0.075805218929807738 0.048126208333865494 0.061220351191983574 -0.040839294736457088 0.060591846766450852 -0.025205388999889194 -0.026120832447159893 -0.015434425940641617 -0.0024374760539470249 0.058260562541390705 0.045202779604396878 0.078727235999051015 0.020291868649791756 0.015669508148176591 0.065026042689857039 0.05874378729070262 -0.0040432893371170594 0.060596140482744879 0.041880253371188711 0.058716940303893572 0.0091755037831353498 0.041537094494307078 0.074325505535370692 -0.031418926527905004
leaf_weight=139.72904021292925 8.2360560297966003 5.0952478796243668 10.094276547431944 8.1418828964233452 4.6173371821641975 5.583050772547721 5.2377130687236777 5.8578248620033255 5.606398910284045 6.0066047981381407 6.6477551311254484 5.8148849084973326 4.4858205169439342 5.5706211924552944 5.4252127707004529 7.4729121327400208 4.0590595453977585 5.430268168449401 4.0242814719676954 5.7598473578691491 38.987335622310638 7.8759355098009101 6.3814394772052783 6.6030271500349071 4.3152778595685959 5.7480759918689728 4.5055714398622513 3.7645560204982749 4.7464734464883787 1.8031853586435307
leaf_count=2075 38 22 55 35 20 24 24 26 24 31 29 34 21 24 24 33 20 24 20 26 214 39 29 34 23 30 20 19 23 11
internal_value=-0.000104296 0.0373721 0.0480426 0.0205891 0.0330364 0.0194851 0.0316218 0.0154421 0.0107265 0.00373736 0.0341044 0.0117673 0.0195309 0.0283167 0.0177832 0.0325227 0.0395312 0.0505869 0.0278668 0.038833 0.056624 0.0483845 0.0410838 0.0324651 0.0142364 0.0437657 -0.00529644 0.0631761 0.0621207 -0.053641
internal_weight=343.627 202.095 123.25 78.8452 45.2277 25.8015 20.2184 14.9807 52.1255 40.3825 11.743 34.3759 28.561 24.0751 18.4687 12.8981 26.7198 19.4262 17.9142 13.9959 78.0218 35.27 25.1757 17.2997 10.6967 9.77236 9.12291 42.7519 8.80553 141.532
internal_count=3071 985 615 370 202 114 90 66 242 191 51 160 126 105 81 57 128 88 85 64 413 180 125 86 52 50 40 233 43 2086
is_linear=0
shrinkage=0.05


Tree=26
num_leaves=30
num_cat=0
split_feature=0 2 1 0 6 18 13 14 1 3 5 7 5 0 11 13 12 1 13 3 6 3 0 2 9 3 3 5 0
split_gain=258.296 13.6371 6.02169 5.40469 4.02521 4.39255 4.24306 5.80342 4.20247 3.60923 2.72364 3.80847 4.62184 3.95555 2.71645 2.49893 2.4363 2.0428 1.34718 1.4394 1.46254 1.53133 2.03126 1.13107 1.12809 1.42867 0.374918 0.341339 0.0695352
threshold=0.021054964539007053 9.5000000000000018 0.20714285714285713 0.26136363636363641 -0.82445233983585087 0.059761748519480608 -0.038021751209235094 6.5000000000000009 0.13484848484848483 9.5000000000000018 -0.24269985568073257 1.9889705131162414 0.3001453861641209 0.11834733893557421 3.9656762387654578 -0.43700843126396655 -0.099620555528572532 0.45000000000000007 -0.39127707794054906 4.5000000000000009 0.057674557579330404 13.500000000000002 0.36666666666666675 12.500000000000002 0.11328534844353001 6.5000000000000009 20.500000000000004 -0.15994475299153563 1.0000000180025095e-35
decision_type=2 2 2 2 2 2 2 2 2 2 2 2 2 2 2 2 2 2 2 2 2 2 2 2 2 2 2 2 2
left_child=28 2 10 4 15 6 7 14 -7 -9 24 12 13 -12 -6 -3 17 -5 19 -4 21 22 -21 -19 -2 -26 -20 -18 -1
right_child=1 3 18 16 5 8 -8 9 -10 -11 11 -13 -14 -15 -16 -17 27 23 26 20 -22 -23 -24 -25 25 -27 -28 -29 -30
leaf_value=-0.053659438240877849 0.025329254172859986 0.011783728845619127 0.064451621116833308 0.0074988593128450425 0.0056559478595913856 0.063900860925683811 -0.046111606916663453 0.0074765178195833094 0.00035453645535298825 -0.042480968865294552 -0.0055529300144277162 -0.014905106114783899 0.076047066920148065 0.04285289827627467 0.053553306737730469 0.064762373042394308 0.043795730528927428 0.019464080979242009 0.063951546774072443 0.00058765491010182491 0.059912173407209446 0.051945378126895772 0.043430823242610363 0.057391767517207017 0.068181493771056534 0.029752619395186315 0.040238985736022873 0.072534885816473951 -0.030464504745744456
leaf_weight=133.42159173637629 5.4808472543954876 4.6776267886161804 9.7587835639715177 8.1310737580061012 6.9813153669238108 5.0324304327368719 5.3103980273008373 6.4643866866826993 5.6041434854269028 7.6430980041623116 8.3639439046382993 5.5709011703729621 4.423582434654235 8.0694461613893491 5.444246307015419 4.8017487823963148 3.9851066619157791 3.9907832294702512 37.694749027490616 6.6376706510782295 7.059299796819686 6.065209984779357 4.9661915451288223 5.5930210500955582 8.3022740930318815 4.55209657549858 3.6966729909181586 4.6259905397891981 1.7706649005413044
leaf_count=2075 24 20 55 35 33 24 26 30 25 39 37 24 20 37 24 21 20 20 214 31 35 31 28 30 39 21 19 23 11
internal_value=-9.55142e-05 0.0361245 0.0466998 0.019725 0.0102069 0.00346678 -0.00570926 0.00233202 0.0312007 -0.0193458 0.0317681 0.0210181 0.0308771 0.0180293 0.0273013 0.0395378 0.038212 0.026836 0.0553892 0.0470864 0.0398001 0.0311914 0.0195652 0.0424787 0.0467936 0.0552934 0.0620564 0.0604642 -0.0534153
internal_weight=334.119 198.927 120.642 78.2854 51.9594 42.48 31.8434 26.533 10.6366 14.1075 44.7631 26.4279 20.857 16.4334 12.4256 9.47938 26.326 17.7149 75.8786 34.4872 24.7284 17.6691 11.6039 9.5838 18.3352 12.8544 41.3914 8.6111 135.192
internal_count=3071 985 615 370 242 201 152 126 49 69 202 118 94 74 57 41 128 85 413 180 125 90 59 50 84 60 233 43 2086
is_linear=0
shrinkage=0.05


Tree=27
num_leaves=31
num_cat=0
split_feature=0 0 2 7 15 18 18 4 4 1 18 15 11 13 4 2 7 12 4 5 12 4 1 6 2 13 4 13 4 4
split_gain=241.892 13.1164 8.53583 6.01465 4.59037 4.10323 4.81171 3.6009 7.0811 2.84764 2.88143 2.64658 2.44842 2.5504 2.14242 2.11243 2.07591 2.01485 1.8636 1.93768 1.97172 2.97353 1.78402 1.2239 1.08546 0.824005 1.02187 1.32293 2.06953 0.284808
threshold=0.021054964539007053 0.29285714285714287 8.5000000000000018 2.8271025391463085 30.500000000000004 -0.2852400527893541 -0.44844557309847261 0.74621212121212133 0.57247899159663873 0.13484848484848483 0.35450080291306219 1095.5000000000002 3.9656762387654578 -0.47221123855388542 0.3429276315789474 9.5000000000000018 -1.3209471025099342 -0.099620555528572532 0.436491935483871 0.21735866669999157 0.42394404675072506 0.59175084175084181 0.45000000000000007 -0.33022760128403411 12.500000000000002 -0.39127707794054906 0.31909090909090915 -0.49901704593978696 0.5887605042016808 0.41042780748663105
decision_type=2 2 2 2 2 2 2 2 2 2 2 2 2 2 2 2 2 2 2 2 2 2 2 2 2 2 2 2 2 2
left_child=-1 2 3 11 -4 6 7 8 12 -7 -11 16 13 -6 -5 25 -2 22 -18 20 21 -20 -17 -8 -24 26 -3 -28 -29 -19
right_child=1 15 4 14 5 9 23 -9 -10 10 -12 -13 -14 -15 -16 17 18 29 19 -21 -22 -23 24 -25 -26 -27 27 28 -30 -31
leaf_value=-0.053200376998957681 0.015970111402244257 0.063160103250153005 -0.053586641353859966 0.023698565835424856 -0.017311323293400297 0.058734328001651438 -0.000906319226854821 0.055254665121131585 -0.042683469722323952 0.040748607113311325 -0.011193152450602737 0.0056860914086097787 0.05331907724493206 0.030467195056850291 -0.022291361509065057 0.0076897668934097141 0.066938015168546486 0.042375816466436941 0.045515787789476951 0.064176196598738133 0.053966388695767246 -0.0094963405845669493 0.018666649817716603 -0.036258662288334721 0.056130816588885003 0.062098428224691929 0.054944410959752443 -0.00040749173612444835 0.046064862453415067 0.070203758837207919
leaf_weight=129.11350460723042 4.888665407896041 8.5100291371345538 2.5855504423379889 5.2483136653900129 4.6918424963951111 6.7339364290237453 4.2090485095977783 4.6115961596369734 5.3075835406780234 5.4556973427534086 4.8581742793321609 4.2468992471694937 4.7496115118265143 6.3745097517967277 4.6802611649036407 7.6223475188016954 15.207979589700697 3.9095293730497342 4.4826375395059603 7.4904056638479224 6.0612166523933402 4.9880865961313248 3.9583210349082929 6.966583698987959 5.4389085024595261 31.330917701125145 7.8333559632301357 4.0944686681032163 5.0353564620018005 4.2635641992092133
leaf_count=2086 24 50 11 23 22 31 19 22 26 23 22 20 20 30 20 33 78 20 21 34 28 23 20 36 30 187 42 21 27 22
internal_value=-7.92638e-05 0.034927 0.0238268 0.0374452 0.00989764 0.0131256 0.00357401 0.015576 0.00645836 0.0333731 0.0159296 0.0448524 0.0234283 0.00978896 0.00151456 0.0502291 0.0485722 0.0372554 0.0525582 0.0425946 0.0315228 0.0162228 0.0266386 -0.0235136 0.0412393 0.0558196 0.0476887 0.0393094 0.024903 0.05817
internal_weight=324.949 195.835 113.839 57.2945 56.5441 53.9586 36.9108 25.7351 21.1235 17.0478 10.3139 47.3659 15.816 11.0664 9.92857 81.9968 43.119 25.1927 38.2303 23.0223 15.5319 9.47072 17.0196 11.1756 9.39723 56.8041 25.4732 16.9632 9.12983 8.17309
internal_count=3071 985 533 271 262 251 175 120 98 76 45 228 72 52 43 452 208 125 184 106 72 44 83 55 50 327 140 90 48 42
is_linear=0
shrinkage=0.05


Tree=28
num_leaves=31
num_cat=0
split_feature=0 0 2 5 2 18 0 18 4 0 6 18 6 2 14 4 4 9 1 16 4 15 15 4 13 4 13 4 5 13
split_gain=226.494 12.6979 7.96436 3.2742 4.71732 3.83064 4.47314 4.49524 3.20502 4.02347 3.17137 2.74972 4.3109 2.10938 2.07075 1.91274 1.92651 1.78622 1.74329 1.50557 1.71299 0.920469 1.13463 0.869295 0.846012 1.02514 1.26501 1.94127 0.378261 0.179054
threshold=0.021054964539007053 0.29285714285714287 8.5000000000000018 -0.86632373067717416 28.500000000000004 -0.2852400527893541 0.070197044334975353 -0.42753754290815932 0.42752100840336132 0.088932806324110672 0.2742372263565207 -0.70566526977241306 0.030114535307145803 9.5000000000000018 8.5000000000000018 0.29099462365591405 0.21807065217391303 0.11328534844353001 0.87500000000000011 1.5000000000000002 0.70341435185185197 46.500000000000007 85.500000000000014 0.74621212121212133 -0.39127707794054906 0.31909090909090915 -0.49901704593978696 0.5887605042016808 -0.12328127169758324 -0.54694453769963969
decision_type=2 2 2 2 2 2 2 2 2 2 2 2 2 2 2 2 2 2 2 2 2 2 2 2 2 2 2 2 2 2
left_child=-1 2 8 -4 5 6 -5 11 15 -10 -7 12 -8 24 -6 16 17 -2 21 23 -21 28 -23 -11 25 -3 29 -28 -15 -27
right_child=1 13 3 4 14 10 7 -9 9 19 -12 -13 -14 18 -16 -17 -18 -19 -20 20 -22 22 -24 -25 -26 26 27 -29 -30 -31
leaf_value=-0.052990495741563885 0.024882173725473342 0.062249310853051687 0.040626509244574276 -0.041643793984835767 -0.06120888448482719 0.055478943718719989 -0.016002690476963288 -0.028184990972407231 -0.0077021080321877933 0.062870379631783491 0.0063934798197329643 0.050517403155865594 0.044255108187093731 0.025429609657681953 -0.0050921842910163773 0.071456221547513715 0.015544036514128445 0.067973857842472438 0.060571665348847809 0.0021650204733399169 0.040427650091161907 0.059142436637713694 0.022727963008004035 0.031960863807065303 0.061196456616754893 0.039359442774656389 -0.00038753671238930115 0.044812279220654845 0.0029985952977997889 0.064713190934131692
leaf_weight=123.2911183051765 4.5881340950727516 8.2118403017520922 7.25231909751892 5.0529333502054241 3.3152760341763488 7.166934207081793 7.1883424669504183 5.6962635368108776 7.0359349846839931 5.708820119500162 6.5351366996765137 5.7689138352870932 4.848618358373642 4.1846143007278442 3.6211380735039711 7.6254401057958594 6.229574427008628 6.991665780544281 5.8648304790258399 6.2941529303789121 5.9121464788913727 4.1491486728191358 6.1700329184532166 6.1204117089509964 30.232409879565239 3.7310304641723633 4.0951669514179212 4.9229761064052582 4.4357103258371406 3.9001643657684353
leaf_count=2086 22 50 31 26 22 31 31 26 32 28 29 25 21 20 20 38 31 36 37 28 27 20 28 29 187 21 21 27 20 21
internal_value=-6.9187e-05 0.033748 0.0228412 0.00941155 0.00463519 0.011013 0.00038023 0.00976535 0.0361279 0.024893 0.0326461 0.0222749 0.00802248 0.0490566 -0.0331126 0.0495056 0.0394813 0.0516874 0.0360446 0.0346341 0.0212818 0.0279086 0.0382765 0.047699 0.0547484 0.0464931 0.038098 0.0239594 0.0146275 0.0536334
internal_weight=316.141 192.85 112.952 56.4459 49.1936 42.2571 28.5551 23.5021 56.5063 31.0715 13.7021 17.8059 12.037 79.8979 6.93641 25.4348 17.8094 11.5798 24.8043 24.0355 12.2063 18.9395 10.3192 11.8292 55.0936 24.8612 16.6493 9.01814 8.62032 7.63119
internal_count=3071 985 533 262 231 189 129 103 271 144 60 77 52 452 42 127 89 58 125 112 55 88 48 57 327 140 90 48 40 42
is_linear=0
shrinkage=0.05


Tree=29
num_leaves=31
num_cat=0
split_feature=0 0 2 15 18 0 18 2 12 4 0 10 1 6 2 12 4 4 9 1 16 12 2 13 4 5 4 3 4 3
split_gain=212.246 12.2546 7.39879 4.24614 3.34465 4.32277 4.25013 3.20806 4.6714 3.04867 3.69951 2.81857 4.09004 2.23069 2.10704 1.95125 1.84216 1.82707 1.73978 1.69753 1.42181 3.00417 1.06026 0.866424 1.02678 1.21718 0.840901 0.717096 0.298682 0.209564
threshold=0.021054964539007053 0.29285714285714287 8.5000000000000018 30.500000000000004 -0.2852400527893541 0.070197044334975353 -0.44844557309847261 12.500000000000002 -0.29473779861402505 0.42752100840336132 0.088932806324110672 0.43587073232109674 0.13484848484848483 0.2742372263565207 9.5000000000000018 -0.099620555528572532 0.29099462365591405 0.21807065217391303 0.11328534844353001 0.45000000000000007 1.5000000000000002 -0.021573658294391444 12.500000000000002 -0.39127707794054906 0.31909090909090915 0.065892858492041059 0.74621212121212133 10.500000000000002 0.41042780748663105 16.500000000000004
decision_type=2 2 2 2 2 2 2 2 2 2 2 2 2 2 2 2 2 2 2 2 2 2 2 2 2 2 2 2 2 2
left_child=-1 2 9 -4 5 -5 7 -7 -9 16 -11 12 -6 -10 23 19 17 18 -2 -16 26 -22 -21 24 -3 -26 -12 -8 -17 -27
right_child=1 14 3 4 11 6 27 8 13 10 20 -13 -14 -15 15 28 -18 -19 -20 22 21 -23 -24 -25 25 29 -28 -29 -30 -31
leaf_value=-0.052789777453070945 0.023840830861198495 0.061399533896312933 -0.052186370861679487 -0.033369885576094653 0.082756810328964675 0.055716005458662468 -0.0036340597128773919 -0.033477459019736297 0.047797023746640001 -0.0073274619047450675 0.061282764520167225 0.001874809864195078 0.019184946762226169 0.0036076278436103673 0.005969994331534105 0.039907182649828524 0.06994993622296504 0.014856015355571659 0.066687684839775649 0.016643526092265142 0.050447353979169718 0 0.05415996685141744 0.060350733683533199 0.019582471313343373 0.038615160942318136 0.030665648448366962 -0.034237677466263661 0.068200355937331023 0.061896676874694724
leaf_weight=117.71317717805505 4.5543577671051079 7.9180516004562405 2.5754791051149359 6.4149070382118216 4.3625578135252017 5.6075647622346905 4.6620010584592837 4.1218825131654802 6.2609961032867378 7.0311303287744549 5.5700080692768115 6.0190820395946494 6.6775958612561226 5.6931928098201752 7.5583202391862931 3.761552393436431 7.407838135957717 6.1976431608200064 6.7775474339723587 3.867669463157652 4.8429498374462128 7.3188447356224042 5.163442850112915 29.152072802186012 7.0196324735879925 5.5430283695459348 6.0656156241893768 3.7783560231328011 4.0673628151416779 3.7817817181348801
leaf_count=2086 22 50 11 35 19 24 21 19 27 32 28 27 30 29 33 20 38 31 36 20 23 32 30 187 37 31 29 20 22 22
internal_value=-5.41827e-05 0.0326412 0.0219319 0.00897919 0.0121031 0.00338733 0.0114647 0.023256 0.01135 0.0348503 0.023881 0.0303514 0.0452718 0.0273711 0.0479313 0.0348777 0.0480618 0.0381842 0.0502638 0.0243761 0.0333031 0.0203323 0.038999 0.053729 0.0453525 0.0369484 0.0461455 -0.0181598 0.0559117 0.0491443
internal_weight=307.486 189.772 111.94 56.1736 53.5981 36.5389 30.124 21.6836 16.0761 55.7659 30.8285 17.0592 11.0402 11.9542 77.8329 24.4183 24.9374 17.5295 11.3319 16.5894 23.7974 12.1618 9.03111 53.4146 24.2625 16.3444 11.6356 8.44036 7.82892 9.32481
internal_count=3071 985 533 262 251 175 140 99 75 271 144 76 49 56 452 125 127 89 58 83 112 55 50 327 140 90 57 41 42 53
is_linear=0
shrinkage=0.05


Tree=30
num_leaves=30
num_cat=0
split_feature=0 2 1 3 0 10 0 4 5 14 12 1 3 12 12 4 5 4 4 4 5 0 2 4 3 14 4 13 13
split_gain=197.578 11.2796 4.76544 5.18783 4.2597 3.87375 3.1327 2.42402 4.44626 2.79843 2.40543 3.74353 3.33948 3.25904 4.05455 2.09503 2.08065 1.76846 2.60217 1.44567 3.47184 1.33376 1.503 2.00569 3.16716 0.832586 0.647893 0.555212 0.0590254
threshold=0.044466403162055308 13.500000000000002 0.26136363636363641 21.500000000000004 0.08603145235892691 0.38852405129376505 0.021054964539007053 0.41042780748663105 -1.0000000180025095e-35 4.5000000000000009 -0.48985504169947752 0.45000000000000007 6.5000000000000009 0.57028197906481448 1.2304286515039291 0.47140522875816998 -0.054572178827194749 0.24642857142857141 0.16927083333333334 0.59175084175084181 0.3001453861641209 0.58333333333333337 5.5000000000000009 0.48507130124777187 12.500000000000002 8.5000000000000018 0.78679653679653694 -0.46420179249159199 -0.45929277716308953
decision_type=2 2 2 2 2 2 2 2 2 2 2 2 2 2 2 2 2 2 2 2 2 2 2 2 2 2 2 2 2
left_child=6 2 3 5 15 7 -1 17 -9 -10 11 12 -6 16 -15 -3 -12 18 25 -7 -21 22 26 27 -25 -2 28 -24 -4
right_child=1 4 21 -5 10 19 -8 8 9 -11 13 -13 -14 14 -16 -17 -18 -19 -20 20 -22 -23 23 24 -26 -27 -28 -29 -30
leaf_value=-0.053000341921612765 0.055525643021574325 0.0052987412575758097 0.045331976059740951 -0.019344668234378436 0.012578048059845894 0.065965984896960525 -0.012960438620367477 -0.027237979983830918 0.056746782687171184 0.005382815923284533 0.05751745241837062 0.039572638468475203 -0.046259913942448813 -0.017332733385017406 0.036480813032576088 -0.043781229392517856 0.020077585898581107 0.054746137218466197 -0.0053892181380564928 0.0078840810522251403 0.064480772697344535 0.060176164203961616 0.063811090818613234 -0.015931152991158486 0.039288311974738227 0.020864770722581978 0.03242468838654472 0.03394900006325955 0.062016772047964366
leaf_weight=112.62200243771076 4.4014327526092547 3.8723446205258352 5.2517226487398192 4.7590658217668524 4.5790331959724409 9.9755920767784136 5.5355061367154113 5.4058887809515026 4.6420671045780164 6.6276001930236816 9.061387747526167 4.1693492531776419 4.7055212408304214 7.2839528098702413 6.4652634859085083 4.3848005682229996 7.3952888846397462 7.7546209990978232 4.7544397264719001 5.5602617263793928 5.7120854705572128 22.706184223294258 4.5245696306228638 4.2190368324518186 6.1344929188489914 4.1526250839233398 4.7020383030176154 4.7831673026084918 12.717637285590172
leaf_count=2097 23 19 30 21 20 51 29 24 22 30 43 25 21 35 29 27 34 39 22 25 26 159 25 20 31 20 26 27 80
internal_value=-0.000912064 0.0319393 0.0398847 0.0298831 0.012095 0.0339655 -0.0511794 0.023993 0.00925997 0.0272928 0.0183833 0.000405752 -0.0168841 0.0261978 0.00769156 -0.020378 0.0412176 0.035322 0.0233071 0.051248 0.037318 0.0495498 0.0436039 0.0324885 0.0163711 0.0397126 0.052839 0.0495207 0.0576951
internal_weight=298.859 180.701 128.785 63.7457 51.9169 58.9866 118.158 37.7387 16.6756 11.2697 43.6598 13.4539 9.28455 30.2059 13.7492 8.25715 16.4567 21.0631 13.3085 21.2479 11.2723 65.0388 42.3327 19.6613 10.3535 8.55406 22.6714 9.30774 17.9694
internal_count=3080 954 701 303 253 282 2126 180 76 52 207 66 41 141 64 46 77 104 65 102 51 398 239 103 51 43 136 52 110
is_linear=0
shrinkage=0.05


Tree=31
num_leaves=31
num_cat=0
split_feature=1 1 2 3 11 14 5 7 12 2 16 15 1 4 7 18 1 15 4 4 12 6 4 12 4 4 13 18 4 2
split_gain=157.114 13.3165 6.68091 5.3006 3.88759 3.78621 3.51381 3.4452 3.33066 3.26124 3.23957 2.71714 2.58375 3.1016 2.97506 2.99462 2.55478 2.51385 2.12135 3.86009 1.94428 2.90002 2.5212 1.76316 1.85223 1.74762 1.4809 1.26093 1.15578 0.993768
